nep4_charge2   19 H Li B C N O F Na Mg Si P S Cl K Ca Fe Zn Br I
cutoff 6.0 5.0 134 81
n_max  6 4
basis_size 12 8
l_max  4 2 1
ANN    100 0
3.624981409668144
3.697500649949011
2.9866248056486313
-2.993788212018334
2.417302081855291
3.097799350318021
-3.3348915783799584
-2.1925993286064127
-1.99586857425673
-1.5997851396154772
-1.7528889040747069
-1.6284048225000036
-1.765039109742319
-1.574630315559346
-1.536118060387106
-1.8871616945602485
-1.859857898640329
-1.497608001679322
-1.7131421294917353
-1.7605588983463998
-2.067658721722202
-2.027745601960914
-1.5717581065797543
-1.449109100571284
-1.9635398547507887
-2.195537129898029
-2.0480104967874215
-0.4705475383563318
-0.32504916894149316
0.4061762576371686
-0.2756257213072136
0.9319484191877719
-0.5764644240361069
-1.0301891281456952
-0.46326044736339933
-0.476244580338004
-1.042876109233926
3.340834127761598
3.4194390686957705
3.8251229266426505
-4.0876529121446215
1.5292653009053032
2.6025881834462834
-3.6952768128660267
-2.21138167358034
-2.169403163484142
-1.572257316026275
-1.8190927571857276
-1.502782161830603
-2.1451375213953114
-2.195723190146941
-1.9203229306885092
-2.581524407061497
-2.0992298109232514
-2.0345813157652928
-2.1618760553129266
-1.73198768444004
-2.799558771386856
-2.2380030881863133
-1.9916845512959107
-1.881182195490164
-1.64101906862149
-2.168951010083398
-2.17658660149187
-0.649216305736649
0.9037891467394255
0.3572708543864183
0.32632985150823884
1.4478045405575326
-0.6917513661248283
-0.6946683020527379
-0.4879190281513766
-0.5919398521392208
-0.45127515346163655
3.079994550672486
3.120012210010378
3.3921222657719245
-3.5664290124874682
1.7543361434630118
2.546823300367892
-3.142515805964316
-1.7257475342288082
-2.00691106353675
-1.513953941657332
-1.4524550494726258
-1.2170286263054693
-1.6984970317901689
-1.7888159431434778
-1.3667475290417899
-1.9324704413850173
-1.7439094710962426
-1.4056031761432672
-1.8098479926233726
-1.5453974269151853
-2.0133708220144344
-1.7003296827940122
-1.5441425436207181
-1.61071862113101
-1.3248781610639904
-2.1992296142698486
-1.8081213172701645
-0.455980082580621
0.27824041436978236
0.49765908586375357
-0.33188596086867955
1.0708600580747867
-0.4930926381981512
-1.2056342165804423
-0.29946538169452186
-0.4553997857819229
-0.33859724865615975
3.3040558127750885
3.2007031047671792
2.462414265977457
-2.6665205137369354
2.398410082703476
2.906073310971812
-2.9549899440434317
-1.704236800608742
-1.6583600964671843
-1.272863018128248
-1.3538883215019528
-1.628497042758169
-1.7434201669454124
-1.320189979623065
-1.3150889231849356
-1.7620112017552787
-1.7209516819854385
-1.5512579438438079
-1.27537315718843
-1.499554999157803
-1.7192643069828526
-1.831933396978448
-1.5264581899511596
-1.1023974632355156
-1.6304473331917821
-1.7657181392891126
-1.7757900160531477
-0.5528432432124718
-0.2313235961078142
0.5116788093171343
-0.039857902815079546
0.4663127057443929
-0.44632107981845526
-0.9954274500753678
0.016057836619374963
-0.4457633652229769
-0.8850474442568103
2.9537999424577137
3.1736429451485106
3.254663319945906
-3.6287148212930926
1.7378951354089305
2.460535850178719
-3.2195793934747283
-1.6652097467601932
-1.876256003915342
-1.380194387462888
-1.4135049039855057
-1.3337242991772715
-1.597631039841949
-1.7108841299897002
-1.3426403253196948
-1.8591822648496443
-1.7195889915513096
-1.3528628174760526
-1.813296431734093
-1.3312418696613102
-1.9838402947879885
-1.851562101793945
-1.452933583146455
-1.6782829966119395
-1.3869020474123293
-2.0246665722537536
-1.6603145514812825
-0.623777905537221
0.05817172383917245
0.29313416370294265
-0.216660518265059
0.8008013446832407
-0.4091963959012388
-1.183366510851346
-0.17274834404783143
-0.24552669914156303
-0.49589827171321177
-4.4968814682658325
-4.542711460966224
-3.481974025647491
3.6696995753802533
-3.3062430126831286
-3.925683551115495
4.142443491535402
2.7011544354574317
2.3042001898253934
2.106614848719811
2.360164348133358
1.9480250340923448
2.1237142812443723
2.233564788898233
2.167450351934135
2.7935528906595932
2.21294860174085
2.029777516362344
2.2111440644695954
2.313794482817564
2.694102923401028
2.31935232056881
2.22575657727205
1.8787285272461702
2.506505770400479
2.9417175898588623
2.380798607321583
0.8120909164064379
0.27388399476719827
-0.7658884619332355
0.6688309398340291
-1.0270502080798278
0.939125606565971
1.323189870628203
0.5353306071136705
0.5138911360780019
1.1312393168219892
-4.51230006577085
-4.458363723889328
-3.11262664385352
3.2652968021140585
-3.4699824923158227
-4.040502046410213
4.088651859799568
2.4873093501411163
2.3027905827115682
1.862113363691897
2.1487563301348205
2.1141422131412106
2.1886191606873786
1.8410669041472134
2.023649582111175
2.512902032611138
2.3573854334168196
2.176154556682543
2.0657213254242235
2.3426053234805804
2.5812090330316977
2.41272531972651
2.1080646570939536
1.8496507525645782
2.4769668731706687
2.7729340798913658
2.2446477167894594
0.8542358993633115
0.3633353954035223
-0.5791913221752598
0.4258599804060333
-0.941638707437804
1.0254723714994032
1.1407735753485
0.43486573013698826
0.474021853160296
1.3325957290097556
-3.60974619532073
-3.4801523488512363
-2.6944851726963877
2.9198059480679945
-2.472433175905829
-3.0989110193208615
3.312927023259854
1.7789385986552209
1.9145382348677413
1.4279007948749765
1.587904375481497
1.5705067400220913
1.6212865631074842
1.631089728362126
1.4266619077178526
1.6543609711237506
1.9143797021148035
1.503610278516119
1.4516594720987535
1.6625725283780453
2.0789260005791323
2.0446170929046943
1.578720050092121
1.2550726901825695
1.7922497095490328
2.1793866492658642
2.039122751990808
0.5515510057842328
0.373791693762587
-0.4965541737420016
0.2778535737580122
-0.7421686928109369
0.5568964994054506
1.0007878299419501
0.2097972950494814
0.3859915343652094
0.9754638965761024
3.8294254250013307
3.825823356239947
3.6389141962651856
-3.5928084912330136
2.546915791725001
3.1906397371799287
-3.8826607788697536
-2.2351218392999637
-2.1805975895109495
-1.814226821635923
-1.8321285658235298
-1.6278194536112074
-1.9435590842138761
-2.125586570479676
-1.758206368030609
-2.5953554474242613
-2.1085155884179576
-1.7909095520389955
-1.8800881806444356
-1.6830264988559682
-2.323579547523524
-2.139641964909495
-1.7951584297932752
-1.809024967698265
-1.8616086116402553
-2.4405564055539175
-2.025683579347911
-0.6660184141811136
-0.08133527618445217
0.5206228845686718
-0.4918677573614521
1.108321906360861
-0.9069278987529961
-1.2123771373317436
-0.32348136252236653
-0.6119565797690483
-0.9926937201574413
4.159298006435003
4.2380862729976165
3.632471270563741
-3.942742790655271
2.91584373571978
3.7508715468306337
-3.8584424249828793
-2.485173061476215
-2.213151573871631
-2.0410614853069897
-2.11443101484224
-1.7141323464293194
-2.1253909114796916
-2.1772180454175007
-1.986252915274997
-2.5326129706902694
-2.206782669681343
-1.8915448279405997
-1.9027578114919819
-2.1311412540255787
-2.6149284639242465
-2.199395596176495
-2.0679230012120424
-1.9350034347754186
-2.1285530763880205
-2.9339456387270926
-2.1358544484267226
-0.7205027283692935
-0.012334032440282331
0.9935408145315693
-0.7128788062534661
1.19547766123751
-1.0387536480034618
-1.1023935994187761
-0.668719513954013
-0.5954661391780905
-1.061409812061586
4.794294408572421
4.903080886537513
2.846151791943761
-3.0683629316304764
4.690015518523439
5.043070044348722
-4.109360203986222
-2.7810559118838634
-2.292739311380847
-2.3491432154766105
-2.8925276813754373
-2.999855065325469
-2.620620609616163
-1.7957131713612087
-2.259342875187046
-3.2829213498406524
-2.6917512290536094
-2.6427879857203918
-2.359741676430823
-2.785539348299036
-3.483274025151155
-2.8578816656350385
-2.4712708574699316
-2.2174996990353404
-3.20415374231347
-3.3975080575623933
-2.7600129237777287
-1.1213784894205385
-0.7007597517485722
0.4304173815079259
-0.5275687184874803
0.6125164908532527
-1.262151163608368
-1.3111316059753415
-0.7477021570538911
-0.8866555757608797
-1.9602029060164206
-3.6069336837702766
-3.6249060053954487
-4.061824768829169
4.231403007393242
-1.6841189033825226
-2.868380931849088
3.696093592938165
2.500441710220314
2.1722771991765977
1.8842318309253878
2.1082973293999183
1.473361780264039
2.248515239616548
2.3553859460820807
2.098364816607475
2.9755170937707445
2.2864232600631835
2.1765679690706445
2.335796300836579
1.9815944781036534
3.0642193994617393
2.3287327716904027
2.0386256091965267
2.146379873455494
1.7843972751732882
2.476275896759266
2.2638924346411766
0.6408304777023638
-0.8918181802890967
-0.4516414471716523
-0.07615091197766359
-1.3670794284740493
0.8408263343991761
0.9716667786063691
0.5723449904959673
0.7119228243143689
0.6618460021081848
4.621578887397663
4.414303228885266
3.2379416756928867
-3.4351982614803585
3.483267184462871
4.107072464114808
-4.022118664894368
-2.5188380883640065
-2.28608630277974
-2.0771589915921633
-2.3108468146658043
-2.0762164829222916
-2.154040341815074
-1.864820538315723
-2.1500927730812722
-2.724628487406852
-2.2718167962625055
-2.177844632857661
-2.0706446715944047
-2.3627084948538575
-2.7407521845780893
-2.391474640250924
-2.03725656847451
-1.8863595904667894
-2.554756532010864
-2.819319872673141
-2.496049348149911
-0.8448948276570567
-0.33388244130778516
0.5575694287167666
-0.43704233251433444
0.9662096176597088
-0.9028421748616303
-1.2163133069012853
-0.656879353166854
-0.5140617171900213
-1.2083114619580493
-4.324434151019432
-4.3942668976124075
-3.74207463677127
3.8601403307825435
-2.836620004173454
-3.568373752015457
4.108222517308966
2.537672498884657
2.422028435386418
2.2367299804808156
2.212262904138784
1.7632407776164787
2.3615459542702872
2.160397646602913
2.195216514003839
2.841344662385881
2.2405132533138263
2.076981197157233
2.1148491178208673
2.266356862026016
2.93117305370039
2.3792805822111567
2.095484068376728
1.8930546521794878
2.0032006568201375
2.6281224862961516
2.274036539301099
0.7805266129673647
0.08490650546510979
-0.6225971584526535
0.5822491871944055
-1.113902613139782
0.9522486635769943
1.319409574808445
0.6356276590555735
0.420133565419306
0.9908393662910989
-2.5529453936768975
-2.71837350142961
-3.2686538474574545
3.3374899723708857
-1.362609464329478
-2.3724162026284374
2.8111565364788333
1.3519132521914612
1.5387348787105155
1.0467863339317203
1.1795461478349423
1.0516360536267209
1.444902483456369
1.6532778637822092
1.1665641725759919
1.699155316093921
1.6266602416380942
1.1999114509545774
1.6442519433029072
1.007920827810746
1.8299382126615855
1.7531594035366356
1.3207353552523067
1.5732999556773846
1.0989428556406458
2.0724553736005653
1.6635021680484467
0.5753884834701573
-0.5848450713736545
-0.09797081133092693
0.1882126938803334
-0.9038505870936335
0.38713659366626546
1.0883879902204925
0.244013545073138
0.21302631684982498
0.3437063897610097
4.2159209120122005
4.243487230201381
3.521793638356374
-3.7951242871344983
2.818246803146385
3.423408171206988
-4.018654063089457
-2.361361437884351
-2.3692642030713555
-2.0228358575934924
-2.1207103061016337
-1.9279719836021567
-2.100308157377059
-2.086020035997783
-1.9352739871169173
-2.5967082594128232
-2.1826491976952695
-2.0181457051656224
-1.910322919007914
-2.29624030133096
-2.640946213351788
-2.1591824330534672
-2.1378692194348394
-1.8873849415102237
-2.0774628860185596
-2.757844038589941
-1.9958204820683332
-0.758496041564565
-0.06652520611206444
0.551547395672372
-0.6072077142960444
1.044840363800931
-0.91416773924529
-1.3351627337632912
-0.5677458162121165
-0.7476833766856176
-1.128897718494297
4.182449148144984
4.091111597162505
2.808976112077913
-2.81960958014541
3.1868833353413404
3.91636487089462
-3.509885751063435
-2.147296212678754
-2.092520363451137
-1.738940286231502
-1.8306581568477402
-2.037222266550668
-2.0174468678136184
-1.6166513325368121
-1.6762357257241456
-2.189971794057635
-2.114825326899726
-1.8654189345636532
-1.8225068040645733
-2.137694608571197
-2.506422626265036
-2.3469804720521306
-1.9338044082545522
-1.4616336802225212
-2.2829121221853095
-2.3374944078894075
-2.0786813743225663
-0.5085454426008237
-0.44071683583539967
0.3667273326727007
-0.06262242323912144
0.6620436563350347
-0.8280409462599295
-1.1262572048120714
-0.3926436856810611
-0.4779107385720576
-1.2741203189169794
-3.1530512932751664
-3.2717225073759444
-3.7176322122098493
4.03687452405813
-1.6316236526559627
-2.7215348978967033
3.4076480806845564
2.00189373444072
2.351487859466658
1.4752379124908397
1.98802980559221
1.4335600139405336
1.9931698290139876
2.1774042231488804
1.75844378847056
2.3424516353121305
2.0276821959611557
1.9206680700363936
2.0979772065323745
1.4993806941894683
2.622119007379377
2.1239847662958375
1.9276535418111311
1.950444121272028
1.4154389645619334
2.255262553707386
2.067965307383278
0.791062393640103
-0.7555043613356908
-0.2332740872824933
-0.06419219495954527
-1.4619274998773433
0.8714752666334822
1.448869712837342
0.29136092176163386
0.769279308179945
0.5885761365841999
3.6317842098760287
3.827346358681963
3.598686389967138
-3.9299945302338095
2.4104447531272073
3.238158276413475
-3.9533462486518887
-2.3259159304294075
-2.2590028438180774
-2.012781929498078
-2.080413435454201
-1.5291794111872838
-2.0354966847709224
-2.0213958730867523
-1.9689919454100777
-2.2841478088073055
-2.035512931489204
-1.9003808789231424
-2.2003403686803344
-1.9052375908062598
-2.3339175094602505
-2.173628252959506
-2.034360082542514
-2.028691120443297
-1.7314914265580137
-2.681486330790036
-2.0988427328037553
-0.7228079213103618
0.25016228009589037
0.5112091650741923
-0.5418387609527421
1.409337826147227
-0.9348374379979022
-1.3800778687849065
-0.6857716170355768
-0.6740545782364895
-0.8666556489613673
4.7908641088428965
4.786237302782045
3.080979287482949
-3.4512876774389234
3.8673966875389945
4.6951412765047795
-4.036520206777842
-2.6523296894495068
-2.5956367805547376
-2.1886830564854356
-2.4234214198211728
-2.4702923849308944
-2.3624020776847097
-2.1532215056393755
-2.1346186261968954
-3.083813615764611
-2.494651365481038
-2.2449268379740697
-2.1799838930346414
-2.542084974356428
-3.0428798592993864
-2.3984527435123537
-2.0654673662839818
-2.1152344814284216
-2.86452723655998
-3.2003584571135764
-2.3703919781007343
-0.8014787901546627
-0.578128447356288
0.5348014888758933
-0.48137104469458136
0.863399956558081
-1.1218527067234683
-1.4218331471010985
-0.6172746657072141
-0.5350901470976075
-1.2365683605718059
-3.2091125710639754
-3.2189123874190693
-3.0196365069832796
3.254794760478262
-1.735271330866268
-2.686914118121239
3.020924575576939
1.6965463336071038
1.7323789184936003
1.2247248235168116
1.289200345505007
1.3066727971516876
1.456477464215118
1.4404823199058694
1.4430485666622799
1.5389074126407851
1.778306317571499
1.4130545406919999
1.5769362292461944
1.3969057727767562
1.7968261931291556
1.554200487105641
1.4638311927727432
1.4376105602119775
1.4167032366029355
2.05094958556765
1.6589210975439346
0.6426302947198061
-0.027249489262191347
-0.5245583424266008
0.3875550782001333
-0.7422097098443678
0.2535932476370278
1.1230327174359673
0.12106754355724779
0.3582551547183296
0.7661668067829192
4.0397065508014105
4.153831749668676
3.6230742131896942
-4.063938652997798
2.6532365909597955
3.553670069973416
-3.9760486220149684
-2.5134100073604526
-2.3131941209306284
-2.116103112957125
-2.3329395119743785
-1.7321617485650889
-2.150071611562279
-2.129659611081639
-2.188454290327296
-2.835331422968451
-2.4131217479721387
-1.93839162106666
-2.181127581251842
-2.0508526265816647
-2.800399434128898
-2.137036771519155
-2.1602341685327726
-2.118792213939087
-2.1324009390505934
-2.9701540531133297
-2.5446484799988704
-0.8103943104022184
0.1156122305759733
0.7290272444303274
-0.6229185739431816
1.3205247253747885
-1.1204990535009556
-1.2431886354614898
-0.507313623545386
-0.5331873410134103
-1.022770228469303
3.872803280157969
3.981071928325127
3.2633538727676976
-3.4927665493936657
2.7178820220651834
3.5054063160471314
-3.909012169304558
-2.365276555609196
-2.0982625263898047
-1.9180160117463227
-1.972598834138716
-1.8077954969417163
-1.9710316361479587
-1.7098625412024326
-1.8286595609203338
-2.4152155194450615
-1.9974725181321906
-1.8849263595940293
-1.8879238061462902
-1.8995944906328612
-2.430984753138247
-2.213273206581266
-1.966241349464024
-1.5434462887333926
-2.0439476823593394
-2.4572124809142486
-2.022439057143534
-0.7863564681635132
-0.0533597528369408
0.6276758753965526
-0.5035014334351421
1.0985284247551885
-0.7558879530019454
-1.3898157222079457
-0.4006015466083381
-0.37595117264504363
-1.0827979019992757
3.577189927154988
3.611085183318765
3.8698806621595754
-4.197032184435436
1.569822284811183
3.0081088208802638
-3.7925381678132584
-2.5494441506114973
-2.3408977746908497
-1.6654219892048696
-2.203344684565582
-1.6545361476223421
-2.4154048778579225
-2.1227662277217174
-2.178904813427105
-2.8204786461890725
-2.1810038947157575
-2.228267824769368
-2.1934834503562857
-2.1561113103292007
-2.96066788411669
-2.2557213323674765
-2.2849642806121704
-1.9143342251572923
-1.781439870190735
-2.436518974588134
-2.1729034248011625
-0.6937546881869452
0.9051941790083811
0.5961415575709098
0.07871417715465091
1.2365875683126868
-0.7957292135100035
-0.847435719088909
-0.4012785863600023
-0.9509239818982932
-0.6167726588478043
-4.515213869763355
-4.633648207662334
-2.551043591685387
2.9541132836973705
-4.807013900115697
-5.0259208603400545
3.7699203809157815
2.6800469890218173
2.3047946334374108
2.344362133038044
2.92421285037366
3.327225489977646
2.579495417433379
1.7911528358826605
2.287496243163854
3.6895583733692474
3.002013160621543
2.6451833212537657
2.285894797338619
3.0901494845852233
3.9089340862560213
3.1195218940356515
2.5190684273842248
2.291481693562691
3.3831176527908933
3.861823596907733
2.8260376568769137
1.1800488041905122
0.7588553909531478
-0.4269937350030767
0.3637530789119189
-0.4323304833041071
1.3966437365391584
1.0960538143036695
0.6847855536073344
1.0818702914999967
2.085537062954288
-3.9020749483922055
-3.9414653665246453
-3.347539139158588
3.7085199127899355
-2.6000416243835396
-3.4421398162488908
3.6708193897882264
2.2632698720641975
2.199777007828431
1.824120932006412
2.033220233506301
1.6413747228200175
2.0671020884668363
1.7118367591663997
1.798791806211479
2.3209647406854548
1.951785794751404
1.8146195473835025
1.8237932168411948
1.8935066311037567
2.227902550374382
2.1464609075040197
1.984300081083894
1.5056037808415688
1.8729156032822079
2.4441272820906152
1.9800608348761355
0.8319789056334127
0.16876352137677703
-0.6576542619395773
0.6807529158294976
-1.0317649839153142
0.8255215261492141
1.1718352353750918
0.5357054187955544
0.5118319418466513
1.0763852616260414
-2.457597547279606
-2.449680697707435
-3.1225908866542493
3.3866618083350417
-1.1539855900140303
-2.054260855303801
2.8257005392959473
1.4991669343026786
1.7705642706232816
0.9844301067241965
1.3030441712418006
0.8603562470576346
1.4670040812842726
1.7539236978808475
1.0330888118115853
1.6802641046709061
1.585869501960084
1.1371083438303216
1.7557671404066462
1.0558105255471486
1.7540230165350077
1.6840040590524128
1.4313681119875046
1.5375608515214687
1.1338448384925626
1.7877936374713606
1.505166807038098
0.42501864451865495
-0.7106104863316871
-0.014072683931959817
0.03003778102766101
-0.9322627178408572
0.2522524550797799
1.0549423930955664
0.032995536924617215
0.025788560013024302
0.30186944901476837
-3.667050439824354
-3.7491598695040564
-3.180612602612124
3.2778410034043413
-2.4287107034278557
-3.186044699556363
3.6710380873108224
2.086077623507868
2.1147951017630717
1.673838326571087
1.9362022353956467
1.7786635462100169
1.729974051173032
1.773617863404681
1.7072730225183812
2.0894892454173077
2.0312251350975394
1.7088720105909523
1.8150794383633337
1.810901450086084
2.2797077705942774
2.0211003748537566
1.900111485646772
1.4733599824865702
1.6515756544502482
2.3984963468783196
1.9954091543767802
0.6962229231185816
0.0313227764553596
-0.7793172233116904
0.36961739650198305
-1.0562663452196799
0.6761305492710193
1.0045808085322252
0.3486970765617008
0.41850917193161874
0.9036879170720962
2.883391169235344
3.1661828024291125
4.032408659456614
-4.289635863288225
1.358520330617252
2.0860595176868917
-3.9447172286266707
-2.1186828033512266
-0.9226205949537323
-1.4999424415973919
-1.5633292021914655
-1.224524054892433
-1.483220384691791
-1.5875578307268738
-1.341172836616321
-1.899580708199714
-1.3513872039713892
-1.3783321785715212
-1.8703262101509996
-1.1264448156852942
-1.5796589423891179
-0.877193904497798
-1.5318821066841715
-1.8029309713206052
-1.2093873835470959
-1.5277163576860961
-0.27732055187242743
-0.03042774860026685
0.2393023784087718
0.2114694672397899
-0.2585680493050585
1.000488822120653
-1.3582194203523106
0.19969814162283256
-0.9451129397653764
-0.5560361856367343
-0.5787184429359183
4.052167994455794
3.783795234484592
3.2810177802339946
-3.4252407132416276
2.648495949059769
3.2867311762157163
-3.838248944516708
-2.1776392613632938
-2.042361960414823
-1.785961747073994
-1.9359928772744104
-1.7056672661309131
-1.8729875169519639
-1.9447713489242788
-2.0114636771781296
-2.2829644194718406
-2.1097338777958816
-1.701379184325504
-2.088918374842483
-2.0958399968003483
-2.2485702610720213
-2.0427640440830555
-1.7335434725063188
-1.6832950508964948
-1.9030796218078625
-2.4643678292470317
-1.9855682920555207
-0.7249302210336944
-0.06512083324863388
0.7073515015605857
-0.505110924498784
1.2322023969682092
-0.8824792914250288
-1.0895313234819477
-0.4950128429389619
-0.4643859784297234
-1.1067561332253635
3.5170107970101054
3.41316926954877
3.1251510894090395
-3.3309725517474926
2.0560472713611766
2.8903324212326758
-3.463011299620629
-1.8404849566290173
-2.0021445893974
-1.6182618060686897
-1.5702053858294007
-1.5088202372416477
-1.7000123232403115
-1.5403075544064226
-1.5301053523154302
-1.7873425106418985
-1.931520232389763
-1.3877924241200836
-1.6841399764817913
-1.5464822046504476
-1.7868176497663264
-1.893876683889326
-1.6526381127919343
-1.502542249974359
-1.5631694499524407
-2.097568035339736
-1.8546325828263648
-0.7193572932061871
-0.0930394656505264
0.581697501508535
-0.35103481006249404
1.0690832419356897
-0.5187897316142427
-1.1099974611028702
-0.2542902546710992
-0.5233267439961686
-0.7502661463860343
4.29588447462261
4.267704585479148
3.102054737617326
-3.229881092296005
3.0678841125426057
3.7160489121911406
-3.8884828089831704
-2.4732419014641867
-1.9905664615180874
-1.984985860806559
-1.957576315398635
-1.718764377864781
-2.0164930357067647
-1.8256927626481403
-1.959631418278825
-2.357993474488275
-2.161956539960365
-1.8620398248022803
-1.9136102400634027
-2.1256268179792692
-2.398652328227145
-2.372928794281487
-2.030006970148441
-1.7069495665244037
-2.423815232831854
-2.781030941065222
-2.254254970350747
-0.6809553956183511
-0.29084408318916966
0.6413414512118948
-0.3323271463456185
0.8466724630341187
-0.9079719805859386
-1.2313832550798387
-0.3647837005622462
-0.7517506449652781
-1.1058995801392324
2.26359458687585
2.410901876947479
3.2394236163303383
-3.263236366063955
1.135397817833233
1.8155825586433372
-2.5996105587423664
-1.003018617561493
-1.5298120841822918
-0.6527242490715693
-1.026939019336197
-0.863801985582805
-1.078359907000001
-1.7996241898954368
-1.1051646936504718
-1.5421859542500904
-1.3988792353596657
-1.0742766350011204
-1.7293951806446224
-0.7927247343196885
-1.6726721455599027
-1.3555866462142123
-1.2184783111465078
-1.6398639607646528
-0.8240402658768479
-1.605647080320224
-1.4171032133037091
-0.19271013350307797
0.6306826335230984
-0.011216709189324202
-0.023275331564681506
0.6780803816973227
-0.27183429707226614
-0.8778789401899302
-0.005043620017419164
-0.11768616119740916
-0.249138336859093
3.1020014917137275
3.226207703722231
3.0473435232335673
-3.2095883168873063
1.8645886878655062
2.5826552230694437
-3.127683841965897
-1.5818043327385674
-1.8147070663280878
-1.3057209406440446
-1.345083634862694
-1.2713497001221992
-1.5301787342305857
-1.4690018083030298
-1.3162394197734932
-1.7085988141385486
-1.8212046187815878
-1.4832341529323405
-1.650787292578742
-1.418891854216186
-1.5914900323361183
-1.7233300131789882
-1.4240971026981353
-1.347366435990189
-1.3124994360101312
-1.9059044642419993
-1.6937207478559528
-0.5164324471945795
0.01999877640627994
0.4319475727215472
-0.2996617822666862
0.7410862084081665
-0.33525884707553844
-1.1933646952072234
-0.2943864983313421
-0.3430614858596468
-0.7680242448392499
3.780544202858832
3.6745472042124026
2.4890864575002607
-2.6577451512783608
2.7784798542061027
3.546746417772159
-3.2294413580597885
-1.9568459724789362
-1.8871228376998916
-1.4680602997246628
-1.5819818281846898
-1.9183316879716004
-1.8407155710067098
-1.4030887583329152
-1.3750953689527945
-1.9485482068153772
-2.0658126099631433
-1.7469403923630185
-1.5753361680467302
-1.8427742386769925
-2.1513593157684405
-2.2549637475281417
-1.7754984502960047
-1.1545461303069335
-1.933342977349642
-2.1732004775712737
-1.9697960830092458
-0.6260301299310606
-0.3758161892980121
0.3747621488098196
-0.17905319883767748
0.6698972182243927
-0.891253739612188
-1.209431294077616
-0.18954974163395108
-0.4189744902115414
-1.3438475816148263
4.082124929797126
4.2684369439213485
3.348137487742774
-3.6142541657639318
2.7534730983359443
3.3947299111317117
-3.9066828025332367
-2.416502145098218
-2.2587954855656407
-1.9344218759381484
-2.1339712285664385
-1.7351766254368628
-2.166102137173213
-1.919002747214188
-2.0828059302044943
-2.479023253818618
-2.088110255609086
-1.9818765037409203
-1.9586928914806254
-1.9654785817315106
-2.417959655810961
-2.3024517455456985
-1.9942074776552852
-1.7435469835697164
-2.113509060246139
-2.670307200949763
-2.1240555447113714
-0.7269617089543616
-0.18792280094764888
0.6481696698012561
-0.5063660506496539
1.063643240494662
-0.8202857242901513
-1.3379875445172058
-0.4350238360291016
-0.4601190255396516
-1.1191368370529764
-2.354460198203008
-2.5011645314833997
-3.0866082515002526
3.4583026716134513
-1.3733747460188377
-1.8639893007695993
2.627018482366986
1.108898986513539
1.4797268778152843
0.9212952284685788
1.025154830523719
0.7881630326699502
1.2087136676366936
1.4712280334243477
0.9509120740041336
1.328835038558259
1.640465626617765
1.1288945978753469
1.426724227720291
0.9018729844655604
1.5618679125428543
1.4005944782275945
1.1901592505811944
1.3935926739733346
0.9628235941183353
1.585711554037336
1.7207413289667188
0.30265487686906334
-0.4457072389891046
-0.13471786427194607
0.10967616336991814
-0.7292810996543792
0.2703238701886307
0.8831414918414234
0.06579877896215701
0.26041593292310516
0.232259894936578
-4.73070965278523
-4.681595475905515
-2.861458108427392
3.1830291454482698
-4.577574581758053
-4.847490568618535
3.961686821713917
2.7446239178729956
2.551257860858363
2.3149155830492685
2.73853909549956
2.7852206611997117
2.441573895906476
1.9019701232022193
2.1085045001875313
3.4647004662367658
2.434296837981619
2.2906390062368587
2.083259451649894
2.73920945454927
3.2917241888715063
2.767172284558437
2.273335925760816
2.0877694749391345
3.0794948645396225
3.3284714491654825
2.6053864930988113
1.0549780045944468
0.6106499940602254
-0.3914947382572329
0.35181973054931653
-0.7076096344886126
1.1922736139752537
1.1178606793020531
0.6195415594160133
0.8200626712560185
1.6580098347106391
4.8201716015855745
4.722980536663886
3.006138606908048
-3.5394756512239423
3.7007454554318002
4.448445217867866
-4.075315718856291
-2.7015447621009483
-2.6033764489706632
-2.0214689660544787
-2.625650228159007
-2.275831245486502
-2.3166175434875322
-1.9670043373735322
-2.093642123336623
-2.9849486203486766
-2.3448329191427844
-2.180309135460533
-2.2124079446853884
-2.445509075952652
-2.9837109813879987
-2.6726159283897837
-1.8958337523745472
-1.790173884158522
-2.8324519415016844
-3.119119679831285
-2.2512127582008907
-0.8841873312834094
-0.43732116777061975
0.43934941395962296
-0.5653731125147393
0.8132098969964408
-1.0134593626277903
-1.275725191879186
-0.2794216411025328
-0.603933413608139
-1.3137637975556031
-4.1322618549127
-4.137117470303404
-3.5115860573984783
3.7602514014531803
-2.908752438358485
-3.5320860447564857
4.009004816742642
2.309982394942293
2.1642249300802843
2.14457608155411
2.081235893664725
1.913605934631028
2.136912354439733
2.1685204973066905
1.9835556965360395
2.608070734055782
2.241775196402937
1.891525568964026
1.9050629986382313
2.0184066154207425
2.5960899674810243
2.2235358912324017
1.9409743955972811
1.8777689143306349
2.1796240525841846
2.7608637458513012
2.196121427250958
0.768922405114466
0.16265716179474685
-0.6888854645227203
0.6560986432075339
-0.9007616279587476
0.9843540706775584
1.197168514767087
0.3743577041396441
0.6943622937296342
1.0584414473739816
-3.907054156336437
-3.9493137160972682
-3.403014384100429
3.747600096680532
-2.7078620322934874
-3.470698409211829
3.8087330846743055
2.310539226457045
2.272910245160867
2.026273843611375
2.080856536414724
1.636929245347013
1.8556184953135575
1.928354230745829
1.9820760230625483
2.3877346388936944
2.090584157343479
1.8135876347716238
1.9447970812362403
1.9604987004099907
2.4648444400446796
2.2645644365874493
1.9090097988504922
1.642459197173609
1.9780601399365527
2.5449059026955254
1.9933120757037652
0.8334259392025218
0.2655338262777723
-0.5752228660005463
0.641775878609333
-1.0401218989774685
1.0386023607634103
1.3875614859140344
0.49657637399567645
0.5043521156012486
1.1568316880535967
-4.172000031854985
-4.083522372870639
-3.355454075927368
3.475957051976799
-2.804049875803818
-3.710623791964719
3.787664991052282
2.371777750833046
2.1023804893850047
1.8860593588920609
1.9530655178038352
1.73153696339792
2.066209651102034
1.7691763325296237
1.8953497797670045
2.432209661531364
2.1127400765391373
1.8390725483591932
2.0041465145699853
2.021995030909362
2.5077330044250683
2.2335474871685794
1.9313371723227055
1.6788408232568024
2.037837561634203
2.6104332856487287
2.055252461875601
0.8165240523892461
0.2398206242780691
-0.6304131846890284
0.3486161636743862
-0.9012112565791591
1.0834758458678313
1.2421700326041878
0.7144922758075778
0.5247069383193733
1.029267540710412
0.841718809793823
0.7855413475689025
-0.7612772093631084
0.6294873643702114
1.419965280005113
1.1600369399499675
0.29959955291953366
-1.6234288918334778
-1.8562616124371452
1.091547881148351
-1.7376351297050963
2.2370126449114203
0.375947884914497
-0.33015676572824715
-1.0982461056712483
-0.8863723272719493
0.48571668886953
1.0988806156633564
0.9389765283646571
-2.046413484155614
-0.572603050031614
-0.3457566859676404
0.8947227623478873
0.15086403017180922
-1.039403634540283
-0.15590707992734804
0.2135290914455093
1.0062944777156126
0.8770125882925065
-1.8780197426918082
-0.0014498167227405942
-0.6488841058273327
-1.8715401293941116
0.46997662244147326
3.715495742880618
7.360770536982728
-1.5975382351182512
-3.9302394637188005
-4.007819058294446
-3.2563203542906747
3.4582290211613027
-2.8833728360654582
-3.608375086887439
3.9116038798803254
2.4777594818748105
2.0984590195768784
1.9807180334606922
2.1389812243579045
1.8410791903483574
2.135310436764883
1.8409513642647617
1.999573589684027
2.386613996335805
1.9489234988020805
1.9050864534712921
1.834716073740305
2.0405570126906096
2.4260144369248517
2.19120054538853
1.8808614120125269
1.5362469660078217
2.1517180366253625
2.6078491537937567
2.2571858416187127
0.6546155722746294
0.26905758378286887
-0.7362119621129121
0.5083631505080355
-1.0673455120436905
0.830753488131404
1.1407653395848512
0.4814080765690655
0.49314859584400644
1.1734235234971169
-3.707017133274676
-3.7390097441909624
-3.4963493946448376
3.6803498546688873
-2.535948806722258
-3.1582106582393727
3.6059500008057834
2.3533725181335794
2.1313603191310824
1.9784190598242968
2.012553056851277
1.5360525155227427
2.0222812032822675
1.8533782988206142
1.9850753072368765
2.5350717383729173
2.2019939803635973
1.8427442176564286
2.0541769795454847
1.8705327041317434
2.221659186924716
2.128027111212736
1.8197598924364398
1.732002812315952
1.8039126693238456
2.395560172094728
2.1163605533069187
0.6502626258140625
0.08869915704568813
-0.7670509860028204
0.47055488346223345
-1.136677223076307
0.8670436233061171
1.256815930710383
0.5146999664738301
0.4572564866318923
0.9577970351758839
-4.43327244329436
-4.409793008965236
-3.3185803888218386
3.6064917585930605
-3.2227625749105338
-3.9627795374493386
4.216390717656978
2.4566645758405836
2.183229292134719
2.1378712267593363
2.361003075802667
2.1744897592092043
2.278222447879319
2.0447316266244537
2.150763458654156
2.6399152990774506
2.2732066606437957
2.151083791443821
2.1995294729725483
2.0730173843015884
2.6568270680407693
2.5782174722353033
2.198649008271146
1.819506383387587
2.3864802543860657
2.7393085869018505
2.4419596669069827
0.7784503006348812
0.3717641115098998
-0.6522550182003972
0.5826598468032748
-1.1427466215273463
1.044126730363072
1.241789787682378
0.47192520080227596
0.5235927736982301
1.2340989939086418
-4.4934767521381485
-4.561030625155025
-3.0814825530990717
3.260036215777785
-3.6078659823721497
-4.270442983699866
3.9493343483317873
2.4525323169990294
2.131676438980162
2.1200367982469426
2.2067475374088534
2.1328843285896877
2.121124263655365
1.8109114253316068
1.9481835556569644
2.68721737829592
2.384266663500021
2.101411172108499
2.031606390797918
2.214245780624722
2.8227680359777025
2.3801814826051695
2.1189071032613516
1.7856858944546672
2.5531810198161997
2.7472017635944384
2.234218833009169
0.7289978891153996
0.582256233569203
-0.5072938141969533
0.37002852782441553
-0.7971367646367833
0.9700441332428308
1.150077380750416
0.5263836506030661
0.5060374280279127
1.1824285031448376
1.8954250418189222
2.333642034552079
2.9793966445124327
-3.1167393442505436
1.0008192612776425
1.894497465826093
-2.650331411974382
-1.0681173139357403
-1.2599789573154885
-0.628601501847389
-1.0185781490658248
-0.6598700002215134
-1.149644706261871
-1.4398674427884082
-0.9384825894577027
-1.3266671493864461
-1.3096846697683548
-0.9314515575048473
-1.4490702168597138
-0.8077363547760341
-1.4056685533088125
-1.3689723437614512
-0.9220229169735564
-1.3473909321578064
-0.7324035684042376
-1.739066250458715
-1.4356601718887816
-0.3639254082932839
0.48767638908988753
0.16829387128075315
-0.12506575449775334
0.7477831577592733
-0.23891821505026903
-0.7929984059239965
-0.1288317683800963
-0.1698715466955487
-0.12230655233962652
-4.5728697580877915
-4.561960696523349
-3.0189985276679336
3.289350745645609
-4.0410709260351565
-4.695478473345777
4.016518920633996
2.6214078118270843
2.481109048845944
2.217829369173196
2.5577312901843268
2.4427300057714265
2.352211268106396
2.1999349524303993
2.075974515489729
3.0594450901279022
2.372538067027777
2.3562812157174435
2.2094909513927248
2.705081679919911
3.1429982969786114
2.5470574849014316
2.2690677488501363
1.8797989749256434
2.862878658017016
3.123568683532194
2.4324459073722338
0.9033957236432659
0.6447623241910392
-0.3430480417943991
0.4457775430401773
-0.6398188459187013
0.9918005356490163
1.2545080973129474
0.5228311368708741
0.643300980283753
1.4095604401250539
4.363456853595733
4.5162755855755785
3.447595793372901
-3.83112736661708
3.2511238602732155
3.901152035397139
-4.33413395537466
-2.6874629484825863
-2.4027656276432023
-2.229595916967982
-2.427503261392003
-1.9643062136596374
-2.271119691268585
-2.084550818350952
-2.181018334077031
-2.8814802836137625
-2.286745357197521
-2.1817111444599795
-2.2561909288311677
-2.2956139142494765
-2.778690231526128
-2.5119827258079797
-2.3749638644791617
-2.2851207981950394
-2.379287762751092
-2.932821490505953
-2.28240495623693
-0.7790242741663566
-0.16215133146087407
0.5809214704506983
-0.5142516171550298
1.0097196164880022
-1.1083216293802907
-1.259274268368756
-0.5511696358867217
-0.4475625274910293
-1.0300874952847041
4.030136003186834
3.9524451486677847
3.5642346126420184
-4.073184130878074
2.7050254796512294
3.4434770373690284
-3.8232772147738556
-2.3812621718600897
-2.3546749771028996
-1.9103836831120804
-2.2561626085706714
-1.7031658807847057
-1.999960387019437
-2.3826262012607873
-2.070621027549081
-2.591876703536578
-2.2527598891507914
-2.011359576902987
-2.1745822186538315
-1.9671653716355963
-2.5741140164303933
-2.326786867566914
-2.0751292573479168
-2.0285175504668014
-2.0884775277683274
-2.8039181591339086
-2.1920677073667822
-0.8318081858644265
0.048627184194657905
0.6989165282048748
-0.4793952523649531
1.389800880185078
-0.9179574033584071
-1.3116796988403128
-0.6112839461036367
-0.5690730957093738
-1.1613305906385973
-3.9143530127552033
-4.114437264940161
-3.33255910953865
3.564796756381087
-2.691140223641149
-3.3163958505990214
3.8429868622210215
2.2024155139309243
2.1141758151691747
1.752457762955016
2.0392399513337818
1.8227233287974036
2.039136478159958
1.8599180861882176
1.7226280876566782
2.2652568519174126
2.1349177957503613
1.83292493006324
1.9113522486710353
1.9158673241757902
2.376196215413945
2.131248716989264
1.947596423930705
1.6299970211392878
1.858389537343397
2.404474141674123
2.0924756607505164
0.8586553470152416
0.21781485414128024
-0.5964269914448908
0.5706173242791898
-0.977146606517875
0.9371472052106029
1.2114557331001867
0.5477171538441407
0.5699652346869214
0.8884957680551347
4.220739550435366
4.25700685836958
3.667634572723788
-3.727866350458131
2.9480609330000633
3.735962405217922
-4.282321798174847
-2.6515904700590878
-2.3628165352869095
-2.2053138162469805
-2.417612349446427
-1.8850732689880991
-2.2546043548834063
-2.146538075414823
-2.137445564987647
-2.7780793211865036
-2.183499507685658
-2.082539260614816
-1.994868977183951
-2.0896148777315804
-2.6592179348691283
-2.32599667392913
-2.0265998316127067
-2.129612501508258
-2.2707160007779854
-2.922632459803912
-2.2433366488018067
-0.8474377027460672
-0.07875438468948301
0.7148004131212049
-0.6947577378542537
1.0183869783103425
-0.9434428514395621
-1.2679996496559713
-0.5444711288406984
-0.5883723943173264
-0.9867897824263697
4.781252609088558
4.663005503676707
3.1251616033168306
-3.421345265705016
3.8714625164639864
4.6205181995913085
-4.093116827305875
-2.807954628998072
-2.377868988404175
-2.223435067857216
-2.7547288027465107
-2.1724510860467086
-2.401415696531791
-2.1067646074367405
-2.117392277239959
-2.9102358668702775
-2.4695494917847833
-2.414805965654403
-2.2904074400232717
-2.6563412901093852
-3.090520910222314
-2.5640899725232713
-2.271160641876925
-1.8064358291711
-2.844802988270848
-3.0461117130649056
-2.5975260696505336
-0.8325525002231243
-0.4579778321665077
0.32252933616430957
-0.5750061429787536
0.8523667660889038
-1.2040482123053973
-1.3802149751952408
-0.7040738626294628
-0.5171072017897665
-1.354654511385672
-4.064335531850947
-4.139214210340975
-2.976155454427195
3.128776286316882
-3.1511799931010325
-3.879180539541347
3.692102358142058
2.289728109643149
2.294045362840848
1.8152093008503043
2.0077286525420646
1.9840485864772295
2.270220020972968
1.843923520663515
1.7241328077503888
2.3327463460402154
2.0763861856145778
1.8141636115032027
1.7151980754798735
2.122855170730777
2.521618581886224
2.267799389543611
2.0310292345748007
1.542463827079202
2.1641203849525223
2.6863229881379507
2.2097969069922256
0.7895050460318105
0.24178478139358903
-0.43331659957694507
0.31901639147312144
-0.8309259839283181
1.0012645367492348
1.2857773050994132
0.6106204851031497
0.43394452891459906
1.349039840726114
-4.189838176262572
-4.103437837167841
-3.1559627539864072
3.2929157372622075
-3.2576165077828843
-3.7273841425518865
3.716813989555058
2.2278178672993976
2.143187611965135
1.8000110053726561
1.967786245067605
1.840689129572303
1.9202373555410936
1.654172930775789
1.8263004110358991
2.440380800486804
2.0653419359852174
1.802870056457941
1.8631095190277804
2.151311290934793
2.5427135965629533
2.193701508276754
1.9288380633679962
1.4224696958815126
2.3098763165684413
2.6238082349820218
2.1278757359035425
0.6364492733835603
0.3882892539560172
-0.5668680651493273
0.41669283322062317
-0.8741910841447221
0.8870755276823968
1.1642930908886029
0.4895275276000978
0.5677844919865851
1.0828418416293288
-4.771759574292019
-4.6349722302035
-3.4431950852092097
3.3816105874558
-3.730710029585861
-4.492095621203374
4.204421304174573
2.685325084185206
2.7017412126604086
2.2861266069838893
2.464812440259986
2.2638658431003456
2.4442529732175853
2.0068135887198566
2.34080829457386
3.0634657613309186
2.288518153965758
2.172472128023141
2.1131784209350526
2.343455892672162
2.9801554420902634
2.588744846144035
2.1376325005091217
1.888172465269966
2.5540284112954756
3.108275158638955
2.556644838333691
0.7270546122570879
0.4584371722985549
-0.4640778087477764
0.560083118581004
-0.7414293509143781
0.9800285765035642
1.2847499519722163
0.5238810734673007
0.6711130302538633
1.2118577226302423
4.613195339230965
4.461633255721757
3.4420087077044115
-3.428381111016024
3.3076797734098986
4.256314535359449
-4.303790376759016
-2.6725412734949976
-2.4611343383106807
-2.1839352699335755
-2.389973551721613
-2.116709182007566
-2.312394288969841
-2.2939349319053575
-2.173149676882821
-3.0861071433077263
-2.4628304116898176
-2.0671832892603463
-2.060708490992734
-2.4587702496270136
-2.9681750160582054
-2.3679140993760637
-2.201575738543154
-1.9662679080756988
-2.721796328549417
-2.994398381032116
-2.323512951553421
-0.7341965256504863
-0.33713205428377574
0.5102595264651916
-0.4063118737815242
0.9152709387217689
-1.0934045583313081
-1.3268846935727399
-0.5654856017018781
-0.5241492970738751
-1.1847747075358723
4.694664073591928
4.568897347948462
3.3115177068030923
-3.5449747646866756
3.571828746622511
4.3211047985124535
-4.331175701025701
-2.559955870397828
-2.429471125979775
-2.1387615420300032
-2.3587703344112843
-2.2092329437463776
-2.3010037760184825
-2.0282824862626327
-2.1799879709547914
-2.8839507133018554
-2.4293932368469293
-2.2271057179943705
-2.1414618375631225
-2.433685309271628
-2.9908090617550784
-2.6240931898979625
-2.3522472905729894
-1.8695893610832364
-2.5821100535062462
-2.9424005142356435
-2.4241784775882413
-0.8589861991381498
-0.5202359542590888
0.49527028878185686
-0.4666221316412086
0.9441400480879708
-0.9988711612814102
-1.2285922994413254
-0.4257122724588569
-0.5255123569234027
-1.2337389692683414
4.03962966648726
4.235161658995167
4.027144071983559
-4.2302372224823195
2.6969400493575293
3.592900143641115
-3.983690471186519
-2.5815721700462237
-2.4864917514216174
-2.193258918925629
-2.375407695096287
-1.7019139813540436
-2.396526856686553
-2.524201005766785
-2.423922083188208
-2.7917455506855573
-2.3841064150655207
-2.092349472443083
-2.452204957395274
-2.2722079396547157
-2.870633838510398
-2.4840531762674214
-2.235287685219752
-2.215622116753614
-2.246962725684347
-3.1780244137604683
-2.343574556553451
-0.7448078225734893
0.5242561834418566
0.8066229481297925
-0.38151133390215936
1.4971813929231952
-1.114198603253413
-1.4230063406424422
-0.5949708087191438
-0.5704755625453556
-1.0556034007546014
-2.370896232974769
-2.62732190712809
-3.3993682631530233
3.437816615827848
-1.1666698182921038
-2.100468308447671
2.8817613852968473
1.19234633390755
1.6454084362598091
0.8670642732151254
1.4029806168305414
0.7956359450509001
1.3358183177856526
1.911253946602597
1.1603055633528447
1.7535285170974666
1.364040528809364
1.2421177490787372
1.8240080733134196
1.3020359300567266
1.8016441680076711
1.7669853438676557
1.3318636328937123
1.6001036386819465
1.0718520816955854
1.8973896997654707
1.6503247034053967
0.4502143701052845
-0.7230255858481164
-0.06900516054850313
0.1322786009534561
-0.7836124505979665
0.010843055431492686
1.2366212734827986
0.08279795379899516
0.48452231394601936
0.17180116070778245
-3.54846330067468
-3.7611012254160747
-3.1562952850109105
3.1231773426830456
-2.52942272559924
-3.1413396658428248
3.701209090188907
2.016814400171436
2.0528353481838106
1.6616154052465235
1.7802264474541538
1.593237209474629
1.7630659969552065
1.7164497178216795
1.575570059068627
2.0277107917504327
1.9722828262885845
1.583517739218266
1.6832742052085208
1.7766204996067785
2.122859212777486
2.118049665429548
1.6993491184399585
1.2801656660627552
1.8815727029111278
2.156687134188005
2.0054303554163737
0.7396465096989079
0.256549331498483
-0.523216886508618
0.38041253830207106
-0.6535700743103904
0.7602861248606622
1.1699131230411082
0.33664036925899227
0.44819414199381313
1.0264777118264643
-4.40684440440684
-4.622683450221449
-3.2495815214429014
3.4709015903884275
-3.4929720417785504
-4.018327840883165
4.255599960739654
2.3686835298320843
2.280904553732705
2.0847265805062474
2.350691269805182
2.0914266538028157
2.2908856870867504
2.14639960556891
2.031624325214284
2.8233985369190373
2.4663699430921744
2.087587832545821
2.079252653559374
2.358730936266563
2.665721707952628
2.4793963661103824
2.1970760128690947
1.9646104449294681
2.6789448272530345
2.897002322370122
2.432605633911384
0.7367575639758596
0.36787044827682164
-0.636164845710559
0.5453091717726971
-0.9397603386970349
1.1219606200423038
1.1514815446397968
0.4510302695322176
0.46906064149859156
1.2246709925824633
3.7593687028288985
3.92577506122173
3.787661228198514
-4.120007045245356
2.385266774443815
3.17356012287229
-4.012311793656987
-2.4406669971015735
-2.294017837564635
-1.9856673849034505
-2.204196373423331
-1.6437307533561543
-2.1633578863209135
-2.2302665935462005
-2.0891600680430074
-2.6068778317242427
-2.1372588029949795
-2.0965295015875367
-2.1546629589136774
-1.9294577210861887
-2.822076319113156
-2.2289263887650472
-2.037400903211042
-2.0373923831270426
-1.9489667254553036
-2.766374647663101
-2.165796303872236
-0.8060201558399301
0.42259134389675646
0.5871697502551728
-0.5480737962836536
1.4569924233145664
-0.7210170270297406
-1.381868772691457
-0.47383045207366625
-0.6654028650467705
-1.0004087000260573
3.6989796468621328
3.66248998576239
3.4595475334322163
-3.5090589788805238
2.4269082957742834
3.069847128382352
-3.3690934033164255
-2.057644458116914
-2.151595528328226
-1.6897290476779259
-1.721457962075348
-1.5109615246017103
-1.9355982874019135
-1.714880039953002
-1.6524113056895546
-2.1369577117312906
-1.8642545652878753
-1.4891785770885326
-1.7416792357481294
-1.6509063220816678
-2.003529323429316
-2.1032459000247092
-1.758912973593656
-1.4118564436541616
-1.6997724303932353
-2.26811428732234
-1.9879051357185895
-0.6896803503568978
-0.1933890825106499
0.6066662371963437
-0.4396779572992088
1.1048118241090283
-0.74187170520897
-1.0313502671610546
-0.3779514996774557
-0.3548822236487765
-0.7875406946640592
3.692776652486444
3.7008370533534523
3.1567123964524133
-3.442385198057763
2.4884587535224796
3.2020161845655073
-3.5377840705583745
-2.1172938057516726
-1.978898013998833
-1.6570814801481433
-1.7939108462751774
-1.5800834127493717
-1.7979420433615994
-1.714017079837656
-1.8098755029621783
-2.10022090685491
-2.075350010971163
-1.7894688351342343
-1.6333734773093191
-1.743635542892097
-2.19871593203644
-2.1655150398274037
-1.7049583683034117
-1.4501827512823215
-1.5723651497179172
-2.2982056520733796
-1.9286561869209367
-0.6928125061452544
-0.15385633415804129
0.7378364984180996
-0.46032944417929234
0.9401965393108128
-0.6556224875251171
-1.2044727694025925
-0.37795798718123336
-0.38058279860328725
-0.8246697389910731
4.631396265484552
4.608780012725972
3.2533879215425263
-3.5065775990315746
3.47483627876095
4.293830716925383
-4.28944954179529
-2.650931117440132
-2.50064356850176
-2.066217633192023
-2.4604285008918634
-2.191966449731139
-2.2238760422993398
-2.2957896598015646
-2.1319249742542508
-2.7986391848237457
-2.5246351397025397
-2.2560338508462117
-2.2728283601009007
-2.447783925366412
-3.0315473567174513
-2.548038566102921
-2.253355665297704
-2.144645627308823
-2.709604482901112
-3.193019711091254
-2.3782111427519554
-0.908770320888386
-0.42693512008953555
0.6394584467250921
-0.37622844938181005
1.0857714326192927
-1.0862164923721982
-1.1567511126789125
-0.6961507255529037
-0.7323005477362476
-1.1522316203385436
2.7306792874582335
2.659135396399307
3.8926063622661484
-4.0390404436351615
1.4367113590066274
2.0879286644785306
-3.5542574383870864
-2.0149954673542805
-0.652284682250036
-1.3300499309817868
-1.1364278245291437
-1.0942346636151044
-1.3898274987486938
-1.251165010088923
-0.727069948462473
-1.4829230884698341
-1.3092829517513922
-1.307740893777127
-1.6236132807803372
-1.048056498436777
-1.1330373809925651
-0.6504305549414718
-1.4237540382603793
-1.7938863406474599
-0.9906296391597728
-1.1843249189960248
-0.13669764146229096
0.06409572578542946
-0.037927079812749606
0.2128851911831974
-0.31868189258449936
0.7086792123668052
-1.3552329523796447
0.3724957676844332
-1.0460797644797746
-0.39342692162363646
-0.5699381360690002
4.236039515411729
4.192277015007798
3.629946432886751
-3.8708858892569964
2.8954210195783046
3.4610699386010673
-3.8859522189735416
-2.7063194675835476
-2.1356425457730293
-2.209249733262715
-2.291438715849946
-1.8107896158252834
-2.2823451132510435
-2.1165532427022504
-1.9333814604673623
-2.5808846564569876
-2.1984825214277643
-2.0720220814885235
-2.2110606480249317
-2.1773090485965905
-2.5970292811560656
-2.3624501905979622
-1.9565461561220092
-1.9770427097207297
-2.0414104078476627
-2.7767762419441038
-2.1440583950260748
-0.773257700566335
0.021256785966357022
0.6051355104136742
-0.4746688381297092
1.1946365973658764
-1.1434723898435781
-1.179481366172537
-0.5849744254732425
-0.5619378419377117
-1.0312404027383575
-4.528760942910802
-4.491480193296006
-3.4930683016262387
3.6599643807808167
-3.293149348187712
-3.9744569889375714
4.14554170855625
2.7176814150884145
2.487554014227041
1.9953085601387395
2.473107023856684
2.0709904908740393
2.2084726706262896
2.1430114011912704
2.2109443412790233
3.0321794432689204
2.3402987611313892
2.221410904151094
2.1729461327930557
2.3990029804964252
2.9570942076118274
2.4845945171731945
2.1819898348970947
2.1510159549561507
2.328525144014392
3.0730285598371867
2.4050294198457323
0.7702296885028594
0.31639586589724333
-0.6767212654901036
0.6013900702523185
-1.1372690092230084
0.982482576268962
1.4048300621770813
0.4773393518991752
0.6397085834789178
1.1359236192112874
2.3747730645728344
2.3647043708852027
3.1835551808444937
-3.4579972053488146
1.0507912875870469
1.9723167624866318
-2.7123359710739465
-1.3286063061866007
-1.6421430329646416
-0.8229846125212967
-1.0573062334072711
-0.7277674579114327
-1.2327979299955072
-1.725632504464675
-1.0802510272725072
-1.671152156772061
-1.4491811924933562
-1.1787535549776713
-1.849901252510114
-1.1108411200627326
-1.5882681149673787
-1.615198872015123
-1.206035367839232
-1.6188682141825392
-1.001998173985537
-1.815985808409577
-1.5705729714221932
-0.34946392622576605
0.5706440113464577
0.1044647894856008
0.11727019055727755
0.7438124099353336
-0.21382936837541508
-1.1248594578686104
-0.175644425045899
-0.13139306101992682
-0.35334267831031746
4.112297980884661
4.05412194662444
3.591105153509029
-3.8229864733180703
2.7712283983849804
3.7009988624163603
-3.986385962033547
-2.461118484661152
-2.2299268443567044
-2.0196384652815578
-1.9248678321109651
-1.7994933478276287
-2.194435570543859
-1.9614326017974142
-2.2098759377956907
-2.4845394019498896
-2.264332875580235
-2.059556636696229
-1.8773068506748756
-2.120516689890837
-2.427461348896238
-2.198812071482847
-1.9142438304859961
-1.7593309396450338
-1.9840752279649638
-2.656933234557289
-2.093643407899391
-0.8193037808117218
0.16333502435897057
0.8960998305421544
-0.5799909909708593
1.1731347958330154
-1.102594886388421
-1.1837290397954576
-0.633659365560488
-0.4762263597283677
-1.1724764989139214
4.657434186446344
4.673153529559677
3.2182866205601166
-3.3634674920054075
3.717865660312578
4.432872541141388
-4.151184763655133
-2.5803715964865046
-2.3618573743431543
-2.1348950335549293
-2.354287547504432
-2.4216731897195993
-2.3089184007781896
-1.9771935571636523
-2.1529978033791273
-2.9664532121870755
-2.2263418999145337
-2.199336830714695
-2.0176371533704627
-2.6417298103690814
-3.036900737638076
-2.5755163639180494
-2.3685231209536926
-1.839517314804355
-2.7839384282501074
-2.828580406045572
-2.416259348002397
-0.8498050762940641
-0.48369481856087276
0.410292081580083
-0.4853351232635427
0.8845811880421887
-1.0753140060349875
-1.4105629674679838
-0.5725462025938373
-0.6668546228081552
-1.320919009293419
-3.1817890476145125
-3.2546169818621156
-3.2564539349360966
3.441588294102546
-2.0917022927543227
-2.6128879418712923
3.245131822362683
1.6667046907457437
1.8181496596860593
1.3932149790461126
1.4476864540594512
1.4440463859058121
1.654978124802654
1.5198343953987803
1.3222760422755626
1.7174436300642764
1.860109283726331
1.5248975304991774
1.4190906555078782
1.469780314319733
1.8303279518453444
1.8708547877332002
1.5186093786273214
1.4054871149492034
1.2910358842243792
2.007588973604647
1.7257614379771775
0.6765091325124066
-0.04815871640628637
-0.41511663877573646
0.3387615026437516
-0.942052617095704
0.47094135299516626
1.2384118588812503
0.2987895655343986
0.3251756482832786
0.6757819878929435
-3.3382453866282815
-3.766892290059813
-4.2176981251332
4.661604299987975
-1.6708553070576349
-2.4528729026450784
4.379302075903697
2.3611913026131655
1.3934889616084691
1.8879651021587944
2.0797874380500367
1.2532491559855994
1.8910788162409784
2.313868361003621
1.8544521105837213
2.672766182548732
1.6848010139154599
1.9021260132556526
2.0699684133053666
1.8412960697813543
2.3112047813009102
1.226924604707578
2.0709080913950046
2.2534347123935223
1.591135803537499
2.3793744954893055
1.0877395099868608
0.23220469563219617
-0.46929683807186634
-0.35428362963845517
0.12352214049909402
-1.0244322302049296
1.347694665106973
0.3351660645026147
1.0305383727110824
0.8043655563379902
0.5203098250525977
-4.019786586400246
-4.113552461884083
-2.993398586149636
3.0755118238936703
-2.810976614465949
-3.716457134756131
3.661235098433081
2.2605010327922663
2.0648810209794464
1.6740862471506046
1.8476981851737893
1.910100013488842
1.9653894408599284
1.699250164881436
1.5775748599293804
2.1582466392805246
2.0896614197315966
1.7656357489422891
1.920496942069522
1.8660146045239256
2.2797684392127495
2.379223164799438
1.8293814195026652
1.6283154239768425
2.1038026997002377
2.40347384468145
2.082328284484127
0.7383880315813546
0.3396663607571855
-0.6030806629083257
0.2151439059660698
-0.8731596131918095
0.779766025738329
1.2468071408305461
0.444225957043552
0.5751033885345906
1.1788918150858807
-4.136543367363644
-4.318667084637092
-3.7036688939480413
4.049412577625529
-2.813880414469268
-3.714750464473094
4.113800860664532
2.4694233883878547
2.2556671701862343
2.1992858413373892
2.1839416631550126
1.7673841076174708
2.1829725408089837
2.3005653371905215
2.2271371074448947
2.662982369347098
2.218584976181378
2.060572199322876
2.2049082489566296
1.9916532141584506
2.677048686918069
2.289857956715121
2.16840586618557
2.011136948568896
2.0278883496321116
2.675946076562193
2.2411878323064287
0.8817947404967024
-0.06286529962379307
-0.6995672239020507
0.6029805661666271
-1.0492003196029789
1.0535108733917082
1.2184186212603776
0.7131050932178404
0.5642188727050768
1.066671062363108
4.826678115876305
4.581916520350991
3.169590153282087
-3.4795937719222096
3.5160180970077524
4.1015636417315475
-4.075139522175055
-2.50672695972852
-2.264857576691337
-2.026231887791782
-2.3370313601285155
-2.224222609013026
-2.3641329304519383
-1.876521564031561
-2.190275567701417
-2.7071590453263905
-2.30079412800156
-2.1631723310962845
-2.049986788160513
-2.3781308450558027
-2.7339125800422672
-2.5232304289504452
-2.209403075488055
-1.813012614313874
-2.3964047302672102
-2.9419123343915516
-2.3079644780228903
-0.8019465572112812
-0.3409100197222624
0.46094917652688183
-0.5738411996310504
0.9033683201221824
-1.0652977806046315
-1.2605485754639247
-0.5591549466778911
-0.42106344477431573
-1.180029504160776
-3.6990684818428563
-3.9726015115820608
-3.5423166302467872
3.7952547774228935
-2.441041957909663
-3.1753102591014084
3.7507000162866193
2.3818679757875105
2.183132849772298
1.9010490373782611
1.9926629106007856
1.6769670667816756
1.8104246652868996
2.0850937053273215
1.8787569804221298
2.452587266879389
2.182153414146856
2.024261402751743
2.2392745537217307
1.8313895179696094
2.4111668671558886
2.3749478667904267
1.8707649583787098
1.9636859231470747
1.9541937213148741
2.614663218654266
2.018885862084948
0.7402767019761672
0.04588942982531861
-0.6929127721372718
0.6388507854858845
-1.1500235903663392
0.9174900827578099
1.274555790564905
0.3321874926496809
0.5111539402388181
0.8499945371196741
4.807416347704119
4.615326849151958
2.852174996850416
-2.872689783605264
4.98464443465534
5.152521865143895
-3.9189864246930015
-2.699404074461448
-2.6446381113401536
-2.5499717151087418
-3.1121608251630675
-3.280826170586973
-2.6722966808058177
-1.8383231632737111
-2.2980722385660948
-3.7456788618481416
-2.9544186727660904
-2.4798601626107475
-2.3370424420678124
-3.0335972613790307
-3.9882532310115164
-3.116513659751529
-2.46010330894594
-2.0666337953783454
-3.3621756368287685
-3.6077198593147353
-3.0555775864280044
-1.11123613732881
-0.7397859747880693
0.5121445569172334
-0.7211404588418181
0.4997472641649711
-1.377420754126973
-1.14720880512088
-0.7828987753320803
-1.1344780157484855
-2.182451691579223
4.426402150338544
4.390772794616626
3.3633837339598878
-3.648602313735868
3.38350724332036
4.069806911980928
-4.065066359481573
-2.6272270959318536
-2.3200142010632026
-2.264922503674704
-2.506347019444223
-2.0424358935257754
-2.2603640107137695
-2.160477071181309
-2.1211510303884498
-2.8231122177811527
-2.256090409063495
-2.1757844618546756
-2.207588369191918
-2.509787004788807
-2.6702547504513747
-2.3204875070989264
-2.013493587840319
-1.8635551804624637
-2.4695564873495615
-2.6939085657842203
-2.339411440152112
-0.8171218733148603
-0.41141188390989986
0.5842618275598244
-0.45477402844369536
1.0228286882319817
-0.972857201732443
-1.3520585057588852
-0.531815145848482
-0.741104451435851
-1.1833344076321097
3.793934990905325
3.58731248198563
3.4090368992166837
-3.5426325174293205
2.4176495762475803
3.3121674755132844
-3.617739203860152
-1.9886266687663476
-2.014767921301923
-1.7079549213653333
-1.8657043393955053
-1.5654470227591393
-1.84012703710056
-1.8712576645184538
-1.7771334939878987
-2.112295504285467
-1.9095258639036774
-1.787088945709457
-1.7178440421896302
-1.7444430213833342
-2.2869105343632667
-2.1146318461307394
-1.7112765879049368
-1.5971118950150247
-1.6065763019333632
-2.3435638837371267
-2.038595141932293
-0.607088933132289
0.016697212653007595
0.7848495785177237
-0.4953009796490034
0.9346895233204828
-0.7516816389798904
-1.1142042312788887
-0.4399570430131049
-0.4548515694831433
-0.9148731538556459
4.446223459321723
4.129341959600829
3.6158732732288197
-3.8170956623694168
2.982351333262226
3.743094153931298
-4.139116660837073
-2.432017960993486
-2.4896021397059265
-2.19595949811612
-2.309827201558394
-2.0009936893726508
-2.268996529946966
-2.100619374814154
-2.255067020876487
-2.7899462135178936
-2.288527744580558
-2.0102982311106077
-2.0713492168523113
-2.2841798255481964
-2.6185506590868277
-2.298609312893636
-2.033906959890042
-1.8510643904527715
-2.0541697611756837
-2.8578609955272625
-2.2212276868397143
-0.7658536739429203
-0.29768950043900727
0.6663089867439774
-0.526119880516855
1.1260766214706048
-0.935472339259035
-1.3300503295605333
-0.543767815697521
-0.4953713562283608
-1.1088992132532363
3.1895829816980625
3.3300198535664873
3.4952464563544767
-3.9499358173540817
1.9890355238791173
2.827777619127667
-3.3547955014040687
-1.852076508382878
-2.096208905913983
-1.4653415530500131
-1.623828517144639
-1.4704607256871212
-1.7440187112377719
-1.8964762180173114
-1.5766627660542267
-2.197837939367985
-1.9231721871811296
-1.6800872205538684
-2.0911858883227357
-1.4417959649228056
-2.266409131825799
-2.1376464420896792
-1.5867975746242655
-1.849428625696356
-1.4645066718478048
-2.305313258172084
-1.8990535420579582
-0.6345719144554206
0.5527108550453954
0.47881668556114776
-0.29165420713578954
1.3924713620208566
-0.6945517112612937
-1.4236013874749953
-0.23437244979543664
-0.5336819353251029
-0.5853799233338898
3.5709421964013957
3.6379636753812297
3.156832688049986
-3.3680489667962243
2.450354316931871
2.962071688028663
-3.5127159787011397
-2.0180910182928145
-1.7840995767036694
-1.5332752016442088
-1.6992708822483282
-1.6175816242862695
-1.7254835167520768
-1.7649866138108867
-1.7709118947266806
-2.1196345829543466
-2.1094358141336924
-1.7116138169738075
-1.7342081472420048
-1.798516822884986
-2.06289907753737
-1.9701644929657987
-1.7479240194967025
-1.511228141435236
-1.8273839058489656
-2.3701968070971398
-1.8836349516705442
-0.5632894449152817
-0.15254371539777647
0.7075304911217021
-0.4307641426044009
1.0649017593952497
-0.7204188632171215
-1.1478464771800254
-0.3773627649411956
-0.4558865329166338
-0.8184425064235491
3.885223432644891
4.002996948278601
3.796151092704179
-4.127200615316999
2.522324723560264
3.3909517811181082
-4.118658724761813
-2.477018281315132
-2.295562139494609
-2.1542537202792693
-2.2909470951587485
-1.5256164170226005
-2.216117421034885
-2.3317592330945875
-2.1441150382992586
-2.6742080022176307
-2.216674069979506
-1.9616759718423766
-2.241311870335933
-2.075491876187909
-2.6931771244132765
-2.3735692353676985
-2.050144336245193
-2.0649079071273415
-1.8568464869469024
-2.7573772390815248
-2.0639528438174337
-0.8466252236629109
0.2492204895261826
0.7186535653626782
-0.6274653944845093
1.4018917190941997
-1.0140467976157794
-1.289639211095841
-0.5722917265184282
-0.7654456913073764
-0.9252113989844001
-4.404035175191683
-4.328642276131276
-3.3430706106664734
3.496093542372623
-3.074154004632797
-3.7707629499710085
4.053069359110147
2.3321503490688436
2.2514122307972233
1.8621486611090976
2.115685320795668
1.8650503997406966
2.001328679981311
1.9302810025574602
2.052157211231454
2.5351398194570764
2.2527887377047495
1.8942148198404782
2.122582529345303
2.163441199795901
2.5714456096618648
2.3656093987498337
2.0232074742928265
2.008289780576712
2.2952347042385917
2.678254830485154
2.1857622520813216
0.673054693779825
0.21924285057771076
-0.6660926929232556
0.5986370038063494
-1.0385025188477899
0.980243991400321
1.2956367581442179
0.4979633174646936
0.5609366225104346
1.0646652539575807
4.978194301401861
4.931523312811567
2.8286411496550885
-3.151184543567663
4.672438388545218
5.277477102195519
-4.143376321477865
-2.8186391027094837
-2.4624076595115554
-2.730285871342246
-3.139815887247445
-3.308761553043156
-2.6850088406259416
-1.8871874197746112
-2.335534770314877
-3.552901041315418
-2.7887247662014167
-2.653686023605926
-2.4284043478530024
-3.0632489669260488
-3.5630679217379675
-2.817173873163904
-2.5126584654428132
-2.3865608091390746
-3.3401752388617023
-3.553016538963353
-2.6232514746346274
-1.1797392278365877
-0.9054309297952235
0.41879918380507175
-0.4934138549067631
0.6615550280525699
-1.223266955479233
-0.923591427745092
-0.8462853208322155
-1.1451169845489924
-2.223989360818037
4.515714145467136
4.512246530936225
3.40464660966399
-3.593228700214136
3.5471111519681258
4.121170015232543
-4.1790713531833
-2.5263467497135257
-2.482399304052572
-2.1557864823478483
-2.301606828675335
-1.9127509910790754
-2.2372923996848626
-2.147277232378109
-2.105794319211378
-2.921345109938676
-2.266392112367485
-2.098768600226832
-2.0703933468989697
-2.359771698624653
-2.9157921092318206
-2.5253327520897617
-2.18519290875541
-1.7636099696999188
-2.494039657721159
-2.929091171272256
-2.3653685882556377
-0.7712960356036698
-0.5046076074771433
0.5885905774306386
-0.47881799547805626
0.9337597929121263
-0.8361303613013469
-1.526713069183934
-0.4818964478200619
-0.7056540813676639
-1.1442336418105488
-4.5229375069821405
-4.5001769086336045
-3.431308575061892
3.6451559540639473
-3.3920981913007564
-3.9510706610634925
4.357703667508719
2.7090144480018385
2.437117773257445
2.3648243335453327
2.30553643473263
1.9428363409548117
2.3197763244399368
2.066197988888275
2.0489377441551713
2.823157692605055
2.440742209264922
2.3107096469364494
2.12933105108434
2.340674729979821
2.7860194378045713
2.4794541637062983
2.1645210985434398
2.0343965821534016
2.5846842599692033
2.9675115738338866
2.26947962186897
0.8314435161176622
0.3477825195106274
-0.5167872332735989
0.6870411159635323
-1.177886600945739
1.2079478622752002
1.2492071114740728
0.4768167885567844
0.4065014021799115
1.2238272931158738
-2.900021453779047
-2.9413253058097353
-3.3233881000652565
3.5173719021775915
-1.604836107496819
-2.376279238323129
2.7363219206282965
1.4718250524146277
1.640705132695724
1.080962466955576
1.2800023035868737
1.13333973496049
1.3526173202196683
1.6887504324070193
1.289392216638531
1.428154609217178
1.8713505806002904
1.1715233915630792
1.7550581919511719
1.1606847844065362
1.7269527905946223
1.7612441858185106
1.2842583634621427
1.406708113852872
1.1423407290673382
1.9056884871345101
1.5387643854905142
0.5608399933461476
-0.25685125445432916
-0.07607802443846601
0.34926029379446905
-0.8064185517047744
0.38532708555663153
1.0613464608106995
0.22052058237108277
0.15472204624110245
0.5956526482501315
4.348428874133673
4.37333574874974
3.3070276015556157
-3.5858128884866636
3.356191653236036
3.9536085907388916
-4.070239243958229
-2.601652076334045
-2.218652080945664
-1.9848750918610971
-2.20118395837732
-1.9381037036249384
-2.1931303489044742
-2.000505855748237
-2.0649284528240464
-2.739553497812175
-2.0491695348607717
-1.9924028811976449
-2.056182446289494
-2.20014176448611
-2.8761790805822156
-2.372269311771114
-2.2042938797747493
-1.8432885487266537
-2.4016190072822026
-2.964033426892887
-2.4243008227756997
-0.7659050539541364
-0.538042637824233
0.6624790073767769
-0.5741369838658598
0.9421875744327093
-1.014561289018954
-1.3999698887980534
-0.5682656114322436
-0.5795848280912459
-1.2777142150330805
3.029975493069538
3.2440982256968494
3.589050163050024
-4.1690576096126115
1.2016639942967982
2.264395798904475
-3.331495236703761
-1.9210805246029143
-1.5257992183155562
-1.3506648683471518
-1.4668610072232329
-1.1610716788169813
-1.8686870849436124
-1.9734597795796356
-1.4535647006015078
-2.0742754827945546
-1.7782813601985341
-1.5506734206783055
-2.099746382372775
-1.4573831028570245
-2.27917738207668
-1.7968282593681286
-1.644525687987276
-1.625453627960942
-1.3864137580028102
-1.861787411806503
-1.5400300645469986
-0.5151650606674729
0.8859886657772883
0.27020935501097854
0.20620710410733067
1.1208901606192754
-0.6110720204106449
-0.37417536363451304
-0.424746836806935
-0.5601282537111861
-0.25898161233347605
3.5167032774157048
3.649444191096422
2.8010614800531384
-2.9344720326223652
2.4522993629933474
3.142813399520717
-3.4068690838438633
-1.9765500466250066
-2.006317681554208
-1.4580298860220768
-1.613843735417335
-1.5711072404299204
-1.7108881807494463
-1.4187790119066712
-1.6019434689419711
-2.081723343006704
-1.934243716616636
-1.6479557448520363
-1.5452641095841608
-1.7897368123712682
-1.9543224775407795
-1.9765226825069513
-1.6671295039736904
-1.2028466553063397
-1.8459313592806024
-2.213622329803487
-1.9415473223497781
-0.5700779526164484
-0.21606796682215537
0.5180503742694405
-0.2886480994525233
0.8235923141592849
-0.6326640201994778
-1.0194602035369276
-0.1839558105067582
-0.3949826368295251
-0.9243860576182049
3.3837208394088774
3.3903321207194437
2.8655161974964245
-3.0552417904939917
2.157425518066043
2.8368100397653615
-3.2835739960515418
-1.8111854465108468
-1.6901649606477327
-1.3279306510657287
-1.575865246498863
-1.6472620562240328
-1.7346065074220367
-1.4693336666797399
-1.468220953202001
-1.796851891450806
-1.8209250788316553
-1.5811730217741897
-1.3129437001225506
-1.535753846045106
-1.7922907111237112
-1.9710278013434823
-1.6422312008401336
-1.164222590646199
-1.605880083946537
-2.1070795840718106
-1.7498783550332702
-0.5787398960238276
-0.20029948221094354
0.506363414901849
-0.42894111856687045
0.7478405920626316
-0.5294313966528486
-1.1211237016904048
-0.2676654319077697
-0.45411330348908174
-0.7645357020711169
-4.2722567313407405
-4.413268903513493
-3.412371633993773
3.524261094973879
-2.8993993237248548
-3.7879657282075
4.02040642887805
2.5023777996772436
2.3552970451681596
1.9319076308552003
2.3313549679492813
1.8438938743245428
1.9950594622082292
2.025227460531462
2.0473047379494513
2.629076548442684
2.2136342693978075
1.9871762450412278
1.9564051949719448
2.2628398271176815
2.482693247694934
2.2448512767608797
2.0609161250827843
1.8651866373316912
2.1736258738416936
2.566525485572345
2.199316340278152
0.8679625610464446
0.3501495762757554
-0.6285509446470662
0.6423544421174587
-0.9184159691792567
0.9488303629484017
1.3168354775166626
0.5760784216479697
0.45844429797454583
1.2784802629045613
-2.964557832897409
-2.967816578455309
-3.5562962755629233
3.685193077920523
-2.0136356003712197
-2.638323790314191
3.1542986413915854
1.7593100850846592
1.874339442745872
1.211667670753739
1.6491708454710274
1.1639946176626064
1.7245391071962535
1.826202063592698
1.4921950667464707
2.1232457153833173
1.9379080584418642
1.4159479029507522
1.8881365093842009
1.26635700161707
2.1528237406071753
1.9058682467374988
1.6406953493092882
1.7289053346059662
1.3780325786078778
2.209379745342626
1.8514829160074635
0.5394125967526189
-0.461333490309486
-0.3278517904798959
0.19850979620186776
-1.0281862457988085
0.6059050859940656
1.107354233720002
0.21806681758349847
0.33942153889422205
0.5140706945655067
-4.391095251641853
-4.501743917553974
-3.6099828587110134
3.8969378694378087
-2.9516518969355743
-3.6725907486641303
4.347370289634849
2.4846030527302405
2.348003073016539
2.1885440332570307
2.288695025834236
1.8894224917180837
2.2292440567329384
2.3279535252969352
2.265905465497615
2.865476304364495
2.303765363196657
2.091089123147118
2.3079816873959382
2.0789982621867744
2.8095389343700545
2.3235058719645947
2.2206649747939515
2.1871390245337556
2.0961674754573956
3.1140167890950674
2.327338475489686
0.8357471342929688
0.1686910389966846
-0.7222548780518429
0.5498831238696471
-1.2022811918009828
1.1153128131812842
1.288123902437781
0.6248055719866331
0.7868907647555407
1.2958805265530327
-3.670863760290069
-3.4889236905545706
-3.0478253690544683
3.1049857718349476
-2.437139657907568
-3.0737421766273196
3.584502142507356
2.047950407488812
1.7476882787018801
1.6926874403905885
1.6672526002727304
1.605011754726697
1.6503036969470846
1.56941389962451
1.5605185815984934
1.8845061951751514
1.9664976971284007
1.6947951830929544
1.5738703863913726
1.6508448023972322
1.927024911567204
1.9484217120591854
1.5690021560949245
1.484060573671897
1.6412941809860473
2.179585216226066
1.9560411914552007
0.6820559547839525
0.20946534443262177
-0.5390417914536623
0.2211372247114959
-0.7788447795214529
0.48349786924693117
1.0844730748984601
0.20242642550821383
0.44989668141865385
0.9175091750830167
4.311085849231052
4.2242501938285475
3.352536056702908
-3.78866609011536
3.056990772327574
3.7944198035929375
-4.091792776891207
-2.5466646379684645
-2.2599192215950223
-2.0829670504181554
-2.301736815227427
-1.9633142740647969
-2.2134840479825706
-2.0076273212692213
-2.148883627713987
-2.6745213742818956
-2.310164981359488
-1.9838606526834877
-2.1957372087522367
-2.033320029102881
-2.695610266763575
-2.2956077452385184
-2.0510028122734654
-1.8130272602254882
-2.223309546829293
-2.8728517008356316
-2.1487709675261417
-0.68577423878816
-0.21474584265649885
0.5005600415323539
-0.6188698416767076
1.0566655166967949
-1.0234332336888263
-1.1253968955166833
-0.5617837900348385
-0.6059320977717535
-1.090727386108577
5.9415381506255285
5.642016041442824
6.002528132124871
6.279037897647088
6.033169421903007
-5.276429513645267
-5.388565499695707
-6.040241053921133
5.568770620945798
5.334077912810958
5.16292829002263
-5.452952616921412
5.329699800631831
-5.28159733809256
-6.266819277660796
5.389104265783819
5.706289883960824
-5.728297279578071
5.5126342116269065
5.207535752220704
-6.14184826101763
5.336664109787683
5.577029664153005
5.4884376834413855
-5.269961867116178
-5.5626258034451475
-6.379614899575306
-5.770507863192745
5.707848580971877
5.638064587061731
5.927470972194043
5.535606061312382
6.479754257135542
6.153546989280294
6.013569724148142
5.489647310452217
-6.432373993661816
-5.228570545103227
5.235359637010812
-5.404071482227601
-5.522549993243706
-5.511375828618361
-0.6443057231500674
-5.535935410085665
-5.620741251948987
-5.31935271098754
-5.376816032472109
6.626335023107486
-5.265924020428545
5.234927995778846
5.402454670792589
-5.573033486718811
5.301606385124746
5.222994129349108
-5.616981181096685
-5.547696621574828
-5.192792762183423
5.248633388047828
5.218321416269447
5.221248423521506
-6.2847698076919185
-5.824909401693705
-5.305053797872841
5.397582321300435
5.740525298548702
5.765225440162179
5.256584222940668
5.941243748930982
5.374464943458044
-5.252222459967392
6.415503207629151
5.382414257771464
5.246651927012857
-6.0184278724251055
-5.322407743754206
-5.708570487241356
-5.273651587184624
5.29506006065982
-5.553918826263513
5.179001732101332
5.301398216563526
5.688591097316758
5.302291002798591
5.786987028244717
5.827491828272566
5.334560461675424
-5.427963806819543
5.054473709813091
5.24427050337272
-5.236669968624999
-6.174165187891286
5.3436738266864285
5.858788428666491
5.9756383384425265
6.078808074120741
-5.398529364964051
-5.9348477025540625
-5.234771395528572
-5.909491152946984
5.359286294040074
-6.6474088479828035
-6.7370734165854325
-6.605644097700104
-6.396974880390963
-6.611664153664718
7.237962453896546
6.673780520867971
6.529682671122347
-6.694590280420335
-6.777042767668497
-7.304976835057801
6.788356136825984
-6.9280754695200795
6.990894884679458
6.365435091328541
-6.844300631568756
-6.403884314409552
6.567204991696449
-6.762237786559569
-7.2635540986636435
6.592740960953479
-6.962821944515031
-6.658633045983627
-6.8098339292112104
7.280344125561179
6.491471377172419
6.5411994187711695
6.613736145102794
-6.633978058740223
-6.77837590400214
-6.480788857747548
-6.74555291392813
-6.4351009953139044
-6.700769464354605
-6.422895968288605
-6.785448911300631
6.435972417325425
7.359053383412704
-7.134875794986139
6.8141656330788765
6.770072712524984
6.628187964729579
5.014234518779906
6.572971701084475
6.688502140609557
6.929354062378298
6.871517089280568
-6.4687954561311605
7.171682749352145
-7.178726093794548
-6.818742562407836
6.687619824736486
-7.040177725990944
-7.421253803652404
6.667522711209548
6.6183540436702915
7.297820315333119
-7.211525436940853
-7.247554128728866
-7.245930522184249
6.520961450701155
6.616538948373171
7.066384959498374
-6.839675295790191
-6.500175084429925
-6.589892359054376
-7.449391323656351
-6.581009836959545
-6.984213553569884
7.184223044898596
-6.564709295561547
-6.6119946344694345
-7.174005402556745
6.725261836782702
7.050487645371056
6.746834323904265
6.858793478592176
-6.996499100895857
6.771560482444853
-7.416481842503436
-7.090843615750883
-6.5970666452655715
-6.989655100664002
-6.592650558281993
-6.663729200434782
-6.84709443855008
7.158298972376699
-7.035722969182252
-7.0206085038755175
7.080635025206899
6.460280031751371
-6.962662226319941
-6.560040996729911
-6.500788891144713
-6.63099536853845
6.811409471246229
6.503299705242989
7.090066764942016
6.658133645950017
-6.99581229391876
-0.029839843777047122
0.21108355342121551
0.12436796230851851
-0.06695358912110472
0.12396151480450117
0.0564403785814138
0.04553104737674311
0.04855847145159784
0.08945096064591776
0.11532278872968195
-0.5312471108439804
-0.22154109629512525
-0.1182403346686146
-0.05759746963054525
-0.16782097516406105
0.0613159202826507
-0.16006790825901807
-0.19670883159652883
0.1354681259256491
-0.2837575639200766
-0.05673121693432307
0.1013052210229074
0.030847013412734433
0.21268152587700964
0.7658086331329634
-0.09496109521836114
-0.16904588603909196
-0.047053220193898564
0.3685922522870682
0.042503010010218126
0.0990295100374795
-0.05128067568170326
0.17491017949313326
0.0355580180103599
-0.10724656901595409
0.04382113470765116
-0.1639891689673052
0.5513731140505499
-0.21797619340342167
-0.024775558690103505
-0.030243585943189943
-0.03521990460986243
-0.05691030360080947
-0.021436787071390417
-0.09487936281491377
0.0029789424248375714
0.17433202083326318
0.16368195946625325
0.32613705790967906
-0.018978661614109094
0.12117946884341114
-0.036517421208064456
0.015591705831346591
-0.2741447069971215
0.08791035184378197
0.0819452214576275
0.18036845022028142
-0.12404731691406912
-0.13438755861049953
0.1379851801146321
-0.17772093315457138
0.01562969740763125
0.08628461294251935
0.15315691740240842
0.0875019877822182
0.05181203068147528
-0.14248410302775544
0.4100905053074578
0.06791314768547344
0.05356412141206964
0.17537012413885694
0.14338280677723866
-0.2331801358818156
-0.08066474876597123
-0.36464774788558624
0.07286654137917846
-0.1314942723297768
-0.08367421008901246
-0.08974906005823656
-0.7425574074371738
-0.060522843467319065
0.0871408697308182
0.05653022640315249
0.1629947106172146
0.04285894131022761
0.15207930197900688
0.05434670143334103
-0.5044970447297202
-0.11040646708701768
0.052922627943762096
-0.1465757369054408
-0.05368994099477515
0.2163513268094047
-0.02886365329292781
-0.022098878037968266
0.028178139790946122
-0.16241418979331432
-0.07489468447409658
0.02606617765382495
0.01778220427635893
3.584090857247822
2.899362083058666
3.4721365805143543
-2.399421750793054
3.3298814526683187
3.258463779445267
4.055423532142236
-0.5137719383385471
-0.5060758152254874
-0.024742652053041176
-0.8021522560764547
-1.1016138781162694
-0.821239348183409
-0.7404199245454847
-0.601963792503993
-0.8594430242142055
-1.6581549874711161
-0.7484710862620213
-0.6780489792140544
-0.6642859789291032
-1.030412917826402
-1.3966056604547015
-0.8024133501500827
-0.6112821458520439
-0.5457982056912253
-1.3131129509905606
-1.0909465150295492
-0.6008721847334122
0.16882223274056346
0.26527084646554283
-0.46377698153303865
-0.8175619281226061
0.10652580107924194
-0.20868801755561164
-0.019841852504677997
-0.13293036476122844
0.06104930717944965
3.1654013385234845
2.6367665718886437
3.3505071465496825
-2.519401588243188
2.794958424933576
2.9445252252795044
3.181730595041072
-0.7360928567270473
-1.1110415847164827
-0.18412548414741256
-1.2123827673623837
-0.931323647422354
-1.7716245778187265
-1.2050618613363702
-1.1658124873204405
-1.4725674292722029
-1.9236630852348604
-1.779639728790558
-1.006280732701106
-0.7927072206165603
-1.7188239507068497
-2.041202289705882
-1.153307735380298
-1.0783472470204418
-0.8957595977850684
-1.7789582263439676
-1.7793765848988712
-0.7826866555182065
0.06781093609715177
0.14215762763094517
-0.6672585122284268
-0.7831552683970943
0.24166788291945435
-0.28979381015865135
0.0936731385184224
-0.19972489831850643
0.005900415796017208
0.9019806735998054
0.8886864271640385
1.2436169811341777
-0.5428914764021897
0.9296695724380712
0.9294523222912099
1.184256651261792
-1.7484122912888183
-3.176014343012014
-0.8237176641619809
-2.2730212036057003
-1.056965791044735
-2.3354608864963415
-1.5972830818362718
-2.0377362594003947
-2.2389594170849985
-1.8393017941768857
-1.275473473335511
-0.3448689258924781
-1.0311683975086046
-1.7904175558866062
-2.487790569032865
-0.9942302770685414
-0.6263385640774423
-1.2174830815694866
-1.1647349230771187
-2.2914271658030088
-0.6237423631404538
-1.0761692095728264
-0.26599833314885235
-0.43442677942313257
-0.9517492008407398
-0.6358347702347782
-2.16028689701953
-0.42481861844647567
-0.6149249472230247
0.07643656647016761
3.139415947897573
2.1165107334945934
2.9598838287176403
-1.9653105163003315
3.117007553875629
2.811032118866015
3.1941941514208096
-2.0419290799486425
-1.7767042664213961
-1.5293320104973767
-1.946166513120686
-1.6643424307387493
-1.3802194489931987
-1.9074468645020837
-1.2983635755023242
-1.4436622544909357
-1.9916864190681787
-1.270268757018527
-1.234018270363015
-1.5586872525384967
-1.1738302511360112
-1.840075015839946
-0.8885553034742801
-1.2736247473712632
-1.1739978791910024
-1.3384580244540936
-1.1483225246202593
0.40870877584242893
-0.5221334089317362
-1.0478523097669312
0.3019002102635105
-0.08587460320905757
-1.5568884301762331
-1.3151100420604391
-0.4958111161904459
-1.1408344264011712
-0.773521828414418
-0.5373124402170667
-0.13848387860994144
-0.07599948571553845
-0.015350125956274916
-0.36792453920776275
-0.34254724353144655
-0.14890118211328465
1.4756814742967035
-1.4971268907025352
0.2945791650022107
0.875631065612129
0.07608839172709847
1.7666765977635936
-0.9296329852523239
0.3173986204192925
0.8344568411974095
-0.17633049533458242
2.5146272368405884
0.14510829315122564
1.4450835424680029
0.5555049927122743
0.27514401016595746
1.376611396684251
-0.15629039441191744
1.0973833886276507
0.9048864186583488
0.6808399456732432
0.3862681241275824
-0.08782386456865772
0.5222212305595086
-0.3286980224318973
0.23882071308552535
0.12625673008837437
-4.711536555089133
0.6441793550447608
-1.399740833768464
1.837373909652718
-3.811616844315147
-3.1399756641496395
-3.5421307693576356
2.685179354694408
-3.570887115171577
-3.5269926663139737
-3.92561527053255
0.5836518889382415
0.5631506006600039
-0.04309616438155769
0.9505454278873197
1.265304285256965
1.0997737363878857
0.7247686634816711
0.7112465988689473
1.2796423194588793
2.03452948696202
1.0518367127314423
0.6903446578789186
0.577467549403446
1.3016869028128601
1.7571965748302754
1.1294250732914721
0.8292296648557393
0.7650871527344371
1.6554740029832307
1.4527748136319671
0.5674627009803568
-0.14818212518015506
-0.1665646636106317
0.3838309803860438
1.0643981279081405
-0.17692725116385447
0.21978057079307953
0.07437310528230236
-0.057180036134790134
0.3945884425773391
3.43207322614621
2.9307809883911613
3.3518194586929164
-2.5452982977628342
3.120959459702368
3.4592156619336123
3.8964868250553972
-0.5050746400742117
-0.5757997690231548
-0.17059788292640493
-0.8387774317652087
-1.1424832040958335
-0.8617897472396369
-0.6524508053115394
-0.5103832658761337
-0.6700932670902802
-1.7286462627654617
-0.7313877779534883
-0.4908737319078717
-0.39069705519953674
-0.6831887492167517
-1.1891624619149557
-0.6400077967621175
-0.8231712889358582
-0.21075561425139733
-1.198504231123469
-0.8934602119901112
-0.6580475156992606
0.14476854915382512
0.21019850587267613
-0.4226944804995299
-0.6604758691090192
0.07632666870182794
-0.3717792737147463
-0.18592713911229178
-0.3090280538988032
-0.3832245645976258
3.289396530590159
2.7526528227948868
3.207779374893652
-2.287689373498899
3.2324775876957315
3.283620380071208
3.8120924211104708
-0.6805126637149191
-0.8800558789792229
-0.28562920227142113
-0.8754982938158903
-1.1448237542871549
-1.0347824329597282
-0.9753406456008008
-0.7307844091746403
-1.0181799080399507
-1.9428408483521147
-1.134961215076386
-0.7041817200261944
-0.5607449526288955
-0.9703295729705519
-1.5026156253124756
-1.1144896301493865
-0.9006190391058947
-0.6541837174453587
-1.2575079209862126
-1.0958280912497986
-0.5030927614279066
0.06515510980285623
0.2976969556918546
-0.3454147252360961
-0.6611738209644895
0.207567286219168
-0.4594726347587977
-0.2487887172843532
-0.22691086033575356
-0.3416796380701465
-3.241587124439787
-2.5068394172713115
-3.0858087909793
2.263476374605779
-3.0578150183075987
-2.729381030993058
-3.194063647141762
0.3901212888584867
1.3156414610768687
0.4739679490434986
0.9038383878534259
0.9899234793737987
1.3057333052406013
1.4167214281471499
1.4781814144787504
1.4437033498855862
1.7239846106234982
1.52040968627157
0.9985644284615087
0.7993457933740946
1.721812603959819
1.7405168495475511
1.0075181414890104
1.177790355244752
0.877901799081594
1.6729771825402002
1.4315952166384547
0.7671871410743586
-0.013357128569185006
0.040777087665724084
0.6180329953446747
0.72923691497087
-0.4624885468628537
0.6823286451567907
0.08127419838455374
-0.0996603624814053
-0.1600637270435581
-3.7450814790469282
-2.9743465799679987
-3.6336615801955925
2.64028233916698
-3.5071342148934197
-3.3990147893688123
-3.6868865838144003
0.4671813898034152
0.7513759880480251
0.15564511653144686
0.7923963238924436
1.171491967257292
1.2085469546107217
0.8262590472854331
0.7157252044800011
1.2597855453505387
1.992630254777722
1.3523288904975737
0.9581356603259221
0.6672706783679939
1.609236608379005
1.8196704340818637
1.0639283251267309
0.9415545045208253
0.7781791058628875
1.7824284711666292
1.3388369728344676
0.7929052830884119
0.011054365988734835
-0.23449515171049448
0.6032237228597801
0.896746735496678
-0.1026598944793454
0.36197197285441013
0.029409301624991765
-0.009544184238488906
0.2665495817317493
-3.554633100283264
-2.27603162801514
-3.407288284604293
1.9034578577741745
-3.5132822826263976
-3.1090877873418754
-3.708140980790686
2.7061371119247863
2.474633697037285
2.4941759155408434
2.204730765457449
2.3437395270739607
1.6961562651808861
2.757920875774905
2.4566371581818522
1.9361685393078996
2.4320096219697436
1.6225178733717016
1.9866175648256899
2.7721551176558856
2.148838840338763
2.1255080099797463
1.754925712631499
2.0557975678894436
2.1027142483717087
2.0391494520801654
1.7319814567277256
-0.3010087257814969
0.29724648318589697
1.3035177179007018
-0.10503742773176242
0.19196258416631531
1.9897118985963842
1.5426766723624912
1.215173284228414
1.4763651594112905
0.9887511107607969
2.0164619215371564
1.4787543722239465
1.9791189320101938
-1.2404028337386173
2.2719227824140784
1.9960883965849814
2.428871195040104
-2.0878374956670545
-1.8936472273625777
-1.0828263855622189
-1.6790828164341083
-1.268805237220123
-1.2664582983996608
-1.8016685757660507
-0.9574711741825962
-1.0855874244798949
-1.3931108437155704
-1.0403360694375339
-0.9692727664734179
-1.21525874585942
-1.0782097160121298
-1.2950857423974156
-0.9492199344791383
-1.095458070631191
-0.9348664056381739
-1.0517618904155355
-0.8597891074484242
0.16300136564472598
-0.5798987274741195
-0.8788551521153317
0.3158891776660389
0.13525526262109713
-1.2485251485173612
-1.0489664548928026
-0.24241507761849682
-0.9807870932424294
-0.5820453481548414
-2.105626475635724
-1.4362318981558875
-1.8204335610337083
1.166326170666778
-2.1101382914595916
-1.5002845942737293
-2.5086099512909
2.0721291619946034
2.1098472182100907
0.6113676984990726
1.6336293070474786
1.273149217016596
1.5290433199754117
1.7753521432052262
0.7563378078510145
1.3651939614801463
1.6260695965276482
1.3941093648345793
1.15915215046086
0.9733032257493904
1.3670373776765443
1.8832106042278338
1.2686012916191363
1.2862880945102453
0.7629530800222593
1.4812331367078102
1.7042393492646908
-0.2795710452482186
0.30007444820949997
0.577451728877625
-0.009106295318119802
0.017960411989390447
0.8699784457685151
0.8707372783172366
-0.13418626170826725
0.47709300607783484
0.36205480584078303
-3.290001071063986
-2.062363417081329
-3.159085130078988
2.0295132015080584
-3.2545574355783016
-2.9160337452124034
-3.303616424787818
2.4511614283811816
1.8878601062296063
1.3020670290036784
2.242488310528419
1.7090935506032627
1.4402708551160177
2.199422006912713
1.4579621410375871
1.4822217820278878
2.0671678790442294
1.0534893144647173
1.369081174482612
1.3475118832802278
1.4402069132985984
2.2348764864779698
1.148053113473605
1.3405634359701206
1.1205560509362584
1.409091460411267
1.696006769657125
-0.27092400669052114
0.7926187856397419
0.908698561113739
-0.3957018232194792
-0.055307106928973365
1.6621639926057576
1.4852900242219749
0.3025596623528592
1.3750160557178377
0.7178108815408955
-0.13602378310284727
0.4519819711755134
0.6509483366628858
-0.39772222709328287
0.09228540141212688
0.31525471502392044
0.48256261882030566
-1.5729480571091283
-2.6338619263194305
-0.18700828286867213
-2.6941557291685645
0.5299893179200046
-2.314089101513655
0.14357709150397638
-2.207650620384973
-2.1242654015843514
-1.092918545683957
-2.093285838991816
0.8885343956255473
0.866373364312575
-0.8981515794764858
-2.4323773399434487
-0.9901460715607532
0.3071241519953223
0.43382749670540743
-1.0014151004453535
-2.598528547692466
-0.8075398582802975
-0.016022442711556846
-0.5597850053730469
-0.8915843416211818
-1.3699756664993108
-0.27392689523716196
-1.6398851633437617
-0.783207393283533
-0.7103872393622701
-0.22659341485039383
-2.146500819819745
-1.375970633142819
-1.895418211565925
1.1564066407990896
-2.216695593919833
-1.7338541673554202
-2.431224626332529
2.0698323264410585
1.846660997260751
0.6589028750658188
1.6163469257971979
1.3776526391426525
1.4376867854116782
1.8652674159914768
0.8417995319910482
1.2881512580766137
1.5787886932299149
1.2256980699450992
1.0873753984209074
1.051456033697437
1.4000304708488007
1.7186714539854413
1.3115004134089316
1.4029099781859202
0.7798826498864669
1.313608485018287
1.5607329739859492
-0.3381599623879239
0.4280327420761651
0.5664584415659961
-0.413571600509026
-0.015230647795871908
1.0159806322785467
0.9687951322902308
-0.10612676644006398
0.6869707273523649
0.4468944470016337
-0.5578947314270103
-0.9877068833651826
-0.8292964663696454
0.5396066517562972
-0.4230557002337674
-0.7985567006465285
-0.09271791229648194
-0.6923634926900577
-2.1102372015265356
0.8540066105175689
-0.5438038449019236
-0.7618991418799074
-0.4506757128264064
-0.2649906744457626
0.43456007562058735
-0.8901760057676785
-0.14973550591191043
-0.4241821900196282
0.01758435051460232
0.10550890532220338
-0.26756123056997294
0.48010596092079566
-0.26897511308000716
-0.05689422433784949
-0.2013730066665727
0.10161905372643051
0.2781394854071933
-0.21091601793621093
-0.24695982048621234
0.31033921060341846
-0.9414180520552498
0.9428186316273637
1.1904331658217506
2.5169407843749063
-0.36838392232662037
0.9731901702958853
0.2705790245182241
3.154147938538101
2.4772142059905544
3.15785494790999
-2.236649688700328
3.1357322509940215
2.7924351204057527
3.064232227263482
-0.6493596934044354
-1.216501561683023
-0.3294131732344923
-1.0177812855613095
-1.2323364073041454
-1.5494947324546096
-1.3843391299468057
-1.3185878337026689
-1.679714989483876
-1.935944675807717
-1.7313351319448416
-0.9850381618776384
-0.80728231117944
-1.6059803247933462
-1.9706696438143496
-1.2673949396598916
-1.11020375844449
-1.176391050710415
-1.6531477381400712
-1.6169387001972908
-0.6859378499585572
0.18283635675707074
0.2248421771500382
-0.6285282018994279
-0.7826274285671296
0.2813679533348845
-0.625312501575229
0.18168199118992068
0.04079468397507275
0.1561035431370273
1.3887089144416125
1.24976599887612
1.7541718276681633
-1.1161137057571795
1.690392348148481
1.4496371244092547
1.847270326708459
-1.8158381313258687
-3.159753819390339
-0.9020880882985627
-2.042543058970507
-1.2571442773321806
-2.2833088549576086
-2.1291952454471326
-2.015952217438043
-2.312387090481849
-2.2010007516670718
-1.4640385307704504
-0.4130070810277749
-1.1320713717346729
-1.9116095271336035
-2.712067857401301
-0.8606679836316727
-0.6287931315125095
-1.3125224190283349
-1.282967958052887
-2.302046583798861
-0.7727695001748569
-0.7791584315055299
0.05606988672241656
-0.43517573897661904
-0.9119879271153253
-0.505059832213692
-2.401793367037612
-0.6595942481850549
-0.9313517626325473
-0.06977485597626262
1.6564710785833674
1.307590937877973
1.5118493350480517
-1.0873369504593307
1.7900474744285175
1.3622246707022967
2.188037277118312
-1.1510211432217363
-2.147373434579117
-0.23612427188606197
-1.1106045279097556
-0.7625664833345271
-1.4106637020475437
-1.579711605729526
-0.9468010527616562
-1.2403305412695083
-1.3131242163397912
-1.2695459524943404
-1.0877878494659337
-0.8075618945030228
-1.2793871122061087
-1.5715025771197577
-1.163028190822677
-1.215227504644178
-0.7922211397778625
-1.097501790593721
-1.2211236074915413
-0.06575695648178465
-0.32975187844725656
-0.28997092685224635
0.08854932882597003
-0.1385840703391788
-0.19377071446044913
-0.7455766895858555
0.05835743503957096
-0.1031806537752821
0.11243177157179333
2.8884204888896194
2.13258765814251
2.8360948991618438
-1.8689551535418365
3.030378352374334
2.546474632270636
3.2857777008744686
-1.901863632448398
-1.7831306352207739
-1.20335936448039
-1.755347923247379
-1.5072053465880861
-1.1916232439707786
-1.8777665095637535
-1.196540964520497
-1.2868837563821336
-1.5918893481786192
-1.0780302495904472
-1.0995098679463622
-1.0253939823347227
-1.2229277814611226
-1.746045037432513
-1.0479172155919845
-1.0171287838002376
-0.8199844152483754
-1.096903206947579
-1.3708700026459248
0.37155556067694095
-0.4552944829541303
-0.7210332277710593
0.4314732095817808
0.09668071171783926
-1.418545325167801
-1.3516803990801294
-0.26187488340946735
-1.0398829097110653
-0.5791620019874111
0.8803201354582312
0.8585865571363406
1.2109042186334398
-0.8105151471166656
1.1067446977017388
0.8629679417328188
1.2911263131221364
-1.3992806582093713
-2.87316061787094
-0.8158369193607384
-1.5286511407851076
-0.8385360762944389
-1.571871535950979
-1.858556379623571
-2.1063001475002086
-1.4578254510501094
-1.6725874128170617
-1.1291932747378355
-0.20007410345953905
-0.829158349251018
-1.4920138073804246
-2.0411179964394073
-0.7985572184010655
-0.6734597701975149
-1.0679895443259344
-0.9670195402769702
-2.0538909740383278
-0.5356117009130711
-0.8117370583352654
-0.25961782324635274
-0.2821097771804567
-0.8111701274776096
-0.3874118371560992
-2.111229173920646
-0.196004401274319
-0.11844774760243515
0.25740902789731124
3.0514294069141243
2.3357768065566753
3.075905055909812
-2.3432372705409423
2.9184044515746477
2.5209668046113602
3.314594546246331
-0.678233027704898
-1.4093704392743343
-0.36004415310834087
-0.9750274954439622
-0.7869616607451627
-1.5720567993801633
-1.4807273184830647
-1.5261041548247902
-1.6005076221852936
-1.7434012558507108
-1.4554292742300339
-0.890637727534166
-0.9227891402205781
-1.6413860873131783
-1.805843104615444
-0.9966149211841259
-0.902290430829489
-1.0103290336940358
-1.320777120021306
-1.6603090318842786
-0.695062874192826
-0.08085638640313655
0.10564377281730235
-0.6080938153947201
-0.7248004472082326
0.35102985484594595
-0.7098094966633104
0.07606890800801452
-0.01893691309327223
0.396968523498189
2.2237225832419125
1.4196886654981091
2.2407606498919987
-1.4819135264389922
2.295966445900982
2.089513979464859
2.6902556114853664
-2.185462175600404
-1.8571381801062297
-0.8877706110930603
-1.9461780824990258
-1.4536771344503339
-1.5199997576878843
-2.0284995116577433
-0.9624357259329035
-1.554588307325467
-1.6195529266562396
-1.107181463234882
-1.216905439105274
-1.0737115205355112
-1.1527734587789773
-1.8641595048805804
-1.2082464975761056
-1.2908959887714857
-1.0370660474116402
-1.0778660669720885
-1.4996548575570012
0.38144372526942194
-0.547593433966154
-0.8036503421667976
0.42610190656957875
0.15769914869121696
-1.4489152219361487
-1.2841563048664417
-0.18016103344128107
-0.9485904386812716
-0.6400176180589713
-3.2568062596121368
-2.3073583885825415
-3.313984710047427
2.0021151433441764
-3.4096658620897933
-2.8225120786438613
-3.5101974820667308
2.198259399307321
2.0141035827560865
1.5374856541860893
2.0736980480551552
2.0252138939195405
1.5583007512161593
1.95192252741621
1.361407743923443
1.5776996215253354
2.0099209423768643
1.205859485259669
1.1595816339049296
1.6892178234641146
1.5172465154602053
2.0230242706968915
0.9761036639446079
1.1937780749181195
1.1986554489113643
1.4661893456228117
1.5457359005357436
-0.36443521594424066
0.3866201211923543
1.0599616765654385
-0.38360587590946804
0.17034444845410537
1.6492303727035715
1.2514727565540626
0.3896539889441708
1.2509791446430139
0.742052858191713
2.8930508364112693
1.9972045371038543
2.8774013173825357
-1.832002914820754
3.2454060895346006
2.7030275923992573
3.1450930784645306
-1.9873644121721896
-1.6929208121082073
-1.0045422693946136
-1.7994271002540683
-1.5055783441342887
-1.0822100200269955
-1.730881363708537
-1.0392256454898707
-1.1279016871157082
-1.6767729290873492
-1.0988725990421426
-1.037617587133663
-1.0676656098653903
-1.1885761371705916
-1.720723746262112
-0.8769583684165186
-1.2701418135590612
-0.9751397379780951
-1.1937226457549202
-1.4089094331008185
0.2672354173231571
-0.2837777795219673
-0.9750067532899089
0.39109756953076424
0.02733289953672405
-1.5680878335882649
-1.1708851783128527
-0.3758927350933682
-1.0566735233588527
-0.5128472118364802
-3.141683681799981
-2.1147890967375327
-2.9868607663975064
1.8378583711077237
-3.199577619843005
-2.846153603168495
-3.379839909679988
2.2631413864106
2.090767998217221
0.9994303709188816
2.1107852655709065
1.7358534491579294
1.5638932750852466
2.1058242408126975
1.2707011535980801
1.4943529207571653
1.8689536637516595
1.3211055055425613
1.1994762350372945
1.2884402103335826
1.5225065518541634
2.1417780475132844
1.2016154074476701
1.3256431232655448
1.0601681847726152
1.3212569568792907
1.7386248562006974
-0.14647737721045312
0.6542324816625189
1.0411043896277237
-0.42224805923539316
-0.05756974541357855
1.5960530337591057
1.3961120990536677
0.256899470624241
1.0247374578587014
0.775808853923522
-3.4703143433487678
-2.9459990282443007
-3.5842373266777883
2.6343838931137316
-3.360774061299581
-3.340967195296553
-3.442158980200973
0.4907481652850144
0.8160788765169332
0.0317069061510831
1.0883719675419077
1.101344850950722
1.5265308984491186
0.8698071337856507
0.9584336837148305
1.442406695480308
2.1698712532501454
1.733210278492211
0.9585048635999379
0.815108891027483
1.9031200175580891
2.1394908532408303
1.424911105629563
0.8067799073850024
0.8881630709045978
1.6954396811309194
1.7558348338337586
0.8515680036242763
0.0603352589223523
-0.30547625078528007
0.5401430019209058
0.7743619982418148
-0.3291610083870916
0.49834672578804984
-0.07006500533518606
-0.03853438328450027
0.08841666514546533
2.6677928972852936
1.7584297145585495
2.549561043243135
-1.7625978371737807
2.6495859496103247
2.297869050421351
2.8069153984387962
-3.433757021070334
-2.3711771462794737
-1.5048953834692853
-3.272102619066568
-2.382539560449392
-2.5428284971641935
-2.207040137494809
-1.57020249023868
-2.2586672339614435
-2.4595791358469086
-1.221750913425734
-0.7640653142482088
-1.4752251722914336
-1.3867162701294966
-2.6626058387203213
-1.1513108684619178
-0.6666265251067497
-1.3555096425343904
-1.2259411483145903
-2.2778630937530346
0.30023730702702633
-0.8164161620890937
-0.6483417073575405
0.568708801526607
0.10061340305182424
-2.3460255910399543
-1.5476626225237888
-0.17094334241353248
-2.1074795720241357
-1.1732991767134546
-3.747564558686559
-2.9229059275181615
-3.5525104813861956
2.215920352714173
-4.075640543736921
-3.485209441794855
-3.654761651252435
0.362033360860941
2.920704111990307
2.245218131077224
0.36834017855825335
1.6272879965820883
1.0710455521681819
2.412672576539764
3.4474429024554056
1.6093082037309614
2.1320886597188125
1.4036017556655198
1.496229347499797
2.8156981836323367
1.6400076275015536
1.3792647236771414
1.2961700293682978
2.0484350219959486
2.3381960726722615
1.7200250533172405
1.6178643764142253
0.4439081520407457
-0.18942513927891727
0.9656958395223287
0.5001798714893091
1.1444942445781858
-0.3575021893410579
1.6358040732461971
1.2679476558815341
-0.6830947967950105
-0.014524501190316582
-3.410643079227562
-2.376711934100068
-3.4318304924649548
1.8982770591367362
-3.56795127367972
-3.105124722000306
-3.616597018832547
2.4407357770837614
2.1945097538152543
1.6724774925593218
2.095966116066662
1.8332483769905117
1.4583628059690785
2.171239849873302
1.7679717689536196
1.7013379949056142
2.341796013786845
1.3531487445568047
1.334553671377041
1.8519869439741492
1.658059462891606
2.2613740559129774
1.1934273927279293
1.2599931704056087
1.4796352700786481
1.3461602208778747
1.4694392854345546
-0.2926729721379186
0.521379651671472
0.9723844173036109
-0.32995158083290305
0.2132401438520741
1.8896355440092694
1.4659539536012296
0.6553941092225181
1.2819804328343318
0.9450294653796895
1.4936930467458498
1.2310891099896584
1.6917787199850616
-1.110792456055753
1.789764920177927
1.4257535872809506
2.0705519848260203
-1.0146890602188376
-2.4907217453924617
-0.2035853891310265
-1.2034600874762003
-0.7523180892087937
-1.4054990385886215
-1.8834886023773862
-1.4901197576313592
-1.2233685842138984
-1.3350012807715546
-1.1250951816877035
-0.8627204755988681
-1.0160181884560866
-1.3793665394613703
-1.9541618412672703
-0.8558640626229448
-1.0109917090690983
-1.0098791238689735
-1.1374309704067942
-1.4215895053871492
-0.20030031230944464
