nep4_charge2   2 O Hf
cutoff 8.0 4.0 249 38
n_max  4 4
basis_size 12 12
l_max  4 2 1
ANN    40 0
-0.37268951359376623
-0.36679864296994624
-0.008054736615722305
-2.8020320803046266
-1.4566105701191634
0.2655130317389982
-0.8154275545781471
-1.4846872987516568
-0.042422780782791936
-0.20172002168010145
1.1680413739233624
-0.7106383611941876
0.18996145780933332
0.09853803364263392
-0.46464221902572345
0.15772587343093333
-0.3670250728856435
0.44804894103859344
-0.16340583821201243
-0.22704330971511252
0.6226782440633432
-0.09521447880461938
0.15410710247109782
-0.38199317793773396
-0.4090549034674845
0.0451029271899219
0.08455983829997712
-0.02062018674101146
-0.21573730703174868
-0.4058737619646647
-0.08635491559060669
-0.1858473974085676
0.3507349843957838
-0.4081794609649039
-0.6459736799224568
-0.6539365947605654
-0.95295591976479
-0.0535616091636609
-4.416689225904039
-2.3934777066741018
-1.0799356188649003
0.6017024992930105
-2.5971098368542123
-0.30141503688683174
-1.5673179595586453
0.15227748867498186
-1.1465692227839221
-0.8371718953620115
0.7664255244917627
-0.392245385157385
0.6280347458217995
-0.8451909176450166
-0.022522256135447897
-0.1641392122897336
-0.2825783459427877
0.8553914117462537
-0.34101925424349794
0.0911185538169972
-0.9454933247917686
-0.21894664045801304
-0.7832175923669077
-0.38380121067610906
-0.5938240107189868
-1.4793618482252058
0.13107532809732528
-0.3273533287657144
1.7696594634155456
0.2228655354818609
-0.8802696084161545
-2.046556929520546
0.2024670827655172
-1.4730339335133598
-0.8497494498524427
0.242323713268421
3.0891211644876453
0.6315201951000593
-0.06163372567074893
-1.4659308425577928
-0.7267991422731883
1.3643321019634314
1.4097247367260668
-0.769020677364522
-0.41240475103856045
0.41252951334266386
-0.041597914827264396
0.6690270313951933
-1.0316464511719954
-1.2685510633034696
-0.4775088165568288
-1.2167385557222592
0.29323560012329464
-0.8216316774762559
-0.37652220772467176
-0.8324316670813398
-1.3385341676800457
-0.8388502055235544
-0.7953446618533395
-0.5050867024638034
1.08213775024126
-0.8482489294223691
-1.1836486661698613
-0.15463500026549387
-1.2895282952058287
-0.3323493221863176
0.8395123499509367
0.7041314502295299
1.0324663813520698
-0.39980565398581025
0.08953370996962144
-2.80307846870302
-2.5366448770263146
1.3153214484196858
0.8586121775830294
1.2036435087061086
-2.6914586517331607
-1.6384876619265605
0.696489639268706
0.40551866343387033
0.9201508437847744
0.10441766302228798
-2.3606773496590097
0.6051654526175066
0.30635834654980953
0.562379702001859
-0.2622200930861971
-1.1483829053053256
0.6178639484481143
0.31427530398579523
-0.24130104871932861
-0.07133428876699059
-0.3962963824291586
-0.6425366848202427
0.8636969217924482
-3.1926687182549145
0.4399039580053477
-1.8934593226506007
1.8685969007173542
-1.0269618506119427
0.8382683615318304
-1.506442311239873
0.2835696339566546
1.1006388981746518
-0.5206573218448229
2.340650314530616
2.9460463378663455
3.229157708047358
-2.81330397013648
3.0922780056550723
-0.05483642011297088
2.837570541137462
2.1800746514039098
-1.0368668059207387
0.3830270471517734
-0.4414560657609676
-0.5620187331211455
0.27700152009126605
1.1293511188185215
0.8325229680007687
1.2389261051383595
0.4511563464630938
-1.0339132368087034
0.7359442328014949
0.6950890251740998
0.47632890784627424
-0.34248091289324417
0.08874430541681218
-0.28626715597166036
0.9473393369578447
0.3852742684528944
0.1363231785089965
1.4659699786397842
-3.7790001430995543
-0.7599062704169592
1.6681420077806934
3.123473862495795
0.15974018405987345
-0.9493005867494965
-0.03684035166717553
-7.57259088539399
-1.6728092563269374
0.9990794342010842
0.96373190909138
-0.42207784197999626
-0.4523742145439213
2.181144206113141
0.716810382197221
-0.393425929758804
0.5275748229308804
0.7002234883020121
-1.087353097549653
1.768895091801456
-0.2196524057949366
0.8831628586327196
-0.9356566224774692
-0.28056172220316755
0.38985078091420344
0.9486741032870892
1.685768462275544
-0.9914765043607559
-0.4650330207053159
2.772870296527194
-1.1324309267825086
1.3886040355107827
2.3840344219011027
0.9314108645970354
1.3494591654963182
-1.2213990300084197
-1.6237690856011666
-0.05206738315518997
1.206348412167465
-0.7391337788631571
-0.3392920273100046
0.27300068937407057
-2.308114390897181
-0.4160029234031768
0.5285420114534617
-0.45156578123360896
-0.24181638110462622
-0.4973996828320386
0.38323488690572965
0.5167420019616124
-0.6322163312799735
-0.058738094962622577
-0.16045499211830003
-0.26737536743464707
0.17942956149079867
-0.7446186571851298
-0.005320217508717515
-0.027285882726301898
-0.3865419679618875
-0.16165683476560444
-0.12204105777356436
-0.21119588395315717
-0.2912604430355279
-0.1100318147417938
0.6066506258100367
0.4008944195763868
-0.3203023615692207
0.1370419867132677
0.013307013010192173
0.7057783258886225
0.0930716471523969
0.15604188997199386
0.05247423912440949
0.31887500299068205
0.34255143354915085
0.23933718201836301
0.17514480043085168
2.7602442858698897
1.798543288700644
-0.452298696883034
0.8849066955695588
1.2080268915667962
-0.09163769119030284
0.38090329903410136
-1.1116318465425798
0.7758252658159738
-0.04840588195035219
-0.028073252730065935
0.16186883214990605
-0.5517805432418184
0.5745415126846438
-0.5478766685961309
0.0960384186199363
0.22183795996001354
-0.5942685466810714
0.1812360773495749
-0.27524120557664306
0.4242380956380909
0.33903857944318766
-0.18601647911104874
-0.22194802161349575
-0.05924288964244923
-0.0976843554092365
0.12198105244181041
0.034075073261183225
0.7941541735579112
-0.4726096000968363
0.38784625693564034
0.9704444056356003
-0.39685190129983844
-0.7406912877118246
0.4235637061966518
-2.2298231996493003
-0.3850857820238856
-0.0026193436407641636
0.32513390974871936
-0.372950001074507
-0.2606973187697519
0.15325409459105557
0.4428666731037301
-0.5700338862373402
-0.26816207452875873
-0.300344794336488
-0.18074305754740871
0.2663455505093073
-0.5653191016045556
-0.3234531285333902
-0.14557526966651263
0.1472378294502164
-0.04698219065756695
-0.1722083057916502
-0.18311159760577023
0.038577384509672616
-0.07123242297304497
0.8133711594187902
0.22510491915240363
0.007422344412914124
-0.10070164184321527
0.30243813898643934
0.8432881524263087
0.6977394994576148
-0.5238700749760056
0.9479266377256094
0.3339191771424865
0.16635173313431686
0.0377497505012273
-0.0762707111875967
-0.00406690927475435
-0.06705267748502897
-0.0650421802844634
-0.24357863729001544
1.0791947502327932
-0.7693259965817358
0.3609990025033465
-1.0071521192232626
0.4708476076493802
-0.3742450015977936
0.5938253073403023
0.9801520681229468
-0.8215825713737522
0.7345441067961166
-0.7581558606775632
0.7857941103548765
0.691907869209755
-0.24344887076699914
0.19404861325145828
-0.12971738386251574
0.6891082128361746
0.6791929526053276
-0.04486323029524618
0.049850960380828264
-0.48276019243084606
-0.40905602737581426
0.7043837664766758
0.06047104926793667
0.5913569336978263
-0.38909815415764093
0.4784310924222507
1.6278087644244572
0.22221325303622047
0.11149642533331146
-0.20074687676608863
0.8545600439306024
0.5319543789381325
-0.05281675139780342
0.06409086797706626
-0.3130200121297898
-0.3174414129219017
0.5280659172830996
0.1643405388255952
0.04302101374499424
-0.050644144894725934
-0.003957659050702185
-0.11068569471599668
0.2770821472964937
0.22441122822204482
0.08585084789410141
-0.15094129397894873
-0.2845855870000051
0.362809961935783
0.20044232417301192
0.23261654919410957
-0.28479248296312853
-0.4691334871827834
-0.7337726464057565
-0.4681392675156633
0.151051992801751
0.06441011743699086
-0.6605494513424254
-1.8158063332464036
0.7266344931693132
0.9318451832387838
0.29493122563799307
-0.1605205130132324
-0.45187359676095995
-0.7401555865939871
-0.0877022604755931
-1.2103909377694584
0.4642497105559477
1.2706245781742234
-0.9164029401697782
-0.7813333766525018
0.22386460387142776
1.1639707011664029
1.5205872744721274
-0.9266489581135376
-0.11844271110580294
-0.5571591119896012
-0.38556319256344723
1.193066609136131
-0.5086555577106494
-0.21955777035743165
-0.3797848816289967
-0.030761523257332432
0.803559926537179
-0.0640975060564951
-0.011249522600203529
0.02270697565416386
-0.28236551860658504
-1.1377965021234
-0.06606826670735767
0.0006142533849885066
1.5284075264997294
0.45961740205747836
0.36165023491346776
-0.5217222101707905
1.253837445442479
0.32301983799998846
0.5375613940721855
0.754977089611543
0.41465329996964456
-0.8390509194915657
2.926899028813761
2.56834211819554
1.4727662274712408
-1.8535106391084888
2.2657567335574798
-0.29602957316285916
1.9635992584640631
0.1512241831151069
-0.15016035880519576
0.7431953198498388
-0.13352731444327934
0.14018210834637151
-0.4162659384677336
0.6675939805683626
0.20490844730813187
0.7034864631916294
0.5104560775082895
-0.1447004211387548
0.8480511857926951
0.7117602805821864
1.2648522540324063
0.684716317107719
0.4590389970631458
0.7599271281364197
-0.10735139049940559
0.31445110928319503
-0.36669591823270903
0.4470704540924642
-2.9041535949853436
-1.376005356670297
0.731969535519949
2.610716213121252
-0.7099073241425146
-0.1954726729216392
0.38026657903077754
-1.5741788038385751
0.0968024613977283
0.22511936441672992
-0.3616674864074392
0.23826035213585217
-0.28054963380162173
-0.11907606690936733
0.47629667066543663
-0.5290839483467226
0.21112647926240483
-0.27442866084807227
-1.0767461697930198
-0.35233622427991906
-0.12824517418881531
0.5125698497788713
-0.4287549907686546
-0.5711638490666824
0.6680039029850381
0.06371721689492531
0.15996403367676792
-0.3476241489978448
-0.45216705003903007
-0.024886427601103885
0.709541590305667
-0.6780282865684519
0.03545018343592475
-0.6423849452497556
-0.48483429167281433
1.1666214764933798
1.3752742390475996
-0.7721718493132089
-0.7747186703721002
-0.32241013669072366
-0.3289145308579683
0.2247065978892099
-2.2893184463841827
-1.2122114825143913
0.43653222690546656
-1.2327342333805809
-1.158427738328588
0.04890301413258027
-0.04987027213478366
1.1922191330277256
-0.8661096955041291
-0.14064445253082028
-0.08920345671879258
-0.33859006829577487
0.4286404932399423
-0.38709098764197764
0.44633906417491703
-0.43356552480147437
-0.5230090354201957
0.5086069443506097
0.11288421690271665
0.3029564165494081
-0.3570275593518005
-0.4802862223067107
-0.14800624114813724
0.1720467421968371
-0.17856537402314585
0.05966805680207183
-0.005662449624790962
-0.6491308921062157
-0.5460104435912123
0.4920407700179628
-0.2821413128048326
-0.7580607936051676
0.04375335285773591
-1.4001954386904467
-0.2658229748989515
-6.246441058564194
-3.0753764446718175
-0.07522621861568667
-0.47752657905828705
-2.3846067097660715
-0.47692474959505127
-0.6511428492319895
0.692196212477376
-1.2215732395627166
-1.027320264255762
1.5817021480588178
-0.08641979662975345
0.5017930011774996
-0.6909982583987836
0.16208257425809566
0.3338442789276158
-0.13248459576422159
1.3566228930794033
0.17589778669540443
0.6572766645708448
-0.39391381483530874
0.04011771647643596
-0.09114758059545738
0.10587481252830085
-1.038833501775478
-1.4659265195511142
0.15986359901956781
0.38414659680051166
-0.03838898786137973
-0.46942071941571
-0.806807993242347
-0.4290944246833972
0.0010021474048936148
-0.5869851907549162
0.2509040621281371
-2.3225704212550666
-1.544892402174104
-0.42345615723831737
-1.2865847188312738
0.585553085298628
-1.3468528645006734
-0.590430677129338
-1.526644770561515
-0.4279978153082253
-0.8943071216824631
0.19722989434989277
0.8319696094392398
-1.4626151456125844
0.43105300763772675
-1.167182721673447
1.116474977733452
0.7886232030619567
0.12495148036586302
-0.24923776326480687
-0.7459674076821331
0.5681576909020938
0.970246937609748
-0.9132676046280942
0.2947039044612987
-0.8134990784252925
-2.340302137182163
0.704389579104022
0.036021011888278665
0.3517675850140622
0.03431448192662539
0.07456139996196592
0.9622594724776858
-0.3679601163042987
0.23948966446164985
-0.49864316245344537
-0.18500058387360313
2.8083051909061845
0.144566849921452
0.12278263033590679
0.43316428838569626
0.008602586168925173
-0.1381768950517269
1.9328609585029664
-0.23007203503133436
0.9074809987559234
-1.0127892621761527
-0.16173470741281037
0.6794026272464383
0.32724379278484134
1.1229150301284447
-0.8625821900938877
0.014332783855428226
0.7193041840995265
0.6790897757302994
1.4721310764547897
-0.19520813159987602
0.15744994773517879
0.8321793161692578
-0.17432986033873765
-0.0915399094357336
0.4988518227780206
-0.7500530928105698
-1.1025126482483427
-0.34253334846783934
0.2694138372087264
-1.8237629007509188
-0.7570520380678264
-0.7425345495901138
-0.9387494468272387
0.32826918587864595
-1.746195070109722
0.40175730090474016
0.5874575788471387
0.4732619180221526
-0.10929233201430874
0.18770252399961526
0.8955671055171234
0.41197013168689683
-0.9151953819375649
-0.3237963122847834
-0.5508256644732679
-0.5413563151377474
0.13674859000444584
-0.310227635602763
0.19748911545805742
-0.5278383677244337
-0.3867528181093941
0.60889258928813
-0.12665220050877482
0.20158253235777535
-0.6009921386566099
-0.16011109484594316
0.16890882658891154
0.9679532714309453
-0.4212175501161318
0.6060407031560684
-0.507753567367239
0.4710024680777985
1.4396249863407282
1.0792562459068644
0.9130154371544162
1.0547376723741464
0.599116518325417
0.47227390730984764
-0.254044618831172
-0.7167256196031853
-1.7472568772075006
-1.5360421370947344
1.060315398457174
1.250829730132354
-1.6208062878448033
-1.8105952893415025
-2.1237689648789635
0.5934241015175892
0.8588765877210649
1.4272921409724264
0.5865761440338465
-1.921632395182278
0.4669340974531844
0.16588501039732512
0.3294208078330267
-0.09306502922939504
-1.7906805013520781
0.11018270731178281
-0.1124071050894854
-0.8297338997933851
-0.1379169751981342
1.3820279832724403
-0.14751531730812664
0.3804357373328061
-2.8153514132171438
0.23908673219404258
-0.20943179577059085
1.9668924018134797
-1.308042418746125
-0.3952259888185919
-0.13304667935150635
0.22506641917388934
-1.2687562239449814
-0.18670157238593313
-4.250301263145252
-1.9289602017696919
-0.09853701756329203
1.5187148130803376
-0.6490992432981062
-0.06532925084727699
0.8516115845471759
0.36358718077473173
0.4374081780635354
0.5176990199633407
0.15387101822795046
-0.07646799835925264
1.4123056873830886
-0.25185361515148846
0.5874127178603828
-0.9584461521431373
-0.12292867961871075
0.5312935065838953
0.5110574181779003
1.049433544408298
-0.8576522003558129
-0.004205557443001122
1.585644522996185
-0.5684804635769293
0.803862398243182
1.4528089990513178
0.3700349064513437
0.4377953201378995
0.7069376017205912
-0.9876270307554812
0.12482897041777244
0.22086321100262474
-0.5629776448535851
-0.09332031997000408
-0.16157215518538426
-1.543546231799385
2.1503752727864027
-0.0658832557753722
0.981694623462891
0.6511328981308566
-0.5986540316373051
-0.2725829817174432
1.7263809437385698
0.08403247853182513
1.2197777113122326
-2.004400570354221
-0.27654274259362466
1.1893574086851775
0.3889755603969899
1.6379443905444895
-1.4435589446890362
-0.12143849378955128
0.74047090890281
0.13167311838191445
1.1961590980017918
-1.4175617568253558
-0.33098914495162624
0.7501126838324625
-0.6136273554025078
0.49304985903900217
0.385487692410264
-0.5685285619165484
-1.3534636631586237
0.6324953529801663
0.45854918184527965
-2.2911790383542705
-0.5431711565180123
0.3812634421345706
1.2715913565187444
0.011063456918456765
0.9867613567912983
-0.7878549130105205
-1.15186655194196
0.5352193038023276
0.7851922750397112
-0.22137580698497808
-1.6286913443959028
-0.8959812207884001
0.8602989597599552
0.28664350290312285
0.6129690909770406
0.09263825913899763
-1.393084875244452
0.6041034229643389
0.07761187363227177
0.31602426233891245
-0.011989867370878442
-0.6045692419928242
0.11537973082104375
0.04614254864701426
0.11619289477915487
-0.06910569948379443
0.560256865112696
-0.06901197294881589
0.05449204230699841
-1.5217597526326179
-0.04951933735381416
-0.7357610201534902
0.18899643116946344
-0.8647783719272354
-0.7048776555815052
-0.8698246572561303
-0.5407710491725074
-0.9177285219703282
0.15442877192334822
-2.323622412473856
-0.22270408423716795
0.322200013330724
0.029666801220890614
-0.5799614654659911
-0.4876781608740173
0.24596968297697946
0.78503216139214
-0.8800112454248415
-0.03864973023434904
0.03794211801663189
0.027670362930965836
0.2008507540287561
-0.5976447953328345
-0.2547182005733239
-0.3465068955536295
0.058694052067944286
-0.082597588502336
-0.15875438562425534
-0.15437161171990466
-0.2688759330410313
-0.0951389172125482
0.8622360608116129
0.18950540145870967
-0.1026854745963494
0.03779176219883793
0.16355197405175848
0.3901971584874245
0.7544550681225182
-0.29779342500430245
0.47534195352280795
0.356489336077903
-0.001273941831847798
-0.4247174799540098
-0.5141939887502175
-2.1327002145154115
-1.2257646584860593
0.3711997015548856
-0.8911821691259811
-1.0269060514719437
0.01647441178559486
-0.2536741387766144
0.8522526217124832
-0.575702499757314
0.3119727240111454
0.32498409319524696
-0.362768804581893
0.5573946436065861
-0.21954507212816193
0.4082822503710982
-0.38856617402405613
-0.43472922593688135
0.5998331641651135
0.05520720935108185
0.30625327154268794
-0.5191599766582812
-0.09111603354279728
-0.18972806891888228
0.2848146487473291
-0.11191705175822698
-0.0784590162553566
-0.6102392129868464
-0.4573076960079269
-0.6852920839054109
0.18381674682139426
-0.6840708185804187
-0.8414282774076133
0.6003259646132522
0.858511660899047
-0.16034727386516154
3.6412871029871265
1.8463809028118563
-0.05502217898595027
0.23512940352973358
2.013328131257256
-0.3027292217304432
0.8829312251490442
-0.47506344309214327
0.8363069407290179
0.42973652100947246
-0.33814440905924825
0.7481798294490644
-0.3471579043335119
0.7888759787735067
-0.33701367490512824
0.1843327321281872
0.5688719510197537
-1.0645614080513794
0.17786714667541578
-0.0330088796683063
0.5179748917922485
0.28490328391538094
-0.10233445184012462
0.41117394859738676
-0.12069812854626256
1.2104862414471491
0.1663149490530048
0.02880888671505017
-0.644631405680473
-0.717424684125997
0.23999029571828634
1.643346473592883
-0.8448012005374812
-0.6869124741450783
0.19635964714531112
-3.994780947625548
-2.5800106467644603
-0.39437331131354064
-0.471472599876666
-2.0210326051831395
-0.11907016739241434
-1.4201266681395348
0.2736924302974866
-1.16165494798839
-1.4186660330544565
0.5016060469082587
-0.7762222210860671
0.035983493131045236
-0.5590027227878026
-0.11190188796944804
0.031182547031402878
-0.1681460067309186
0.7652128696651174
-0.46919447464212766
-0.19088955789725845
-0.8651044645914416
-0.3342449938701142
-1.1847386423345805
-0.39834305886601473
-0.7454060788489871
-1.4739838753258483
0.23670392804304208
-0.28876228060707937
1.3693591246909438
0.8016022870966169
-0.8364376090499015
-1.4866311985490492
0.3367852629656501
0.5906107241305878
0.12376889842218317
3.210918351274072
1.4696259068755415
-0.08147459195249275
0.8059198655244526
1.3495202593739468
-0.037275246582301906
0.543993232371791
-0.986588061007247
0.9039798969688609
0.17054567188499029
-0.21306621741987314
0.7715573938825308
-0.5076794438093677
0.42583821818013623
-0.29134346395358063
0.06521254734151756
0.2531894059481601
-0.6574105313067401
-0.005717941324314939
-0.49986309443531873
0.4670134387460299
0.3823025461791127
0.10684358532611633
-0.06717751400418563
0.03793459620668362
0.3107757605449163
0.2685470684717597
0.3315353696683892
0.20038017924963264
-0.33197256818891635
0.6117860568220802
0.9359443829155205
-0.4293877751613047
-0.4521414382473517
0.059910854277020836
-2.214595308069172
-1.0576218735838583
0.21243796698937525
-0.8674757938802118
-0.8847053909688295
0.14633001382014207
-0.2628696083806913
0.9492882173142793
-0.35087266567543907
0.3141592860615897
-0.09747430472121536
-0.49630673916291557
0.2672852657338621
-0.25752266671047186
0.5260582872214613
-0.07415293724060042
-0.41330587739259383
0.6300219125629546
0.13796131493147082
0.2595834373954456
-0.3825863525374352
-0.34444237144807055
-0.4044092000273458
0.053326345062786204
0.05211141225457125
-0.09891591049080983
-0.5498774690033955
-0.24645948796852113
-0.34082769918831457
0.5181878655149613
-0.6249081643596742
-0.8597032815733352
-0.4805889727771539
0.09595914643183139
0.8178099891855586
0.7147815135438662
0.8474151809034741
-0.5555400346972885
0.7190141711479854
0.930449990896611
-0.08051227143944109
-0.2078976206532207
-0.6966640841986161
0.2997863479185581
-0.34300360904261074
-0.05469340171268899
0.49583771346777167
-0.6538832795094883
0.302563558749349
-0.5884782621730826
0.1259682930291398
0.5138619701159667
-0.5630466104301975
-0.2361572536092929
-0.3873521366598048
0.6797131013814859
0.40282904541457704
0.5836590811586625
-0.01313031940523324
0.1543294301743092
-0.3536202113596307
0.4808933373795336
0.5334086668160528
0.5416892519147386
-0.4880000797802909
1.0870960462164498
0.7420713854602426
0.13125805719247766
-0.3697605437254745
0.25556189867837137
-0.8845445119758076
-0.37033402927657577
-1.8290173900666462
1.9346760762495816
-0.6320471660490312
-0.33812589453811087
-1.4805762290307696
-1.591024868415043
0.6531280787678393
-0.03529698413613006
0.1386006550874617
0.10378411122192581
-0.745856800227573
0.5626977588613505
0.17497881974350832
0.43011807888309067
0.4626230074869948
-0.17875472516948965
-0.29597337152143727
-0.13728836573976838
-0.4530100439457335
0.3823483343758033
1.3207671007125403
0.22111126946045867
-0.0021394624595206407
-1.5306264906479237
-0.8906645508359152
-0.743732273275597
1.5249955398938084
-1.6776824563262196
1.1638363009870363
-1.1138206477976127
-0.07454788789320377
0.5061414336962018
0.30428489089284366
-2.125877991213375
-4.231092664946664
-0.31261223915557745
-0.452692852484559
0.20232034671628302
0.39291457530976576
-0.5655824022091298
-0.10084302233675116
0.861949735651575
-0.004340474394621933
0.6833906161934072
0.9231494736409802
-0.09297895320348917
0.682412124376448
0.21738171560855826
0.8312894670848755
1.0147769486626286
0.009716493486354904
0.9273344931544892
0.10234604883405622
1.1426667769765841
1.312935802430086
0.8954426442753203
0.022321579254897278
0.655220813331321
-1.4806007303683961
1.4217979668948193
1.41062457825495
-0.0764527423641773
0.014253297409085815
0.9974602571774049
-0.39053409783688403
-0.20729768185827627
0.15233018590267425
0.3070910930817026
-0.44595524583300533
-0.5997142927365361
-0.465102515826797
0.4441913534583727
0.41052122340110087
-0.5071904555560852
-0.051484767450371643
-0.5723079243264961
0.5319773350242185
-0.16836704567910502
0.12948874234680835
0.9218018178402881
-0.5459487573636612
0.36356353186348805
-0.4491038562892001
0.8402774385611051
0.31203582869828733
-0.6373344716497754
0.41877909142492215
-0.24533848223917465
0.5126574081874816
0.6912295371727395
0.7096524781595025
0.006848355360728241
-0.2475904127321638
-0.6057324995601322
0.9545693733898908
0.03566176075898262
0.7651006201323496
-0.6086712234032347
0.30764530662055123
0.3564973277616084
-0.055888208051159884
0.012581829895377206
0.27929724447173
0.26996112707982456
0.5199245855859043
0.06233290269738702
0.7131613952594527
0.5543348606283902
0.29496022089254453
-0.299810672093606
-0.3813651484827527
0.25918701242680114
-0.0628826301113342
-0.18475777189300108
0.36891589580224066
-0.345076526867661
0.10777480103947806
-0.3573921601421093
0.13078711936102524
0.49362444876226647
-0.4035577845985426
-0.2896409583793473
-0.26368466096439974
0.3160969805813868
0.3793233016069594
0.6600904186609164
-0.0691440506484294
0.3433955502783983
-0.13227746879262806
0.6147963801009024
1.026024042953551
0.03948878213036056
-0.6244309093482403
1.159167140454239
0.6219147192901893
-0.6367560061293388
-0.6142467750814631
0.20033897623393818
0.38228873978665384
2.1502214292251387
2.6646971724675934
-2.7006269999221955
-0.6824837266645581
-0.3498423531163314
2.8823579532833685
2.1184436609142234
-1.1599089206875712
-0.7702738369066827
-0.5972428779655179
0.018093358018834455
2.405955937177857
-0.6658940378142454
-0.7904658534846497
-0.1325941095353689
-0.23342108454192823
0.6712855890891298
-0.06387817397647914
-0.06568240204579155
0.6672529426973608
-0.5151947630806363
-0.7643104744260684
-0.5349005467193084
-0.6029723419647594
3.3790871720699247
0.5850302469390385
1.214923395211925
-3.0308992420916283
1.1672851467144063
-0.43008083459346624
1.6948303081933083
-0.5536843605879491
-0.8678586316720232
0.3236163927135843
-2.2485259013494567
-0.7425684663004434
0.519227863293858
-0.10538432825904255
-0.6195923205934398
-0.03806856869133675
0.26011849880506727
0.5609461857459972
-0.5086156850691347
-0.3289059412865414
0.16322501322822142
-0.2495305570149922
0.11306520824665893
-0.6701605377731589
-0.24549984399761934
0.017739217437649384
-0.16887263946634593
-0.17976084905125966
-0.15381014750102784
-0.13838225293955342
-0.3278753382296438
0.028918137044591497
0.6985186740496369
0.10561849188017149
0.1696858174473748
-0.15040356590061663
0.2864910017389321
0.5300601600778148
0.5937060919815833
-0.08314117335774376
0.7919053395807643
0.13418916838823675
0.4617216916261747
0.536374893935047
0.18664044356767331
2.734055177128367
1.7489056674579406
-0.1034529491401281
0.6619097224370516
1.0451459416445492
0.03058993851323092
0.4269583691499314
-0.94690817423638
0.6310371711841857
0.06456465794348608
-0.016648274106304393
0.5097192153851128
-0.38107157297045735
0.5146202841897098
-0.37475355323480003
0.1408915188159199
0.38280952704699
-0.6123225547284968
-0.06476836983987669
-0.06680296972456519
0.43643937916021874
0.18204371862391228
-0.13471414898121734
-0.3623078698906273
0.23935516115732394
-0.16947768872905425
0.15544412107353617
0.350633470155996
0.3558452286598357
-0.5254232549156933
-0.03369656811410592
0.8128713485489527
0.6964084332273778
0.3523624510813533
-0.9509463795341908
2.8448547212980007
2.4016198957172086
0.38128819012602644
-0.48391101258860275
2.073921200329954
-0.5997014766982222
1.2286581376196017
-0.19539211385411823
0.003138869114575884
0.5489522931984899
-0.11153026586863493
0.22068155647980958
0.06979771847372807
0.7388696295383739
0.37123077884175726
0.01644034897290111
0.43440573494416
-0.8801156796255609
0.8005909043487706
0.5865522677274844
0.6633678141832683
0.27431047954600396
0.10822148664725775
0.07550700724257489
0.23322424394845634
1.0535755274123582
0.059880378038219155
0.11483016910199006
-2.1744444488065975
-1.5049005876339454
-0.1350047104542155
1.5379571734591373
0.06668683914320477
1.0323208576844103
0.8208519267477025
-1.6293382279895616
-4.455503852662412
-0.4944897131639348
-0.6378929215508259
-0.09756351280573863
0.9219086809835263
-0.930189429626298
-1.053071302890483
0.8575225761988963
-0.13050962318529946
-0.3605181385386068
0.4093965691293423
-0.052761804572415014
0.8474262143309632
0.6394994907041157
0.5551224285020626
1.0299949122692595
-0.1434155473427547
1.3284758267592698
0.4522317994340995
1.3307002640849674
1.5503244669450784
0.30979877200037675
0.40724979347445767
0.6374474991310182
-1.2050574859805865
1.3886387957964548
1.4294736825641152
-0.5491154082453289
-0.19309885284750733
0.9300184063809482
-0.44535147338347003
-0.08483885789048037
-0.0712505170029228
-0.7641689538216755
-1.0030941720097581
-1.5920569653460788
1.5143463007269868
-1.1287805509953734
2.1875623840476703
-1.1993443021306835
1.4965997348847462
0.13910916332632983
-0.8303662176440615
0.7728266757757587
0.8934377144518917
-0.4274480205257717
-0.7267226073386418
-0.6377848374395512
-0.3874581424831777
-0.19600822729088732
-1.1289471394089698
-0.772709455703403
0.15017906222376254
-0.33386146113491627
-0.5734944402273938
-1.1288198824770006
-0.8340822920529246
0.07981202086247781
0.006594429762150266
0.507174952396204
1.5015351442054754
0.8808882198524088
1.1193265621691992
2.2395926215129043
-1.157268284174025
2.462085470052863
-0.22417095918143218
0.15951670332172743
0.7720802474773492
1.4030767867973235
-0.36641236486016077
1.073305474876239
-0.7241021752934433
0.24700805220371774
-0.846052375556293
-0.09595337458095385
0.06795961629565742
-0.9179579632675
-0.11984298910303037
-0.5647903314045674
-0.33890305078144306
0.4635657722501786
-0.5907180371039307
-0.5687716238854975
-1.2518812491491433
0.8668762876368273
0.5851720340893926
-1.0059695837609468
1.1074901756962485
-1.1046910519149018
0.05775243470062085
-0.026592817221389637
-0.12126617623399226
0.11802504241585086
-0.18729564176739238
-0.233524023046033
1.4096137614567013
-0.8081406011806938
-0.3017795324292262
-0.0029139090859087893
-1.1020837816749114
-0.5195122147378407
0.21475330548734994
0.035085080175681016
-1.144384321603203
-1.207066887108317
0.31006456637367963
0.599371072198082
-0.1939145098243146
-0.44461338267941225
-0.3671984277479685
0.5729897022148009
0.12623186029934486
-0.7271494299384056
0.11102775371113835
-0.35324037597656865
-0.012352157785493076
0.30420784594433714
-0.6283127558184854
0.13173329375395093
0.13666227719028265
0.4754484819960619
-0.2952401119438862
0.080811134307401
0.32983089214674943
-0.4195627468852637
0.052334944345629075
0.13249748815908372
-0.32206795849163095
0.17317840156350875
0.23275060714091023
-0.683213960275011
0.8122089742838198
-0.5277162732941332
0.4692975986899772
-0.2803447261809555
-0.28475376820703535
0.10188485074544175
-0.04990242264880802
-0.00854076287777702
0.40763472551136387
0.08085847574447706
-0.20230649510918042
-0.7615132924963993
0.12751276575103535
0.3929818865496638
-0.06915725695908685
0.13694751366526328
0.20212901154304228
0.1580964001593747
0.12894412552293127
-0.022442342049661557
-0.11226343825730976
0.12280826178986637
-0.3597294779211052
-0.20838435277679557
0.0009356286592535878
-0.13431174357871303
0.14885174767583373
-0.019312323975939006
-0.04679514011451191
0.15181112181716971
-0.044179049730190864
0.349565067226617
-0.2734134699140601
0.0280029974997814
-0.04357729131998056
0.4370608973943976
0.20684596612296635
-0.28760885081747406
0.0010204950472231477
-0.11886383979980235
-0.18382305571403487
0.04887218951177795
-0.0890548545024047
-0.05507280225476745
-0.29727899201821706
-0.401566089554018
-0.19079487825870192
-0.00012156850473828849
-0.009325334029415972
-0.23779594783134003
0.06121750550252693
0.27416479642993075
-0.4367125259489786
0.07794128928270853
-2.840498388266137
0.04374092728025812
-2.688740163967276
0.2426769029571522
-1.6832710575110397
2.370542303676324
1.5488673415200993
-1.274035575495803
1.4770312469088662
2.6639946051298056
-1.1226917774488236
-1.4144499835546753
1.1354042023308932
1.3189354185196418
1.325920312176963
1.6869672095506008
0.6024569694781652
0.2887045342160491
1.5947193547773508
0.32626379372253017
0.8112172700798274
-1.465356865184914
-0.281735581482346
-1.0282159096078576
-0.6880112656710413
-0.20905371064528125
-0.16924621503707676
-0.07303231902236318
-0.006987368605520861
0.7288021341700281
-0.11368145609441595
1.599059738930193
-1.327820997211239
1.6812954082179512
2.172522863461499
0.7918601666849737
-2.332245355693857
-1.7549826536054738
1.0828096141101795
0.33858860848525657
-0.2252751125156429
0.41324842263867984
0.5993251667924592
-0.5780575510317085
-0.2897288558938736
-0.7318704926793546
-0.6313573303159521
0.25664925420725765
-0.5165310508701844
-0.26417656584779853
-0.41628720600846614
0.3154571179520672
0.7550873543759202
-0.16515487886113803
-0.25069001234269966
-0.19750431565315518
-0.5433558031493481
0.33501770011896626
-0.40787130258851195
-0.41866059100582753
-0.10545780519204677
-0.4143265884873179
-0.1925806285288087
-0.07877966522767112
-0.036019983001825
-1.879891992241132
-0.01337058212180902
0.3672340700427869
-0.2810173237379732
0.6368535362871781
-1.6018490109805799
3.858712760052421
3.0223945412980253
-1.389656167935368
0.030878867323242173
0.1537291226667142
-0.9027551730622406
-1.6587461298319321
0.2829169740286062
0.03897116354548003
0.3585983855813911
0.24151186801746552
-1.0777920840049489
0.5244925066172754
0.2252258844348649
-0.12216210796967569
-0.8558563208833849
-1.372973523897671
-0.14412124278533917
0.3204309308179546
-0.07593224252649836
-0.007831995103318709
-0.8600921998700835
0.03377706548071928
0.08650007445556436
-0.29534521812937764
0.7287873213513423
0.21712437178625374
0.0874907623808556
-0.41588316135374076
1.2363044949015005
-0.8744119408591907
-1.1443302461093507
0.1457629181905458
-1.151039118210644
-0.42202993972799163
-1.216476997490821
0.6969250181397005
1.0510777089803134
1.0387461482136502
1.1842584179995939
1.9966826541895712
0.17480780601330295
-0.5426820916101448
-1.799806886370805
-0.9128170240600353
-2.1657423504697526
-0.2688764359980602
-1.5641826914608354
-0.41462341390967855
0.30539667912826135
-0.45379764302520176
0.46985996120804974
0.7185406607983015
-0.23396119961009773
-0.1379635634012398
-0.35664614499760056
0.5738584477025184
0.5057540889885974
0.2985946842326046
0.9160115107481855
0.04189437255576029
0.18832987229130332
-1.0743055458279647
-0.08601497476851512
-0.09407935391285205
1.015196378915749
-0.6077538435065487
0.25051401971904846
0.4660535161619901
3.0103294836541052
-1.1456363007219197
-1.3052138764925723
0.9887625500069418
0.31036010291977856
2.0707469916910695
1.8690440507279813
0.6334033085786842
-0.5808593447948508
0.12362058744189866
0.9573598030831276
0.37401303291430776
0.31385499931256045
-1.4730859488045323
-1.0255025697265643
1.0984933331509843
1.1748985125981681
0.40364420328727196
0.0872276280671287
-0.6367095503200577
0.9838079535762408
1.8399003883941867
0.9843516502841023
-0.6902017456180438
0.08307248258080718
1.192242315297141
-0.44741694555612327
0.11647019909292626
0.3913052172392453
0.40804584397017024
2.693637737198826
1.4957546141397922
0.17572015904857607
-0.6038724501678204
0.6512045234156949
2.1291949214284935
-0.6846463872603419
0.29321528411608017
0.12722177734829382
0.8540518050470483
0.34944376181264375
0.04499379277921688
0.6564105939250133
-0.7081621254124159
-0.21151094295530845
1.1724505720330303
0.8238406695927998
0.617439835416037
-1.0559003956353528
-0.5987646231720329
0.6459474749392903
1.5270407177815923
1.1758429168960094
0.3619129319399688
0.3491560089223164
0.18747439728603946
0.8095500981002535
0.33656647786999144
-0.32856553611133227
0.3075738481048257
0.8985319141613801
-0.22037794024024057
-0.13996371882215997
1.3454510076220885
0.4497113071134172
2.0769186792111713
0.16316825048819655
0.505309417400396
-1.1227569765312357
0.5550193976295119
-0.2574394895935845
-0.16127725646274244
-1.2827809998344462
0.8280212105463267
-0.03235580763356062
0.0518182103127266
0.5781827741815774
-0.1539675615289989
0.06760579865575668
-0.5210312865105875
-0.9599721778674278
-1.0214897309678705
-0.44590114465413194
-0.38098816331721425
-0.12746210934993252
-0.4083807740832145
-0.3533328025258701
-0.10950717618770489
0.11350482861813228
-0.4572147184785191
0.29080164533873787
-0.16794973348509387
0.08888207049150784
0.04609347057725429
-0.20622297125573846
-0.35350301815953394
0.1333926336126643
-0.15215404798818213
-0.4712522643823445
-0.2917724868434083
-2.0333935461990498
0.05031920042696638
-0.3011712591816304
0.3249367702085178
-0.11150463607932375
-2.174363127612924
-0.6767075485809673
1.1087840424624207
-0.05873111534457081
0.709146815494095
-1.957631968264097
-1.1595503944671817
0.3124026337891517
-0.0025224352975617742
-0.5569517686723402
-1.3772428000021402
-0.08710233494988935
0.5482737470346064
0.1869326706222883
-0.8128872263170597
-0.34377780316271145
0.3622975387705888
1.1442789054057132
1.2806146194635755
-0.174821700474155
-0.2389568611837311
-0.5015640655142232
0.07900216180641868
1.1896787264713902
0.3509422644596029
-0.9693226189319205
0.40791838652548135
-0.1182273958293216
-0.11162301202373925
0.009916748104465207
-2.5268400491829204
-0.9355630365422586
0.3218351155725204
-0.1285906098901469
-0.5393399849062613
1.1801914315333213
-0.5526605673368594
0.43082794752503484
-0.23918477292387
0.15425386312271386
0.7606182404535734
0.3447579341686869
0.44980809961927837
-0.4517808204415864
0.475207349174027
1.2494095039801656
0.8816942929601803
0.35088124599505577
-0.2709047999203853
-0.22802809063916685
1.043248127126737
0.9809950099728899
0.5083696393880333
-0.14523458315469642
-0.21865400168311427
0.4758313941186497
0.8170376617907044
0.21576221371652046
-0.1515095486995687
0.3659153564297189
1.0157862197474163
-0.1943906918929796
-0.26015340195928427
1.0477392788153839
0.4179907909554071
2.4827179267440087
0.3183300540764356
0.571023242118456
-0.6475100928823599
0.22735991446952894
0.33674257287290327
0.42601987959118387
1.231166701644606
-0.611216773886955
0.08139252567701011
0.2791711003689418
-0.6532894217994331
-0.057230187871066214
0.1751630272864858
0.45863470083243857
0.7737168144155658
0.7574659695249591
0.09241924583153846
0.14235418601288394
0.33554225019546635
0.15445070925896948
0.16887215698418948
-0.25651049784813773
-0.3518456492283592
0.5271108967726611
-0.47078559003441406
0.26849261730966373
-0.4693578501758464
-0.12820549704241252
0.30926748287253664
0.10303508080185471
-0.010907785985019427
0.07165642074167114
0.027550786754051322
0.5027209103198048
2.2100641116246686
0.057031616111158416
-0.08211113811007315
-0.18344815385368166
0.11733072570918981
-0.6606069528975805
3.104427942063962
2.8160862511625555
-1.2063325404766738
-0.007245956973273515
-0.11272927604634407
-1.0735265756139083
-0.5327647516603464
0.09154422056833923
0.4473762870144128
1.287902186154913
0.8989195201647047
-0.25597514665524956
0.6869124843259343
0.04133863291671342
0.8507858430148241
0.353404723392808
-0.13966309432670904
-0.005961180244078655
0.24003641260254305
0.36616332776311344
-0.28096210466166344
-0.731472738427291
0.28219943533521924
0.47357224757449184
0.9520759030653487
-0.2215174463055723
-0.125134614014782
1.7473484444224154
0.020189288941843304
1.5267298223725272
-1.4278421049764294
-0.4258313285377166
0.27164581557578815
-0.5608212309898255
-0.5086372500072612
2.1058379373921996
1.9912852753316848
-0.9975585841006883
0.08291810316028968
0.20597290543906557
-0.4522294493436339
-0.3210588040931832
0.5235700663587091
0.2616787974748563
0.6386877330388727
0.4659066918683413
-0.15382017610349902
0.347466318978161
0.2740936374227739
0.043235729332841075
-0.14469854324287945
-0.5786675048612507
-0.11767674127647318
0.3115953104852484
-0.02271452064166943
0.3083081860604867
-0.5374945808233885
0.28115988426190214
0.2592865919382194
-0.454025703174223
0.45986200412469436
0.14812091660400603
-0.32917623370058435
0.07624190536239782
1.708806134507986
-0.027429698834698202
0.06514956845849776
0.5320374434103924
-0.5781764004439732
-0.2991797154510361
3.2383908359470737
2.8034732781202347
-1.1623113925683681
0.038088540246599335
0.29944430205654915
-0.5456195539004266
-0.10339520778830681
0.1332065194193219
0.5234828891707889
1.8060744374212994
1.358694596103388
0.10309035931856292
1.0273854726303522
-0.13102819214139705
1.0659003499131363
0.7189752753680969
0.42824077963523893
-0.021914524985243194
0.33723883010436995
0.9044802214084678
-0.1771905486268388
-0.14985034152510104
0.3109485379712973
0.7142938361539095
1.7041314044506457
-0.6242528439181644
-0.21637107025368119
2.3589189447110614
0.019293300257294158
1.6233480861762015
-0.8975395229887989
-0.007492161280241859
0.24061824952714098
-0.25323161568759994
0.0983819833129352
-1.3335073067887304
-1.4125044758290901
0.7949170063140774
-0.001570392519557827
-0.23499657677740818
0.6599252012030672
0.13504691240983796
-0.2258924322605804
-0.5340892598550745
-0.5919609719213837
-0.7789760052983437
-0.07244980780057694
-0.22992406410658336
-0.3798590645307463
-0.013427363258307526
-0.028958577727163825
0.12195596240240357
0.10312453931219802
-0.5772739250293494
0.25709959604785243
-0.24728196050323858
0.3578371116095692
-0.09475895148627447
-0.3743833040388996
-0.17382679521579536
-0.3939434325613454
-0.10726319915622838
-0.14564786844388378
-0.004135781654423602
-2.017265262011698
0.17074339352501564
-0.005281059277965974
-0.03454134628130896
0.11602908346518129
-0.6686963605961457
0.8625196186215446
0.11065911706218225
-0.20330819881516093
-0.8673600205590036
0.5023622319212914
0.5539519499458657
-0.168063484809693
0.44825807226425235
0.3015788822361148
0.427966206773037
-0.03752411865035443
-0.4355794561807254
0.06300273275641402
0.30804178841432645
0.7753242056516898
-0.3368863670595198
-0.01586034253784427
0.31056934820364823
0.18296369998692616
0.7158193330542271
0.015369248187215178
-0.38562728501383964
0.23527477445288625
0.04133161760997171
-0.1675596534703302
0.2769868250649599
0.30883178997416016
-0.018555477788107497
0.09030823281386965
0.1779372876736238
0.37329512563334283
0.2766491470475845
0.423767065514864
-0.12267244045833257
0.6052396952833395
-1.2857210465014866
-1.3966927923263535
0.7051297566254479
0.5618764238419895
-0.559851997471288
-0.046830800623380485
0.17037202856865252
-0.540637001256599
-0.4157765435625448
-0.6355441215936197
-0.34269356182669086
0.24018488841602545
-0.2029852058018566
-0.5857725715522105
-0.6463061874365313
-0.08934202125515295
0.10866752267482684
-0.556367902781371
-0.45518782418131093
-0.33643042621432584
-0.5548073000412157
0.12167171061248505
-0.3286922463591874
-0.24311333873327423
0.06019472624811567
-0.39490686735796887
-0.3493922335530091
0.36661431277582496
-0.14882361458924795
-1.5319563442327626
-0.4615345762979206
-0.09275666340519223
-0.07834719696637427
0.6649484485768338
0.9676074800059185
-2.705973412389703
-3.33836814753075
1.6046527332426086
-0.5803187963476865
0.5881521997790488
1.3964598995522908
-0.3741436421320527
-0.021280224762415974
-0.2847507883238798
-1.9836744390753238
-1.4133774446193728
-0.09486344714168776
-0.8346406326878654
0.3908465429716574
-0.6667254935131557
-0.6442436481900332
-0.5651112351426043
0.0023869112792409553
-0.5121968388110134
-0.3631741880614721
1.0702686721190473
1.147995196424215
0.10191682470141787
-0.6774689262715692
-1.1859329124530469
0.8041619976015442
0.4216473631146127
-3.1604770924078407
0.12880883581886773
-1.0956245358350911
1.740921396817243
-0.05555482094891153
-0.21923031797382406
0.6399200668677157
-1.1893614044708583
0.4297380851447446
-0.8560433355478231
0.3670327197365293
-0.4549787819355375
0.1291962506840623
0.5757372188154436
-0.01709804530535945
-0.24900021551940693
-0.17930162001483305
-0.6761349151662335
-0.6044319496919446
-0.021358786739051193
-0.20613816273599958
-0.2752254110174784
-0.14312304870849457
-0.6221189479662385
-0.04161698601759837
0.06591314708657617
-0.14987598473269806
0.3944070990248924
-0.3782782569257033
-0.029053324989234398
0.06391719000103589
-0.17457028325226273
-0.3108736137674218
0.03483166615397764
-0.05903822666186381
-0.2568549836326209
-0.14832118908021585
-2.613984854683161
-0.11603544367001749
-0.347943080815221
0.45444638342640037
-0.12869311078064227
-0.6177711059474892
1.3498837729179705
0.6478343819661557
-0.5337071011455723
-0.5246078370872242
1.0621522208561789
0.6077988734763454
0.4930707888455531
0.4990413210273515
0.44788192397432236
0.6522667393296588
0.05139906005459912
-0.3097505972526189
-0.15183696529728755
0.7489610505019444
1.023669440191074
-0.11582289479429296
-0.13428369431874762
0.6488030866182074
0.720078586436526
0.6433328599631212
0.5122273246688511
-0.2875243369564864
0.2007514687905338
0.3175784935236881
-0.6633755130611282
0.4944024552944177
0.19693970285352083
-0.7486378918957208
0.05553472101957078
1.0116508002553117
1.29681472269423
0.2816921142059199
0.3416761297306922
-0.2639392445355004
1.9757934999356574
0.333666402372791
2.023995388616625
-0.32706308419488095
1.0007787209497443
-1.0496981292635892
-0.9774242626375368
0.7831641683650805
-0.5759535212230101
-1.2042214454912172
1.3337587384697476
1.7041311112414719
-0.4831182745565158
-0.7373086120497084
-0.22722677030036043
-0.5941495205217451
0.004146257478068264
-0.15308598911921736
0.29642988928403224
0.8960735350845831
-0.9386889394356516
1.7705129796615864
0.49696101703510753
1.0226109051805956
0.7824395625717238
-0.3265841313797207
0.30139648140234365
0.17645721859782182
-0.1359685408878683
-0.42115696692650084
0.6421938371946736
-0.6390861564429907
1.0789126012189234
-1.181219196620835
-1.800739401983996
0.36877179174809166
-1.6497341187053467
-1.688533433614072
0.7870628289689477
0.23630238161488626
-0.29635605341252147
0.49147746733037495
0.4024060206687182
-0.41057980977286074
-0.5456487038820562
-0.7140875649329644
-0.8704364302563732
0.018092731591997903
-0.7082818972623839
-0.20905631822453477
-0.4842942668270289
0.11456582202967286
0.5879958843910377
0.16930582847074177
-0.48098709890109875
-0.1026501520874214
-0.20722630682693752
0.47351470109346966
-0.3604214776150839
-0.2874764744992435
-0.25224729943238755
-0.11975794710351312
0.0731414311207344
-0.13501850479141192
0.04203950838040089
-1.831856783194463
0.06316275016349103
0.10970144434299556
-0.16235582094846143
0.3675885917155502
1.1948809124113207
-1.6716042525300614
-1.0228044172928337
0.8868578015187792
0.5249882129096776
-0.33755839745217764
-0.46788759996235796
0.09781620226879797
-0.3479123714417652
-0.4695408208755581
-0.708635067926352
-0.0930937874730793
0.46584063477321874
-0.515047692293242
-0.3126008285064307
-0.6232916832870826
0.17424531195516146
0.09907490177847979
-0.4842456487736785
-0.1269472882425183
-0.7117815625275206
-0.24703481330243957
0.28453934765169187
-0.3083057995196566
-0.014444138073247358
0.723617051548335
-0.11562794933080398
0.0003951204506603658
0.3450376951288097
0.045879977412750364
0.1154416636091064
-0.5414045389261057
0.19913320242960156
-0.9944331542755697
0.24364979150435173
-0.89955300703375
1.9753806715201578
2.0628931785071245
-0.8490619243540423
0.30140758246968347
2.023875250593912
1.1979417674297095
0.4911157655139607
0.541874371155066
-0.48125299279093875
1.2170262859032572
0.08814550347999903
-0.28471252393957813
-0.5187702943964413
1.098810334291053
0.90757655636133
0.16923169748787417
0.1730921053559372
1.3790999816095095
1.323074377058151
-0.7504407834812267
0.9437401812777848
-0.0088143994144469
0.06276509379894914
0.5379425464262307
-0.06168606087895733
0.8081643667605449
0.5513911976206202
-1.636548395930403
-0.1418144577062526
3.2517295249660676
2.3016546522106403
0.11386449415683823
-0.00781442790800954
-0.7035067024463747
1.2710429364122682
-0.7325897023755894
-0.05800388526060121
0.4112984046239045
0.512247177736887
0.09054929611745992
-0.43575150839797616
-0.05326422405146604
0.23610901157463535
0.15160127275482302
0.0958530122364783
0.47657401345262546
-0.1002166022113312
0.16114685086924593
0.24044547526677698
-0.24034504142010318
0.4999562720888156
0.006210404162715347
-0.03490948600237697
0.1298551978749632
-0.8072183028496379
0.3870848243293337
0.297668773039059
-0.06848151070020704
0.1267754253646763
1.3082097109863233
-0.03837359724252353
0.040371489660502136
0.5781287444305812
-0.14411918962331194
2.4706680445737734
-0.4251754092800324
0.4716865096009191
-0.5655589177445964
0.21358211107393854
0.29503016102493845
-1.4659864694549818
-0.8537942576654771
0.6033648033583495
0.751634762884645
-0.5988608591004083
-0.010678206618597008
0.1958143099051669
-1.0123883325442984
-1.0234467225927542
-0.5722518652018238
-0.5117983760117759
0.3517130793076679
-0.3146589978371894
-0.9466615679447072
-1.0133850129814115
0.002429121754376926
0.32822772532500893
-0.5747972071086078
-0.7064638797304877
-0.16614528157221872
-0.323712630139287
0.09647114369327957
0.06124570607793852
-0.13452394643596602
0.057977803151121235
-0.5952080963846661
-0.03439690325312858
-0.0006548516353860587
-0.04124538350117066
-1.7701168229485724
-0.8995617591919746
-0.6564330804736772
0.0493892931568023
0.31486786706166664
-0.07442276932555425
1.2161618328506094
1.2774022643178435
-1.0177186989843263
0.06636454624938215
0.6975281738014532
0.14729100115352187
0.12801791090407463
0.2518401785860882
0.23175820544751868
0.926430564909448
0.855966728888463
-0.22222065046277523
-0.0919907025870297
0.7190278781329874
0.4723507457884698
0.15702091085727604
-0.17746342970973933
0.5129599521547349
0.7032489717952779
-0.40930748367279274
0.8380924976045135
-0.04748615801873524
0.11216205777618132
0.2198643812214395
-0.05031753267557538
0.7285355909102924
0.4753788839865316
-0.9673620450211677
-0.09732623090752188
2.199317587616027
0.9476248930100368
0.2263621226867543
-0.25321355802106044
-0.7392731594074248
-0.49008809124824826
2.3022587009039226
1.9155600795964745
-0.6834355537254087
-0.20710377958157264
0.224466202315063
-0.7021892438178955
-0.614654976573432
0.8071373842728792
0.5379192814475039
0.7712501568980434
0.5568482145657382
-0.19478949967172857
0.512326637672414
0.016521405777551946
0.36877699554522375
-0.09698317777857428
-0.7101350400804276
0.11253738117968397
0.5306371712462291
-0.1291966436529101
0.5638056135295062
-0.3385367057437234
0.410294486320112
0.3347851945105874
0.2181904961849072
0.48810711604526785
0.24873874643806912
-0.005344254538517481
-0.14372314164549135
1.6791850413466716
0.051374270640196215
-0.37447209252624364
0.1670894347709355
-0.5949610598818098
-2.457961085710718
0.5484687565927227
0.42937346681084665
-0.8657973831894101
-0.8220687863974708
-1.4118876930478974
-0.7804092455907728
-0.18347307142133817
0.5166031674958282
0.374193406986643
-1.3395214848676669
-0.3898556968173812
0.013947154214040336
0.8825062737228395
0.43036875817601
-0.7319728431786287
-0.8712024041311476
-0.0135556051054504
0.060851281939051156
0.05684205267714
-0.7365894320886155
-1.1531897310646053
-0.3601136632938726
0.5568790115245446
0.08344234013483472
-0.7753410896582481
0.32804502641313016
-0.13160383543121046
-0.3462319687011397
0.2199791179044883
-2.3862448308012487
-0.8814519707954026
-0.07351464450890373
0.5746145243629528
-0.11115624480458965
1.1572320150300361
-2.3874794327454
-2.664736166118632
1.2738825522682637
-0.1839703344672872
-2.9705039387326444
-2.2425125818872638
-0.6100187275747085
-0.33837893008352943
0.8167167476901557
-0.5964808321583138
1.2436412303772229
1.0863668602985008
1.5391244757717422
-1.03317967110257
-1.3595348893162849
0.2196083013215852
0.01881805983414052
-1.5656271016205066
-0.7864494108050859
0.8158797279775278
-0.8371317802706509
0.16262846709574447
-0.10026253677606141
-0.49890387446174317
-0.08690905791310434
-1.505098729596331
-0.3362870897536363
1.9166121901197697
-0.14382311763764727
-3.921783888370783
-3.538285824784768
-0.5781051915684025
-0.39552392665555375
0.9388354247286281
-2.241952658028816
-1.9904024853964883
-1.4008558299438902
0.5538816091404982
0.46060434047276794
-0.3379159664224868
-0.32726973882905364
-0.4186879517772922
0.8546540218256589
-0.2101685767019024
-1.0040674340660778
-1.3608678940330259
-1.0939544454049002
-0.006289928165082373
0.0366404949081607
-0.6901990980095858
-1.985819394181417
-2.0755727145336853
-0.7740711959004464
-1.0259742198191781
-0.17560980405588938
-0.1569975861346719
-0.6626291690079827
0.3580151720447168
-1.1700784265329982
-0.8777539225357813
0.22771854917986725
0.10066829123726849
-2.4806028042534374
-0.7058327200841628
-1.4542122282677568
0.35514860956706534
-0.06959398285376521
0.9398527851068811
-0.20482496857649396
0.8286514067592339
-2.0525463363744896
-2.0686741683268366
0.7990991887800665
0.3945485067315044
-0.32631992852938996
0.4471194246177248
0.5947927273813358
-0.7798148749549553
-0.7897363472377423
-1.1389723423071185
-1.0516130006322344
0.2208705219829587
-0.7289356112394247
-0.09607342615372003
-0.6513150754253102
-0.3648969503504864
0.6436060459885408
0.3765999426162917
-0.15956398371106592
-0.4478182684456638
-0.10230863075833499
0.6135320050164709
-0.5799026022303752
-0.4056110248108531
-0.7400974667839957
0.11735660311782142
-0.0052993842219731906
-0.6623703627546937
-0.06811383567197081
-1.9434695364938646
0.4400612869367528
0.2212311150380097
-0.5303404509258025
0.3981185984614865
1.395128277247548
-0.8667738054787494
0.6151909990139787
0.4091739544567166
1.053670607406291
0.24397942776112447
-0.09605114796331338
0.2267843381416034
-0.2261809865229345
-0.11349895850629808
0.5267509511779535
0.6532540852868245
0.160949182499428
-0.3054984456501087
-0.18113537998896048
0.22128578886940423
0.5662224277527858
0.45248401762543866
0.0924992440322411
0.32916900297916485
-0.2142523072548372
0.7916688862035066
0.2904681449438478
-0.09087320133582176
0.09246056983560669
0.41487249614288374
0.07415593642494579
0.0037751066388693796
0.3989739517588443
-0.003622180963000478
2.2463794866873874
0.3063484348852959
0.48902701250047254
-0.6401375030874771
-0.2829112201346465
0.4543821178355622
-1.674431497965711
0.2602672684814375
0.3731181964557796
1.2003483908647705
-0.6421680851232796
-0.04014074693385296
0.2511737483839836
-0.9150587242097533
-1.624799977893281
-0.6368004915840509
-0.2858159453569033
0.34693877755100117
-0.4145620155493431
-1.2354465223577313
-0.8444510623651751
0.16306502009701962
0.48565051876201665
-0.3563856018173623
-0.6550736652136128
-0.3928335806135636
0.11047395527405805
0.539720048891195
0.0524428470430667
-0.14831557647763574
0.009794408271951589
-0.38047324413607636
-0.13128198213772047
-0.3290392783274813
-0.39536133232496073
-0.8674235862407303
-0.5347388888220449
-0.565712778230327
-0.3842998858410687
0.003315538502862718
1.565940759703244
-5.4923387512276935
-3.844221920272361
1.1163191539268176
-0.6308384193113223
-0.30048476139500413
-0.22926976665828902
0.8847281366717716
-1.4614230793088248
0.3133521104288315
-1.5906154716553926
-0.3561251204103833
1.2363046938961737
-1.3438647731450684
0.21125392209270547
-0.9523688287247515
-0.08377136450974805
0.4626258212725643
-0.9959036146541554
-0.27921219312933676
-0.5839912565616323
0.3278640611576339
0.9956360828427937
0.09305326357176774
-0.32860958998914996
-0.6523391776194956
0.3098884439086544
-0.3669556097436317
-0.9803245642459223
0.31355896053326193
-0.7986433795907918
0.1758311647142454
0.3204896313189371
-1.126705912620353
1.2366448823467426
-0.24380942970955646
1.4241917507157311
1.3981522978571725
-0.8354979853133417
-0.2732792917136339
0.38076061068956935
-0.28322121231987696
-0.06849191943684482
0.4745441090694617
0.33953539929559107
0.8277286742156771
0.8933421676961715
-0.08836698903348049
0.3490365374212761
0.644589183946732
0.4362052651441211
0.12635086989956196
-0.23135615270444174
0.46481128794953674
0.5401332845961617
-0.13055371547891959
0.7777599986735396
-0.030366637912940756
0.17430065097258973
0.3577615287181339
-0.31975843437386536
0.33177550564758024
0.16849476108641825
-0.11484553694909236
-0.3123676634645518
1.9164716324372275
0.5117116859940518
0.34359688499516106
-0.36303901756150636
-0.8075862266936913
1.4552177565689233
0.5448144932236597
0.5518810883865024
-0.5680743360406606
-0.7763519873322101
1.363564974213246
0.704747769332817
0.35882086435041516
-0.4949386514694985
0.6889393979205973
1.0934897563835555
1.284746714669248
0.7376226562636214
-0.33865374095323597
0.04925897468660651
1.1572452296052769
1.0641363678470435
0.7901813485610647
-0.36446077333016247
0.17010805496090758
1.1421279323364817
1.0068333026346095
0.7882579333086249
-0.12619399359798564
0.9976650588708905
1.1753264154209904
-0.5519849466849762
-0.28943954790381093
1.5525390882298684
0.5102533382207071
2.3772590981451436
0.5455812558709773
0.07936718666252608
-0.9428585129843704
0.23885147599538148
-5.5313230360500105
1.7421911909945318
2.5106139997173846
-1.1678418829607262
1.647249297563564
-2.312927125053556
-2.3939412292119595
0.2856617632063689
1.3689770999273307
-0.19061207771421262
-0.012026402327643968
-0.7489399307091855
-1.8029609510299023
2.7922195462750885
-0.2972949937541303
-0.6503123161238645
-1.3978146177331503
-1.5059254526610373
0.636861485160089
-0.344140524717903
-0.43854463768215607
-1.5638696485988868
-1.5403666802010054
1.1200973251397728
-0.6966075553622363
-1.221185817344259
0.3575323743724254
-0.4513949453356205
0.1645541768331775
-1.9078456960734242
-3.4869778253980397
-1.4597423119310995
0.7966931370396191
2.7007319351410572
-1.1613862706594722
-0.8030322767725473
0.2301232884579713
-0.9541798849656605
0.3762999535546145
-0.07912235633246201
-0.144869594589214
0.48897150600767353
-0.12329849432036669
-0.1813842133284637
-0.17355202583580853
-0.7979141872907535
-0.6638919717926824
-0.31688060201881557
-0.06039002021105895
-0.35940074709409653
0.11737638660392705
-0.565668230417358
-0.10242046274573188
0.19015182025279218
-0.4938049685008354
0.4003220591741511
-0.20909430186913167
-0.04831366796329627
0.07097327385484432
-0.24227913252182956
-0.1190742592200391
-0.06811968501553227
0.14595087657929248
-0.2918605047700571
-0.19254877493803582
-2.333900656875507
-0.054662999762822684
-0.17461856438028808
0.5438658493796658
-0.08564251783461584
-0.593588485887535
1.8365762727804629
1.6569555364179451
-1.035046566545821
-0.15261229670213147
0.5537421122028607
-0.25684488163031227
-0.17232518125344437
0.4524896362671137
0.3257612866695343
0.7156751733428053
0.3901049315816383
-0.4804196416675751
0.18007814517360798
0.20730546366567967
0.47141456701262513
-0.004850106468134282
-0.38788183097930024
0.251700840078036
0.5992894263508314
0.45442282458304645
0.5334014949166879
-0.43634138319105753
0.1745845760252598
0.0951215423103041
-0.37374548643342653
0.6814076717824213
0.10871683264310644
0.038018204472886986
-0.050495016476196156
1.600999834189099
0.3601547095735932
0.045610509495946944
0.6806703155668965
-0.4240194746268992
-0.4081021352309586
-0.5075910464479048
-1.1255571347147388
0.7641045024842403
0.12107076484796818
-0.028315808396533464
0.9178711674075163
-0.08420363497106063
-0.008082787527787082
0.16177795183919805
-0.6102766843083041
-0.889998628421922
-0.12575652986927613
-0.21504581215855242
-0.4086757610769033
0.2608712732183871
-0.03678448509097002
0.22650688405364686
0.12789999764273513
-0.12608400853409787
0.3818460908393101
-0.9373798437877777
-0.26620677596751685
-0.2551624350445721
-0.6230963905004743
0.1397076675382603
-0.5784452819099141
-0.48554977279452327
0.20139026029146043
0.3194309582669188
-1.816309431049326
0.2464889572545037
-0.5353199679286802
0.32523150730830136
1.095967705814514
1.393017211818306
-0.05772137068237125
0.09352508981045754
0.935796317955151
1.317717110437945
0.8956666604069221
-0.23164141108438932
-1.2911519139482641
0.6784311920965979
0.15512595138878268
0.33241456240228107
-0.14402943239718186
0.4518812369788323
0.012568197841007735
-1.0446013049926497
0.34251694069230476
-0.2802649042791527
-0.2816539395506109
-0.6266831355753889
-1.09886115295298
-0.04943714210116002
0.16863549131102382
-0.48802597638364487
0.35029563067291153
0.5172814269695377
-0.43828071367897103
-0.025194276265007844
-1.1231036581245737
0.8295012242944444
-0.7384145721244767
-0.1987700476778272
0.6870590953441633
0.7268313222372883
-0.21447788654586322
-0.2683855511775632
0.8665680781478193
-1.7694437919306145
-0.19082266193756323
-0.23190092738471174
0.23459731642767195
-0.6185885504766058
-1.0260361714280024
1.4269234654957947
-0.5619257033835282
0.38513225021576214
0.3501969407354569
-0.2805857325375808
0.04223355740392436
0.12145422097319722
0.3053237701034188
0.4844563091298947
0.6339611982116091
0.4089715035875543
-0.5344683697541792
0.20425451759753407
-0.605551372618341
-0.7492131373653088
-0.03574721603860034
0.34295443771931056
0.4412653475667159
-0.33382864749425234
-0.8530798464348756
0.47740888484745403
-0.07714112886701856
-0.29547573482906186
0.32981008280593105
1.0132674511058655
-0.08303050041015776
-0.38506309288919843
-0.30068901420063954
-0.26987707183880577
0.007027896238241338
-0.38390390568931304
-0.5701408014191539
0.7197677371625185
0.31746999203144105
-1.1661924610460286
-0.05900714353014385
0.43938493617203567
-0.6046668811154401
-0.17928839259541313
-0.16477670626748153
0.3331127399009629
-0.2024752005073338
-0.23090259936023783
-0.3237643733539031
0.274050286623194
0.4481463596408109
-0.09116599328729477
-0.37059484656271247
0.03643569015951728
-0.11689239250505862
0.13187900565748542
0.26984411902953925
0.46965034202358086
-0.32380255411893605
-0.013746669643448596
0.2566064887943685
0.22234376883299226
0.20342905444031534
0.08411635767952393
-0.5086315922791104
-0.09084527547309224
-0.1084515643461675
-0.16793257887247579
-0.040022132768600054
0.06484658362007789
0.3586486999691972
0.157410532551531
-0.08386473835572607
0.00357560675962091
-0.3745453399496234
-0.5898398200367322
-0.6749184131010281
-0.01947907713681922
0.1027408415274007
-0.23047115217317607
0.14686551051850358
-0.04360128315102383
0.2455500412864638
2.0
8.669671123550598
-0.25157917487776255
0.42683853165010466
0.06850332422818435
-0.003202327010137472
0.5297855696930092
-0.12706506253097655
0.9185287801306066
0.6389916152974606
0.09045547195147828
0.8301791554939165
-0.10196411267137903
-0.21552970412546155
0.6260617523107619
-0.5931189787239468
-0.8691244262273488
-0.341634603846752
-0.19199451013661964
1.284066862368446
0.34169052218430773
1.6834706635337813
-0.815085393814462
0.695448324427581
1.1411301530588347
-0.058415848987367396
0.6645818316677831
-0.18009200243586732
0.1296084338251707
-0.6592583711296165
0.23061595993069553
-0.09487711908403307
-0.8004816845993857
0.48397574978049585
0.10150042381451925
0.2180755340736795
-0.48641566391582713
0.15317275584955412
0.21783585422683263
0.7064050204851571
0.680666600959739
-0.781550444317184
0.48831642023491234
-0.7981967193832948
0.2657902966704988
0.2273384418383167
0.6743384718043246
-0.39060913135932657
-0.3953315931123556
1.1551693831141727
0.04080076417068499
-0.6782799743495029
-0.41503053499574766
0.11186363698002344
-0.0527953502150748
0.024999688487562136
0.27708464063478616
0.14213846210018038
-0.7976382251561321
0.04566571162297766
-0.747994756400031
-0.22579947520030372
0.2695826633974105
0.22565802732605836
-0.5070227287174588
0.6476439241506745
0.6429103631456545
-0.18484191747420012
0.5571620925580285
-0.2769694497835376
-0.7380529199853844
0.6269037233443433
-0.7298815826220132
0.8627255094892881
-0.7599398004826168
0.11846970089814286
-0.5942025310610357
-0.4711120738834813
-0.10364656144042032
-1.067222689194109
0.7637991746387991
-0.937477782481901
0.20451855678089792
-0.25631756155310476
0.6420439609030868
0.29063718278490297
0.06775187994363105
0.8835660300125888
-0.3748217997228642
0.2863494576470634
-0.785701581376373
0.8447857598714236
-0.7787359548521342
-0.23530107838334507
-0.023926144376579847
-0.6911855024152191
0.4251462900028764
-0.5476790824886937
0.33204062708285426
-0.6067562502192315
-0.0033325264594577073
0.35166783863100115
0.07358514148320301
0.3544767165260406
0.4897346494151799
-0.41204266953990715
-0.05905091158652424
-0.005012817839606104
0.0002659646675749558
-0.3269913736129781
-0.6332587480166955
-0.21146121629533682
0.010927423316993687
-0.4491422168254003
0.7929137121299997
-0.9645820003416734
0.013540928367586757
1.0085986865397878
-0.36507443029277087
0.21755023217490785
0.38174915872310966
-0.2659139279240338
-0.0066075426181891675
-0.7487152915101104
-0.715162635125648
0.11132786337705655
0.32160117829866675
-0.4755473479705468
-0.7439871827627415
0.5379643037440454
-0.4426313125021721
0.5262286829565814
0.9430682746535105
-0.8513071572720854
-0.16135367342347598
-1.0475560204840695
0.5121797045834924
-0.3345031568030862
-0.6617769590803292
0.24036472582085341
-0.8391922196433733
0.64593358055423
0.47939291093047803
-0.479056207982684
-0.2779538902423643
0.10289910716899783
-0.21244739564912232
-0.37643509544441356
-0.08139751900852614
-0.5168152139215184
-0.20630255291254407
0.43380554292710183
0.73581670961072
-0.7565949463285528
-0.6350522138283121
0.24069291200674198
0.1945858968349451
-0.06305034969891112
0.46676985447628294
0.4928288373758536
0.6022736049220655
0.3386039745644317
-0.2797505910587091
-0.2677061211654378
-0.022374842568210356
-0.09708689912549157
-0.4096059130773817
0.05731399783333485
0.13957447642098222
-0.2793141544103038
0.33325342887148157
-1.234726463552829
-0.9666941923385624
0.7459466006316864
-0.7497903180253428
0.18694631045180474
0.7805258437388053
-0.7224294173488582
-0.6612615454419437
0.7132984216208309
0.42527744752193924
-0.27196507858660407
0.570843445841673
-0.7850115210170878
-0.5308417959766061
0.7017099384327269
0.4870360820230641
-0.09131037368284042
0.07178906686385625
-0.43853187288869916
-0.4147638324513233
0.7792828076038483
-0.09055256384656567
0.09974709580157934
-0.4028123953792471
-0.3112977360546384
0.8537000485644359
0.325945871407845
0.2886926651456891
-0.7760706561831807
-0.4171192190244445
0.30190079708466844
0.3447623432475454
-0.1868781192904271
-1.3627444804808606
0.8256068859522163
0.07644955009376664
-0.25154959593646276
0.14596375781582488
-0.4153779385155907
-0.39605798520316193
-0.4575567534410607
-0.15426721518047604
-0.44933110898585993
0.10151183182492428
-0.6157031137577375
0.2594139575815642
-0.8100533722470099
0.2606254111336102
0.18835471250272817
0.2710259737133754
0.7245302632574925
0.5100202623272359
-1.42382821374965
-0.5419660168831353
0.4924956150422013
-0.16092609001677258
0.7918985057837029
0.34051367288872597
-2.375271702420311
-0.3349849268824276
0.6996384926800111
-0.33306978285328787
1.38308196723661
0.4136827138002288
-1.0503785856423062
0.3271528687802533
-0.023796528302009987
0.500975321004466
-0.053200062412157134
-0.04544317048044346
-0.9995817759516354
0.3262386809327398
0.6438422634579668
0.24234029086916026
-0.08175913709161244
0.46231540438311886
0.1653182915653269
0.39933167480544407
0.981425553521161
-0.1676828026616445
-0.5350523409953911
1.127402899237498
-0.2519907256992461
-0.20245707567325946
-0.8238810125085257
-0.6457038470750817
-0.957064882837511
0.18842233849989445
-0.14435290069844856
-0.32430943084869196
-0.6105482794714794
-0.2487117935139586
0.4634870493580767
-0.895148644143444
-0.032618733205004774
-2.871938330318289
0.12324949256916191
-0.6062477243856775
-0.435272257958456
0.7832763292405595
2.687114728147038
2.0040679837309994
-0.4887877515456094
-1.5161920520429821
-0.3561821912188945
-0.22164607052227597
-0.6382682737209606
-1.3716115473813304
0.943892383179553
-1.0277089735915763
0.2917398228342529
0.12429088031185087
0.7389486940954519
0.8782613898532593
-0.3229697359963813
-1.2535676966570228
0.2343725867056474
0.7845039179673506
-0.9809278620866922
-0.6916079363491026
-0.3697642217187231
-1.0997568199801373
0.048833741082280065
-0.24270149370149222
1.0068604665841845
-0.524514143162663
0.016746812606157277
-0.2667766757747704
0.682436487020974
0.7246651785203472
0.09305168672211912
-0.884076061434508
-0.01270421536212875
-0.4221227476752676
-0.04903468058994184
-0.5290133224939841
-0.540266847598651
-1.0735948921300442
-0.8002501172336716
-0.19523170154117944
0.14666542626307444
-0.8276823631755174
-0.2652452403748767
-0.009379542180319387
0.7954223626195234
0.7755161417679586
-0.06463204406973147
1.7192890186433616
1.0809022072963614
2.0998567979862175
-0.8183557738267814
-0.496244076580463
-0.5804205184049045
-3.7564014033183857
-0.09166860431145302
0.8186020101754007
1.641452994178936
1.104548723807348
-0.32281339250546576
0.06168823163265268
0.07922799201651394
0.9227990636538419
-0.2488551191119685
-0.17369861431857905
-0.18410462365748487
-0.9168677050529596
0.13961278093160945
0.4439347757800422
0.6293608316171346
0.1970166330274778
-0.9101029337121102
-0.07201474597452895
-0.0020442719222733513
1.055284895499741
-0.02801378257985364
-0.6482381352011084
0.9230122397603011
0.34425730129589227
-0.8260882372139566
-0.18489066153931918
1.0056174559821442
0.0013115671797660515
-0.646359206572455
-0.0701550117110567
0.31777044338976707
0.5826515921248394
0.028370585310511384
-0.2889693688860036
-0.05082891761319487
0.823720333594607
-0.03521201152265396
-0.1098287283287929
0.023036383238905184
0.3562158830734264
-0.37808434909887767
0.4293919813960022
-1.0264969893621843
-0.7904525434159333
1.3240356602463945
0.3998094443022978
-1.705229566019151
-0.9889941564395657
0.009339449737441293
-0.33193872405346403
1.7004157302303071
0.5729641025075918
1.1228605261521298
0.47749487130175544
-1.1801615557698435
-0.8345111748131521
0.2539605230424491
-1.1609805713840617
-0.43801512544740173
-1.361806093550828
2.5609379408453052
-0.22778396692454728
0.3063252499078123
1.421415609191028
0.5860851598060434
0.11246073361950121
-0.7617131304082857
-1.1194682229986166
3.533993238112241
-0.35898880855835497
-1.1860788181105921
-0.23093245944303042
0.2433375380401648
0.15161816751316778
-0.4569020114786178
-0.47121336866547137
1.4088585159466966
0.580925104615971
-0.14681633652088033
-0.35835392112225145
0.5069388837361832
0.5658234350527519
-0.7783660603102645
-0.3508111011858612
0.8969454232917679
0.23381250715552707
-0.5866709331639074
0.21804500024230544
0.42495555727532625
0.12647312818900008
-0.2477923383565227
0.19847066167383634
0.9448456576138696
0.41976538465485413
-0.2545377114914919
0.8644932102889904
-0.6571507326041143
-0.03999035956146751
-0.23793548547667623
0.18502681247904867
-0.9511932837375134
0.3238883769630981
-1.3262921262736285
1.6395031720606001
-0.09048978953658343
-0.25867834902942366
-0.17749276579796397
0.9011055917307977
-0.10183430408960668
2.1737383005859092
0.717740748549126
-0.5587404085343097
-0.4550412851933363
0.3839517493439978
-1.1480690320522215
0.6882410218040543
0.1672512285583855
0.7263549857542423
-0.6234560207116371
1.0074655526614031
-0.8976093309800056
-0.9176492454121705
-0.40699112916909913
-0.04527856802634235
0.006177330415171018
0.33586882462945816
-1.0734174316464777
-0.07613295447649276
-0.7965328583513852
0.8507426551897119
-0.8676955751144714
1.1236128650141641
-0.6859329384944812
0.5054661325083104
-0.2213537130420875
0.8541758507714149
0.15316340492605612
-0.3620469889718384
-0.3973410107473955
-0.02581439626866262
-0.1933659690437248
-0.22173725976786843
-0.3317348946030691
-0.4266490195242164
-0.16328216523097133
0.23573215597026337
-0.868026458944638
0.07147282095717238
-1.6339183707911562
-0.36880158492605536
-0.7211616222443843
0.6370277488949286
-2.417741480286187
1.2738915963302355
-1.2006928215082764
-0.7752633026910274
-0.55616497015774
0.5574761795732703
-0.7964989024585775
0.3300305641204191
-2.174628930445384
-0.785582533609847
0.22798002919593505
-1.3453856185106368
1.251957864368518
0.34507639531645545
-0.6367342719370861
-0.2201171833123396
-1.3070200450127658
0.792963990400763
-0.37240016861570896
0.8930943537958104
-0.6725238166595382
0.0892708356386674
-0.20386987033530077
0.279946041940727
-0.8153767502734801
0.21536835663461554
-0.7321688286252697
0.13369839599969804
-1.7896166512641343
0.9586772991829354
-0.7938469572427345
0.41487367507832185
-0.7673834656342902
0.749507740072715
-0.24799678091415478
0.3865747688543369
-0.9361830337277414
0.0077433542209185266
0.3632389969794223
0.30343902998071265
-1.3384921322692263
-0.11569236665292534
-0.4535588829959977
0.11878569194929968
-0.8621496283223181
0.005961493844165703
0.005961493844165703
0.005961493844165703
0.005961493844165703
0.005961493844165703
0.05266692959765327
0.05266692959765327
0.05266692959765327
0.05266692959765327
0.05266692959765327
0.029559874115022144
0.029559874115022144
0.029559874115022144
0.029559874115022144
0.029559874115022144
0.016022069838602656
0.016022069838602656
0.016022069838602656
0.016022069838602656
0.016022069838602656
0.006370365095157828
0.006370365095157828
0.006370365095157828
0.006370365095157828
0.006370365095157828
0.012896027635841396
0.012896027635841396
0.012896027635841396
0.012896027635841396
0.012896027635841396
0.0059438688712374725
0.0059438688712374725
0.0059438688712374725
0.0059438688712374725
0.0059438688712374725