nep4_zbl 2 U O 
zbl 1.25 2.5 0.7
cutoff 5.5 4 67 30
n_max 4 4
basis_size 8 8
l_max 4 2 0
ANN 30 0
 -3.7855096e-03
 -1.6094791e-02
 -3.2830629e-02
  6.0657424e-01
  5.9325451e-01
  2.0224532e-02
  7.3785581e-02
 -4.2935960e-02
  5.1307543e-03
 -1.6302494e-02
  6.7357533e-02
 -5.4845160e-01
 -1.8787840e-02
 -2.7750270e-04
  2.3065450e-02
  5.2550066e-02
 -6.9617229e-03
 -1.7000115e-01
  6.8959524e-03
  2.4054679e-03
 -2.2632938e-02
  1.5323416e-02
  1.3976388e-01
  1.4868450e-02
  4.8807055e-01
 -2.3853326e-02
 -2.4400849e-02
 -1.2059855e-02
 -1.0533004e-01
  2.8694912e-03
  1.2246857e-01
  1.8715624e-03
 -7.0817970e-02
  7.7997811e-02
  1.7709699e-01
 -1.0776808e-02
 -1.7776871e-02
 -3.8443323e-02
 -1.2082091e-03
  1.9774169e-03
 -1.2783281e-03
  6.9847904e-02
  2.6919154e-02
 -5.9498865e-02
 -5.3967662e-02
  1.3458010e-02
  6.2331039e-02
 -4.5727264e-02
  1.4579200e-02
 -1.1633947e-02
  1.3218289e-02
 -1.1692953e-01
  1.1917149e+00
 -4.8409246e-02
 -4.0831398e-03
 -5.2591055e-03
  2.5270577e-03
 -1.8060332e-02
 -9.9016558e-03
 -2.4430722e-02
  8.6722308e-01
  4.5856011e-01
  5.4678880e-02
  2.3252413e+00
 -2.1184014e-02
 -1.5063272e+00
  6.9026381e-01
  1.0832055e-01
  4.2069668e-01
  1.6062481e+00
 -3.7550046e-03
  2.9008412e-01
 -1.2921312e+00
  1.2918845e+00
  1.7487438e+00
  8.7328112e-01
 -2.8084987e-01
  3.0023658e-01
  1.0286578e-01
 -1.7233118e+00
 -1.1666280e-01
 -2.5601265e+00
  9.1231722e-01
  2.0957181e-02
  5.8932108e-01
  5.2813482e-01
 -2.4789001e-01
 -3.2992849e-01
  7.9991659e-03
  1.7884234e-02
  4.5879862e-01
  4.9452826e-01
  1.3898603e+00
  5.3820878e-01
  1.8137600e+00
 -8.2705051e-01
 -1.7569107e-03
  5.0730053e-02
 -7.0128596e-01
  1.5636870e+00
 -1.1017068e-01
 -3.2451791e-01
 -4.7019476e-01
  1.1198753e+00
  6.6679579e-01
 -3.1212604e-01
  1.3792921e+00
  8.4894043e-01
 -1.2226304e+00
  7.7007920e-01
  1.9923180e+00
  1.1391052e+00
  1.4352107e-01
 -1.1952282e+00
 -2.1819463e+00
 -4.4526804e-02
  8.2926089e-03
  3.1953609e-01
 -4.2947736e-01
  2.0151651e-01
  1.2704173e-01
 -7.1724194e-01
 -6.7906964e-01
  8.0271316e-01
  3.1625252e+00
 -3.2218286e-01
 -8.7834793e-01
  8.3969873e-01
  1.1254716e-02
  3.1791538e-02
  1.9113004e+00
 -1.5043374e+00
 -4.4985406e-02
 -1.3790564e-01
 -7.0973331e-01
  1.1422005e-01
 -1.2326858e+00
  2.1315004e-01
  9.1615222e-02
  3.9622812e+00
  1.0630323e-01
 -4.5392972e-01
  3.7343335e-01
 -2.6405621e-01
 -6.3848961e-03
 -1.4671749e-02
 -3.9827919e-01
 -2.9269516e-01
 -1.1043814e-02
 -4.3372564e-02
 -1.8332009e-01
  3.1125202e+00
  2.9567495e-01
 -1.2332628e-01
 -1.0842181e+00
  3.1579938e-02
  7.9689912e-02
  4.0896732e-02
  1.5674492e-02
 -2.6041541e-02
 -7.8425640e-03
  5.3650983e-02
  6.1962456e-01
 -3.3762180e-03
  1.4607877e-01
  2.4728674e-02
  1.5551008e-01
  5.6106472e-01
  9.3271332e-03
  1.6569336e-01
  7.8311503e-02
 -5.5157942e-01
  3.8598627e-01
  1.2061715e-02
  4.7993739e-03
  2.7698360e-03
  2.9813448e-02
  4.0436895e-03
  3.0294428e-02
 -2.8286648e-01
  3.5132337e-01
 -6.5990821e-02
 -3.0449662e-02
  7.1222442e-03
  1.2169560e-02
 -3.2314848e-02
 -1.2796575e-01
 -8.2357720e-02
  1.4303148e-02
 -6.1005659e-02
  2.1559922e-03
  5.3289700e-02
 -6.1691982e-01
  7.2133681e-03
 -1.4959829e-02
  3.6199584e-03
 -8.0271810e-02
 -2.0808464e-01
 -2.2320723e-02
  1.1139188e-02
 -4.4613248e-03
  6.2572244e-03
  1.1460409e-01
  4.1883744e-02
  4.0032268e-03
 -3.3678673e-02
 -2.0059954e-02
  8.0902735e-03
 -2.1702895e-01
  1.3510030e-03
  2.0887223e-01
  1.5978943e+00
 -6.6651024e-02
  1.2677189e+00
  2.0096095e+00
 -7.3411909e-04
  3.6581395e+00
  2.2143755e+00
  1.3119307e-01
 -5.2039725e-01
 -9.5211405e-01
  2.7922852e+00
 -5.3108513e-02
 -5.4553900e-02
 -1.7065400e+00
 -1.5106416e+00
  6.1688709e-01
 -8.7890869e-01
 -2.2181807e-01
  8.1151277e-01
 -2.1501203e+00
  7.7301127e-01
 -1.0868052e+00
  3.0871281e-01
  5.3809959e-01
  4.4859994e-02
  1.9868804e-02
 -1.1969966e+00
 -6.5039545e-03
  5.8440238e-01
 -5.6591970e-01
  1.7934893e+00
  1.1001842e+00
  2.9542272e+00
 -2.1204627e+00
  1.5573345e+00
  2.5491478e+00
 -8.4974438e-01
 -1.4617182e+00
  1.1443892e+00
  2.4621997e+00
  1.1145825e+00
 -6.4486462e-01
 -1.6396369e+00
  3.7621877e-01
  1.1618350e+00
 -2.6615986e-01
  1.1735458e-02
  1.3300508e-01
  1.7227223e+00
  9.3759978e-01
 -6.2243199e-01
  4.1526604e-01
 -4.9495223e-01
  4.7761011e+00
  9.2341900e-02
 -1.7942690e+00
  1.9195262e+00
  4.3472469e-01
  3.2523576e-02
  2.3153843e-01
  1.5276268e+00
 -1.0831504e-01
 -1.5700414e+00
 -1.6857301e+00
  1.6528754e+00
  2.7558856e+00
  1.0828607e-01
 -6.5681899e-01
 -4.0381521e-01
 -1.4052218e+00
  1.0999490e+00
  7.9130501e-02
  1.5515904e+00
 -8.8464522e-01
 -2.3893964e+00
  6.8352151e-01
  5.5412635e-02
  9.1154315e-02
 -6.2665898e-01
  4.3689954e-01
 -1.6879074e-01
 -2.4934566e+00
 -1.0631768e+00
  4.6859157e-01
  2.2092238e-03
  1.2664287e+00
 -3.1287295e-01
 -8.0614430e-01
  4.3290696e-01
  2.8696230e-02
 -5.1889569e-01
 -3.0221030e-02
  5.8632186e-03
  6.1577298e-02
  2.2013013e-01
 -9.3800463e-03
 -2.6709899e-02
  4.9749771e-03
 -4.1442964e-02
  5.2159266e-03
  6.4240947e-02
 -3.7211601e-02
  7.4225459e-03
 -4.6755351e-02
 -1.2320513e-03
 -4.5932006e-02
  6.0250595e-02
 -1.0177314e+00
  9.5687318e-04
 -6.7953975e-03
  4.0133741e-02
 -8.0727704e-02
 -3.0701852e-03
 -1.6894380e-02
 -7.4661350e-01
 -3.5882749e-02
  9.6235313e-02
  2.9685511e-04
  4.7125123e-02
 -3.8516887e-02
  1.5010730e+00
 -5.2091885e-01
  2.3014290e+00
  9.9468373e-02
  2.8575936e-01
 -1.2551214e-01
  2.1087293e-01
  4.0286660e-02
 -1.8229080e+00
  3.4806415e-02
  8.1248617e-01
  3.9182785e-01
  4.5398867e-01
 -3.5889974e-01
  1.6922411e+00
 -1.5949638e-01
 -4.3528837e-01
  2.3171017e-02
 -1.9306270e-02
  2.0328650e-02
  2.8745782e-01
  2.9503781e-01
 -4.6201013e-02
  1.6598409e-01
 -1.4115862e-02
  4.9696178e-03
 -2.3984890e-01
 -5.3449295e-02
  1.9930059e-03
 -1.2676344e-02
  2.7294580e-03
 -3.3406951e-02
 -4.3191064e-02
  1.4560399e-02
  1.7363686e-02
 -7.3810853e-02
 -1.9755134e-02
  8.8009425e-03
  8.6917970e-03
  3.5596557e-02
 -3.2441024e-02
 -2.9175329e-01
 -7.7813007e-03
 -1.1656657e-02
 -4.2579495e-03
 -8.8863365e-02
 -1.5146817e-02
 -1.6834894e-02
 -3.8437957e-03
  7.6965946e-03
 -9.7400367e-02
  3.2890532e-02
  2.8911617e-02
  1.4770365e-02
 -4.0695980e-02
 -2.3785267e-02
  1.0120533e-02
  1.4550626e-02
 -2.8351290e-02
  2.8927975e+00
 -2.7152171e+00
 -1.8465732e-01
 -5.2577490e-01
  1.8122642e+00
 -1.5791873e+00
  1.5382624e+00
 -3.7558626e-03
  5.3623848e-02
 -1.7085004e-01
 -1.0905323e+00
  1.1122022e+00
 -8.8141114e-02
  1.8495999e-02
  1.6004686e+00
 -1.4894298e-01
  1.3793548e+00
  4.3290341e-01
  2.6145818e-02
 -3.1782952e-01
  1.6553803e-01
 -1.7867371e-02
 -5.9685703e-02
  2.3946574e-01
  3.8972218e-02
 -2.9985560e-04
 -1.7427377e-02
  3.8506952e-01
  3.9316621e-02
  3.8213110e-01
 -1.1488030e+00
  1.2008960e+00
 -2.4017754e+00
  1.6277163e-01
  9.1964561e-01
  3.4666887e-01
  5.8309966e-01
 -1.9610574e+00
  1.7210802e+00
  1.0247139e+00
 -2.3327556e+00
 -2.5026660e+00
  1.2892197e+00
 -1.3198131e+00
 -1.9217982e+00
 -1.0255411e+00
 -1.1188834e+00
 -9.0274140e-02
  8.1348515e-01
 -5.0226767e-02
 -1.6183532e+00
 -8.3783919e-01
  1.0290726e-01
  5.7395589e-01
 -2.5052781e+00
  1.2425231e-01
  4.3748595e-02
  2.7778989e-01
 -7.4281551e-02
 -1.9982265e-01
  1.3499236e-02
 -1.0305796e+00
 -2.5359808e-02
 -3.6548658e-03
  9.3057013e-01
  1.3081947e-03
  1.1953008e-01
 -7.5491771e-02
  4.0919222e-02
 -2.8835513e-02
 -1.4305127e-02
  2.2628175e-03
 -1.6604522e-02
 -8.3946997e-01
 -4.8665637e-01
 -3.4504560e-01
 -1.3398507e+00
 -1.1928955e-01
 -3.3154460e-03
 -7.5777783e-04
  1.5107861e-02
  2.0719122e-02
 -3.6486115e-03
  4.2382357e-01
  3.7788500e-03
  3.4597311e-02
 -8.7110102e-03
  1.8592704e-04
 -1.8033946e-02
  1.3140191e-03
 -1.4090066e-01
 -4.2604616e-01
  2.8780097e-01
  2.5158200e+00
 -1.0764424e+00
  8.1427622e-01
  2.8379577e-01
  3.0920083e-02
 -3.4638356e-02
 -1.2291797e-01
 -6.6514063e-01
 -2.3585393e+00
  8.2575176e-03
  2.9645252e-01
 -1.0019652e+00
 -3.6887431e-01
 -2.8244492e-01
  5.4969054e-01
  8.3075881e-02
  2.8379669e-02
 -6.0014315e-02
 -2.7669871e-02
  2.9729727e-01
 -1.0812184e+00
  8.4679917e-02
  1.8554644e-01
 -4.1221897e-03
  6.9095879e-03
 -1.2903116e-02
  9.2947200e-02
  2.3081639e+00
 -3.5287211e+00
 -1.2853829e+00
  1.0987768e+00
  4.3964249e-01
  7.2224814e-01
 -6.8260145e-01
  9.4066113e-02
  5.4751599e-01
  4.3173975e-01
 -4.7827211e-01
 -1.7161921e+00
 -1.2855163e-01
  4.5867071e-02
 -3.1230414e+00
 -3.4418106e-01
  1.3978410e-01
 -6.5204456e-02
 -9.5510072e-01
 -6.1514527e-01
 -1.5779705e+00
 -2.4828254e-01
 -3.2408100e-01
  6.1904192e-01
 -1.2631314e-01
 -8.8797687e-03
 -1.0764889e-01
  5.5940115e-01
 -1.0776071e-02
 -1.2920564e-01
  1.6125214e-01
 -3.2016739e-02
  1.2210778e-02
 -1.1807619e-02
  2.6393458e-03
  5.0051319e-03
 -1.9210689e-02
  3.2701760e-03
  1.9629260e-03
  3.3510439e-03
  2.1743385e-01
  8.7404001e-04
  6.5356877e-04
  1.6044075e-02
  8.0932578e-04
  3.0567616e-04
  1.0361848e-01
 -6.7938529e-03
 -1.7231615e-02
  2.4964201e-01
  3.9289206e-02
 -1.6270840e-03
  1.9220738e-02
 -3.0104673e-02
 -2.2225140e-02
  2.3248022e-02
 -8.7821274e-04
 -1.6963735e-03
 -6.8813011e-02
  2.8999448e-02
  2.3019624e+00
  9.2876488e-01
  2.8681222e-01
  2.6163516e+00
 -2.8982239e+00
  1.4839251e+00
 -5.5558872e-03
 -5.1137757e-01
  4.6670544e-03
  1.5101486e-02
  2.1593201e+00
  7.9372805e-01
  2.9723498e-01
  1.4383740e+00
  8.3096850e-01
  1.4944531e+00
 -5.5705374e-01
  7.6830888e-01
  2.9923004e-01
  5.4266882e-01
  1.0754348e+00
 -3.1199121e+00
  2.9904796e-02
 -7.9053231e-02
  2.2351270e+00
  2.0292161e-01
  1.8786119e-02
 -2.0075445e-01
  7.0663661e-02
  3.1042891e-02
  2.4883116e-03
  8.8972569e-02
 -1.5433072e-02
  9.5718307e-03
 -4.2094234e-01
 -3.5909960e-01
  3.5974800e-03
  2.3826681e-01
  3.7566695e-02
 -2.5442431e-03
  2.0859372e-02
  7.8270845e-03
  8.2981557e-02
 -8.0187144e-03
  9.8763797e-03
 -3.2159323e-03
  6.3304894e-02
  1.6926050e-01
 -4.0596791e-02
  2.2053303e-02
  1.0022614e-02
  1.9251684e-02
 -6.1668854e-02
 -2.8016111e-02
  7.4957453e-02
 -6.0044430e-02
  3.6030963e-02
 -2.2752089e-02
  4.3434076e-02
 -8.9976043e-03
  3.9586103e-01
  1.3461460e+00
  8.9440674e-01
 -6.1012977e-01
  1.4209727e+00
 -4.2424086e-01
 -1.4606827e+00
 -4.6807694e-01
  8.1767243e-01
  3.2727650e-01
 -6.3828653e-01
 -1.2958524e+00
 -1.0542203e+00
 -1.2484062e+00
 -5.4393172e-01
  4.2415181e-01
 -1.1199034e+00
 -1.1161271e-03
 -1.3264127e-01
 -1.1298997e+00
 -1.7554669e+00
 -1.3178542e+00
  7.9778576e-01
  1.8629831e+00
 -3.3097157e-01
 -4.2446782e-03
  6.5632006e-03
  1.0581681e+00
 -8.4361248e-02
  2.0220229e-02
 -2.6538206e-02
  7.0656192e-01
  9.6785143e-02
  6.9961436e-02
 -1.3087089e-01
 -9.7221346e-04
 -5.8806967e-03
  5.0814074e-01
  1.0797740e-02
  3.9647534e-02
 -1.9755473e-03
 -3.5709613e-03
 -1.1577842e-01
  1.7546889e-03
 -1.5789406e-02
  3.9503496e-02
 -1.7358549e-02
  2.0334585e-01
  1.5851399e-02
  3.6319565e-02
  1.8967986e-01
  3.3289816e-02
  3.1203706e-02
 -9.0074074e-03
 -1.9758683e-02
 -3.5542697e-02
  3.7755977e-02
  3.1037010e-02
 -9.6615786e-03
 -3.8937663e-03
 -1.6027803e+00
 -1.6260439e+00
 -1.7744807e+00
 -9.0822233e-03
 -9.8188259e-02
 -6.4603192e-01
  1.2119603e-01
 -5.1808101e-01
 -1.3731201e-01
 -2.0676316e-01
 -1.0827151e-01
  1.1079530e-01
 -1.2115641e-01
 -9.4587043e-02
  2.0379941e-01
 -4.3703148e-01
  9.2302841e-01
 -4.0781847e-01
 -4.4275600e-01
 -3.7684670e-01
 -3.5934132e-01
  1.2430354e+00
 -2.9942838e-02
 -1.7042646e+00
 -1.1026750e-01
  3.2197300e-02
 -1.5744859e-01
  8.7552803e-04
 -1.5788838e+00
 -5.0770525e-02
 -2.8918738e+00
 -1.1462052e+00
 -8.9205670e-01
  3.3109251e-01
  5.5109739e-01
 -1.2511396e+00
 -8.1334421e-03
 -1.1681135e+00
 -7.9037836e-03
  9.7800291e-01
 -2.8121322e-01
  8.5306799e-01
  7.8050762e-01
 -7.3842674e-01
 -2.9960680e-01
 -1.2907294e+00
 -9.1829222e-01
  7.0189518e-01
 -2.5897594e-02
 -2.1494649e-02
 -1.5303179e+00
  1.3295702e+00
  7.5959212e-01
  8.6786461e-01
 -1.7786211e+00
 -4.9890481e-02
  3.8159394e-01
  1.4513574e-03
  5.4657306e-03
  1.8419664e+00
  2.5593072e-02
 -4.0875679e-01
 -2.0338362e-03
  3.2796162e-01
  1.3505132e-02
 -3.7027627e-02
 -7.4173748e-02
  9.3302112e-03
 -2.6619006e-02
 -1.0964887e-01
  6.7693843e-03
  1.1140122e-03
  1.9337282e-02
  2.1824902e-02
  2.0436818e-02
  1.1728755e-03
 -1.1032529e-03
 -1.0526588e-02
 -4.6932023e-02
 -5.3932192e-04
 -1.6872097e-02
 -4.8472211e-01
  3.7054788e-02
 -1.0206643e-02
  2.4758033e-03
  6.0731348e-02
  2.6863411e-02
 -2.2787952e-03
  4.7891390e-02
 -3.7922794e-03
 -7.7943361e-01
 -5.0490773e-01
  3.9799440e+00
 -8.0522960e-01
 -1.1221482e+00
  1.7181423e-01
  2.0398302e+00
  6.7994779e-01
 -1.0427157e+00
  3.3931727e+00
  2.0566907e+00
  1.2656685e+00
 -7.6742804e-01
 -7.1686739e-01
 -1.1736972e-01
  4.0162106e+00
  2.8560975e-01
 -9.7292107e-01
  2.2876360e-01
  7.4322236e-01
  1.6159520e+00
 -3.3570746e-01
  8.3515102e-01
 -1.2272308e+00
  9.7890818e-01
  5.4492056e-01
 -2.5980061e-01
  2.9752472e-01
 -6.9890362e-03
 -9.1599151e-02
 -1.4868878e-01
 -2.0284124e-01
  1.7831571e+00
  1.7938608e+00
 -1.7049520e-01
 -1.0865348e-02
 -3.0845258e-01
  4.5942834e-01
  9.9656427e-01
 -2.5802293e-01
  1.5019403e+00
 -7.3334068e-02
  1.0382910e+00
  7.1348861e-02
 -1.9845865e+00
  8.0756199e-01
 -4.9961010e-01
 -1.2300821e-01
  2.1708963e-02
  5.1479691e-01
 -1.1431535e-01
 -1.1746162e+00
 -2.3110159e-01
  1.2412690e-01
  1.4810684e-01
 -8.2887467e-03
 -1.9327301e-01
  6.6556358e-01
  4.3796799e-03
  2.8525919e-01
  1.7932859e-01
  1.1323111e+00
  2.0820570e+00
  2.0008209e+00
 -1.7676411e-02
 -9.4279146e-01
  4.5891181e-01
 -1.7136805e+00
  3.3698712e-02
 -9.2576122e-01
 -4.1775074e+00
  3.3241433e-01
 -3.2537971e+00
  1.2278286e+00
 -3.6325276e-01
  1.2234968e+00
 -4.6788105e-03
 -3.7371891e+00
 -5.7585359e-01
  1.4431114e+00
  5.9049720e-01
 -6.6274101e-01
  1.3344281e+00
 -8.8698679e-01
 -1.7530352e+00
  3.6833832e-01
 -1.2800733e-02
 -4.1343907e-01
  3.3734497e-02
  9.4682163e-01
  2.6667403e-02
  3.0123195e-01
  6.0677174e-03
 -6.5776938e-01
 -3.4650393e-02
  9.2102587e-03
  6.0005956e-03
 -1.3422658e-01
  7.7310479e-03
  1.5452158e-01
 -8.5161619e-02
 -1.5855590e-03
  6.8167396e-02
 -7.7000428e-03
 -4.5169093e-02
  2.8921202e-02
  3.9940979e-03
  1.7991531e-01
  8.6866848e-02
  8.6864263e-02
  9.8879322e-02
  5.9961136e-03
  2.6755350e-02
  5.9958160e-02
 -3.4352969e-02
  7.8543620e-03
 -2.2544695e-01
  2.1678924e-03
 -9.3774684e-03
 -4.5331998e-04
  2.8051906e+00
  3.1300485e+00
  1.9436345e-01
 -1.6759859e+00
 -1.2024261e+00
 -1.8948833e+00
  2.5797775e+00
 -5.6438410e-01
  7.9405808e-01
  1.3150266e+00
  3.1817110e+00
  8.3203059e-01
  3.0992696e+00
 -1.2280558e+00
 -6.9143355e-01
  3.0323725e+00
  1.3689672e+00
 -2.9931738e+00
  3.6650183e+00
  7.2852093e-01
 -2.8829961e+00
 -3.5554405e-02
 -2.5898275e+00
 -1.2561650e+00
 -1.6732429e+00
  3.2516947e+00
  1.5091980e+00
  1.5710207e+00
  1.6007617e+00
 -3.4653511e+00
 -2.5408185e+00
 -1.9079703e+00
 -2.6319907e+00
  1.2685519e+00
 -3.8733026e-01
  1.4053230e+00
 -4.4106650e-01
 -4.2624468e-01
 -9.5804542e-01
  1.0207030e+00
 -3.0329723e+00
 -1.2938225e+00
 -9.4732243e-01
  7.0428789e-01
 -1.4325802e+00
 -1.2029697e+00
 -2.8344870e+00
 -3.9296114e-01
 -2.3844182e+00
 -1.2962819e+00
  8.6317688e-01
  1.0088911e+00
  9.2424405e-01
  6.2994200e-01
  2.3244383e+00
 -1.3577508e+00
  1.4344339e+00
 -2.3154261e+00
 -2.4269047e+00
  2.7576621e+00
 -4.8251262e-01
 -4.7312942e-01
 -2.4932178e-02
  3.7103361e-01
 -5.5596028e-02
 -2.1080174e+00
 -4.9262114e-02
 -4.9045381e-01
 -5.5319522e-02
  4.4263211e-01
  4.6580100e-01
 -6.9001466e-01
 -9.3042302e-01
  1.8145214e-01
 -1.1164323e+00
  3.3832521e+00
 -7.8730798e-01
 -4.9065861e-01
  3.6997297e-01
 -3.1252944e+00
  2.9936538e+00
 -2.0121410e-01
 -2.6403018e-03
 -1.1559060e-01
 -6.9126219e-02
  3.2445125e-03
 -1.2008141e-01
  1.3260405e-01
 -6.8146390e-01
 -1.6859601e-03
 -2.4638516e-01
 -1.4952273e+00
 -2.7439895e-01
  2.6924491e-01
  3.5846468e-02
 -4.9114135e-01
  5.6321383e-03
 -6.9724613e-01
 -9.3430728e-01
 -4.1014159e-01
  2.3785937e+00
 -1.1327623e+00
 -5.7158554e-03
 -2.1626613e+00
 -5.2545005e-01
  1.3598316e+00
 -3.5520834e-01
 -7.2978415e-02
  1.2835628e-01
 -2.0662096e-01
 -1.1560072e+00
  4.7681790e-02
 -1.5590088e-03
  1.1969152e-01
  2.3440018e-02
 -2.2203486e+00
 -3.1657228e-01
  1.3186888e-01
 -2.7464338e-02
 -1.3116872e-02
  1.2544343e+00
 -7.2196788e-01
 -1.3127228e+00
 -1.0603552e+00
 -8.0181015e-01
  8.3326399e-01
 -6.6733152e-01
 -1.3485117e+00
  3.1794509e-01
  9.0188491e-01
 -1.6503200e-01
 -6.1178869e-01
 -1.2764956e+00
  2.0749788e+00
 -4.9436194e-01
  6.6367203e-01
  1.1524743e+00
 -1.2536377e+00
  2.0256513e-01
  2.5488296e-01
  1.0630289e+00
  9.6199495e-01
  5.2467778e-02
  1.3832011e+00
  8.9416856e-01
 -1.6891769e-01
  1.0303395e+00
 -3.6886489e-01
 -8.4239495e-01
 -6.0497016e-01
  2.5590426e-01
 -7.4128151e-02
  5.6605163e-04
 -2.5724478e-02
  1.4244330e+00
  1.7892208e-02
  1.3918090e-02
  3.1804167e-02
  3.8704541e-02
 -2.1055831e-01
 -1.0429856e+00
 -4.4325762e-03
 -9.8032411e-03
 -3.0945132e-02
  5.8401031e-03
 -3.1151581e-03
  9.9587113e-02
 -3.2342661e-02
 -2.9979155e-03
 -2.2682859e-01
 -3.3915453e-03
 -5.4598758e-03
 -2.2254758e-04
  5.0132941e-02
 -2.9186255e-01
  5.6287819e-03
 -2.4391303e-03
 -1.0954184e-02
  1.1384462e-02
 -8.4360972e-02
  2.2859557e-01
  1.0222157e+00
 -2.0029655e+00
  9.3503818e-02
  4.4881234e-01
  7.9318833e-01
  9.7741224e-02
  1.7085081e-01
  1.6634856e+00
  3.8655758e-01
  2.0137691e+00
 -5.0441891e-01
 -8.9248836e-02
  1.1976411e+00
  1.0449021e+00
  1.7416533e+00
 -1.5443842e-01
  3.3474681e-01
  1.1622728e+00
  1.9882770e+00
 -2.6171920e-01
  2.2841136e-01
 -2.2251622e-01
  1.3760997e+00
 -1.5353293e+00
  5.4425335e-01
 -1.7599618e-02
 -1.2157943e-01
 -7.4146843e-01
  4.5098186e-01
 -1.3470185e-01
  1.2539883e-01
  7.6196599e-03
 -2.1425042e-01
 -4.7127292e-03
 -5.0674385e-04
  4.0702373e-03
  2.3878141e-01
 -6.4505278e-03
 -2.4273188e-03
 -6.7105377e-03
 -5.3546082e-02
  6.1474009e-03
 -4.8607951e-03
 -4.1669016e-03
 -2.4182865e-02
  2.8204571e-02
 -1.4230113e-02
 -4.6892650e-02
 -5.0277272e-03
  2.9500164e-03
 -4.3971419e-01
 -2.5317971e-02
 -2.0861791e-02
  3.2341674e-02
  1.1521195e-01
 -4.9417224e-03
 -1.3515966e-02
 -1.0159665e-02
 -2.1444461e-03
  1.7336956e-01
 -4.0036998e+00
 -1.2404426e+00
 -4.8445806e-01
  1.4218177e+00
  3.2625511e-02
  2.0488627e-02
  1.3417625e-02
 -1.0055124e+00
  6.9719916e-03
  1.7806023e-02
  1.0778330e-01
  3.3731725e-02
  1.4969587e+00
  6.6270894e-01
 -1.2902086e+00
 -1.1598536e-01
 -1.7961849e-02
 -3.9611068e-01
  3.1722028e-02
  8.1794071e-01
  1.8182531e-01
  1.3343853e-02
 -2.2956872e-01
  4.6088535e-01
  6.4761591e-01
  4.1928358e-02
  7.8249030e-02
  4.5337045e-01
 -3.2236812e-01
  1.3784417e+00
 -4.6797009e+00
  1.5314480e+00
 -3.1142956e-01
 -3.4998443e-02
 -1.6465540e+00
  1.0425935e-01
  4.2715013e-02
 -1.2681351e+00
 -1.5476379e+00
  1.5974183e+00
  1.5656758e-02
 -3.7871675e+00
 -1.0456296e+00
 -4.3555874e-02
 -1.3016990e+01
 -1.0648142e-03
 -8.6952391e+00
 -2.9209232e+00
 -2.1523692e-01
 -2.6894662e+00
 -2.3794205e-01
 -2.1606421e+00
 -9.2694646e-01
  6.1878674e-03
 -4.0803275e+00
  9.4245765e-03
  3.9197389e-02
 -5.5385172e-01
  2.9891208e-02
 -2.3946071e-01
 -6.9213045e-01
 -2.4237286e-01
 -4.4803205e-01
 -1.1542016e-01
 -6.6406828e-01
  1.1757135e-01
 -1.1285773e-01
 -5.9275452e-02
 -1.6090453e-01
  6.0494000e-01
  2.5149810e-01
  6.1046176e-02
 -5.1458675e-01
  1.2072207e+00
  9.2656207e-01
  7.3910022e-01
  4.7413004e-03
 -6.5114224e-01
  1.6204123e-01
 -1.2050030e+00
  1.4522967e+00
 -7.4713834e-02
 -2.6151526e-01
  1.1801671e-01
 -8.5285738e-02
 -1.7909400e-02
  2.6743401e-02
  6.5856367e-02
  1.5483814e-01
 -1.3778109e-02
 -2.0106192e+00
 -2.7948655e-02
  1.8641293e-01
  1.6228449e-02
 -2.5268872e+00
 -1.0613114e-01
  1.8902983e-01
 -1.5696760e-02
 -2.1937500e-01
 -1.3882202e+00
 -4.7601582e-03
  2.3848997e-02
  3.7950909e-01
 -8.8992256e-01
 -5.4844856e-02
 -2.0719793e-02
  2.5779682e-01
 -3.5845503e-02
  3.4366827e-02
 -4.1255135e-02
  2.7941328e-03
  2.8058300e-02
 -4.3773681e-02
  1.4292088e-02
 -1.1315645e-02
 -2.0068397e-03
  1.5261179e-03
 -2.4980340e-02
 -1.2714094e-02
  9.4113582e-01
 -7.7715743e-01
  2.1043004e-02
 -9.6774995e-01
 -7.7021593e-01
 -2.4758523e+00
 -1.6854147e+00
 -3.2489848e-01
  2.0017447e+00
  1.8028885e+00
 -2.9036683e-01
  8.3442420e-01
 -5.9130573e-01
 -1.6563175e+00
  3.6361051e+00
 -1.3398317e+00
 -1.3611618e-01
 -1.2472749e+00
 -2.9569461e+00
  1.9652135e+00
  1.7723237e+00
  2.2698115e-01
  4.3244043e-01
 -4.6677856e+00
 -7.9540014e-02
 -2.0592248e+00
 -3.2156304e-01
 -8.5404724e-02
 -4.1080436e-01
 -9.0964603e-01
 -1.5104493e-01
 -8.5018858e-02
  7.2084451e-03
  4.3041691e-01
 -1.6475981e-02
  6.7794853e-01
 -1.0014776e-02
 -3.8466319e-02
 -1.5913601e-01
  2.7381263e-03
 -2.5535805e-02
 -6.1611191e-04
  8.9750580e-02
 -6.9095939e-04
 -4.5251600e-02
  2.6320133e-02
  1.1323711e-03
 -2.6929475e-02
  2.0732000e-01
  5.6998242e-02
 -1.4271498e-02
 -4.2728046e-03
 -2.7761381e-02
  1.7315240e-01
 -2.4937129e-01
 -3.2148773e-03
 -6.7927077e-02
  1.5154314e-02
 -1.9153412e-03
  6.8717205e-04
  4.5873526e-01
  5.1795983e-01
 -5.3883202e-02
 -2.4183981e+00
  3.5385530e+00
 -1.0093970e+00
  4.6535786e-03
  6.1414503e-03
  9.8585010e-02
 -2.3940585e-03
  5.9236206e-02
  2.6000783e-01
 -2.4216673e-01
  3.0941316e-01
  3.0244770e-02
 -1.8143469e-01
  2.1695504e+00
 -3.2649389e-01
  8.9327270e-01
 -8.6343884e-02
 -4.4816869e-01
 -2.1999550e-01
  1.1982334e-01
  1.6366588e-01
 -7.2019839e-01
 -1.2256923e-02
 -9.6922005e-03
  7.0087987e-01
 -7.7670212e-03
  7.0611082e-02
 -2.2210586e-01
 -7.6048476e-01
  9.3231440e-01
 -1.5933406e+00
  1.3651764e+00
 -9.3972898e-01
 -6.1467640e-02
 -2.0628827e+00
 -1.1800050e+00
  2.4948066e-01
 -8.3567753e+00
  1.3242301e+00
 -1.0119659e-01
 -2.4691396e+00
 -3.7910840e-01
 -2.1599893e-01
 -1.5282353e+00
  8.8689172e-01
 -2.6084118e+00
 -1.8456882e-02
 -1.3085239e+00
 -7.6257843e-01
  3.5039338e-01
 -6.9445533e-01
 -1.0228873e+00
  8.5496718e-01
 -4.6989566e-01
 -3.4561824e-02
 -2.2126634e-02
 -6.2709743e-01
 -8.2917832e-02
  1.1102574e-01
  2.7438986e+00
 -1.7922121e+00
  1.4626205e+00
 -2.0760101e-01
  7.4655604e-01
 -6.2615685e-02
  1.6856501e+00
  2.2584362e-02
  1.1015431e-02
  1.0707328e+00
 -4.9327385e-01
 -7.7494752e-01
  4.8214343e-01
  7.5418544e-01
  1.2299041e+00
 -1.3423307e+00
 -7.0377523e-03
 -8.3615857e-01
 -7.8210153e-02
 -2.1394404e-02
 -8.2421565e-01
  1.9049838e-01
 -7.6487372e-03
  2.2959054e-01
 -9.6435718e-02
  2.8028765e-01
  2.7646232e-01
  1.6918658e-01
 -3.4586987e-01
  6.3712639e-01
  7.8465092e-01
 -4.9174458e-01
  8.0070156e-01
  1.8681634e-02
  2.9365617e-01
  1.0990764e+00
  7.4807662e-01
  9.4244635e-01
  8.5761324e-02
  1.5930246e-01
  1.0633837e+00
  1.4054488e-01
  5.6495553e-01
  2.7030450e-01
  3.1013787e-01
  2.5439560e-01
 -2.3307693e+00
 -1.4227982e+00
  1.1012008e+00
 -3.6649931e-02
 -3.9587864e-01
  8.0243737e-01
 -4.6392757e-02
 -1.0797578e+00
  2.8469018e-03
 -2.6743810e+00
  1.4001628e+00
  1.7334609e-03
  1.8713104e+00
 -2.6764407e+00
  2.5346720e+00
 -1.1389942e+00
  2.5904789e+00
  1.2854654e+00
 -7.6492888e-01
  3.1628868e-01
 -1.2047626e+00
 -6.5106040e-01
  1.8790675e+00
  1.5859288e+00
  3.8669848e-01
 -3.9888474e-01
  3.9598648e-02
 -1.9792590e-01
  2.3174679e+00
  2.9672024e-01
 -2.2135565e-01
 -1.6786640e-03
 -1.1072921e+00
  1.3107326e+00
  2.4013774e+00
  7.0428920e-01
  1.9722425e+00
 -1.9717459e-02
  1.4230864e+00
  2.3182759e+00
  4.8022377e-01
 -1.0024767e-01
  8.2667500e-01
 -1.4208430e+00
 -1.1513875e+00
 -1.3606864e+00
  1.1022565e+00
  3.1408467e+00
 -2.0272495e-02
 -4.1648760e-01
  4.6937808e-01
  3.0787749e+00
  2.0765636e+00
  7.3241925e-01
 -3.6869928e-01
  2.7574885e+00
  4.2575228e-01
  8.9686966e-01
  3.9763814e-01
 -1.1917064e+00
  5.7796341e-01
  2.2655528e+00
  6.0143775e-01
  2.6522666e-01
  1.3315730e+00
  1.0332516e+00
 -1.3681437e-01
  1.4652750e+00
  1.9998102e+00
  4.3803281e-01
 -3.3203003e-01
  8.0412468e-03
 -5.4263961e-01
 -2.5534635e+00
 -6.3895122e-03
  3.0053464e-01
 -3.8904485e-03
 -9.6274406e-01
 -2.9340578e-02
  8.5670538e-03
 -4.1909728e-02
  9.1387110e-04
  6.0658314e-04
 -5.5244435e-03
 -4.0363732e-01
  1.7673500e-02
 -5.5043283e-03
 -3.3739344e-03
  6.0911283e-02
  4.0670517e-03
  8.4445065e-01
  3.0650754e-02
 -9.9563552e-03
  3.9651155e-02
  1.2897062e-02
  1.2336019e-02
  3.5138134e-02
 -5.2342331e-01
 -5.4690890e-02
  6.5979739e-03
  3.4670914e-03
 -2.5145931e-02
  5.2975553e-01
 -3.7384242e-01
  6.1014771e-02
 -2.2590837e+00
 -2.1414998e+00
  1.3554174e+00
 -4.6529602e-03
  3.4251526e-01
  7.2673595e-01
  6.6587198e-01
  2.7513175e+00
  8.8556342e-02
 -1.5352641e-01
 -4.0398121e-01
  2.9484570e+00
  1.6080763e+00
 -4.2321447e-01
 -1.5259589e-01
  1.4115770e+00
 -8.0514222e-01
  1.5506095e+00
 -2.0602169e+00
  2.8697088e-01
  1.3327705e+00
 -1.3368108e+00
  1.6616821e+00
 -2.6811522e-01
  6.5713191e-01
  4.2482409e-01
 -3.6736626e-02
  1.1371361e+00
 -1.2182729e+00
 -2.8128493e-01
  1.3835069e+00
  8.3542562e-01
 -1.4407953e+00
  1.4081937e+00
  6.1086174e-03
 -1.8071898e+00
 -3.6494317e+00
 -1.5046459e+00
  5.7466477e-01
 -5.6851512e-01
 -7.0633698e-01
  4.4912496e-01
 -9.6162754e-01
  1.0326457e+00
 -5.4040319e-01
 -6.1433285e-02
  4.9907586e-01
 -3.4666588e+00
  1.3705938e+00
  6.7784452e-01
  3.8555890e-01
  5.9635282e-01
 -3.0519485e-01
 -8.0162615e-02
 -1.7632811e-01
  4.6357530e-01
 -3.5114905e-01
 -4.7022703e-01
 -1.2789555e-01
 -3.0124458e-03
 -5.9768767e-03
  4.3888553e-03
  7.9303933e-03
  6.1582150e-03
  8.1651239e-03
  6.8667731e-03
  1.9648592e-01
 -1.4052034e-02
  8.0132425e-02
 -4.7203865e-02
  5.5461451e-03
 -3.0700466e-02
 -3.7445216e-03
  2.9383975e-01
 -2.4143888e-03
 -1.3044926e-02
  2.9390834e-02
 -1.9864125e-02
 -1.5607155e-02
  1.0258976e-01
  6.3286931e-03
 -1.0569395e-02
  4.3775621e-01
  3.5006769e-02
  6.6105360e-03
 -1.4369456e-02
  2.9417865e-03
 -2.3772936e-01
 -4.6154425e-02
 -8.9826904e-02
  2.4403179e-01
 -4.9899158e-01
  1.9561706e-02
 -6.5002270e-02
 -2.6825142e-01
  2.0948035e-01
  5.7590264e-03
 -1.5729213e-01
 -4.1519880e-02
 -1.2283846e-02
 -4.8333287e-04
 -4.7146222e-03
 -8.8110950e-04
  6.4082313e-01
  2.5272064e+00
  2.2222702e-03
 -2.3079761e-04
 -4.9623212e-01
 -2.0985356e-02
 -2.5807238e-01
  9.7845644e-02
  6.8769112e-02
 -5.0904583e-02
  4.5039514e-01
  2.3853036e-03
 -6.7839220e-02
  2.5657467e-03
 -3.5124514e-02
  3.5422778e-01
  1.2390654e-01
 -5.5436456e-01
 -6.2656927e-01
 -7.8472039e-03
  3.1075183e-02
 -4.0058500e-01
  1.1759967e-01
  3.6690128e-01
  7.4961621e-01
  4.8096295e-02
 -7.4451379e-03
  4.7728721e-02
  4.1149016e-03
  8.9713261e-02
  1.0718245e-02
  6.6385348e-03
  3.0389084e-03
 -1.5737513e-02
 -2.5256069e-02
  7.6597020e-02
  2.2500146e-02
 -2.1143181e-02
 -1.4492102e-03
 -6.6015627e-03
  1.5198445e-02
  2.2283185e-02
  2.2411384e-02
  6.7150416e-03
 -3.9365542e+00
  9.2768967e-01
  1.3628733e+00
  2.9482932e+00
 -8.2599694e-01
  4.0888472e+00
 -3.9010036e-03
  2.3544853e+00
  6.0539436e-01
 -1.1017617e+00
  4.4317502e-01
  1.7762938e-01
  1.1623676e+00
  7.2878492e-01
 -8.5916352e-01
 -1.6339582e+00
 -9.0945250e-01
  1.6553676e-01
  2.2133555e+00
 -1.1245090e-01
  1.3052050e+00
  3.8683477e-01
 -8.1237656e-01
  3.1204826e-01
 -1.5867794e-01
  4.5390050e-03
 -1.9362176e-02
 -1.5172453e-01
  1.6958897e+00
  3.1019112e-01
 -5.3132737e-01
  3.5930294e-01
 -2.2412839e+00
  3.2901514e+00
 -1.5617847e-01
 -3.1296355e-01
 -8.6370006e-02
  1.3704963e+00
  4.5665777e-01
 -1.1340569e-01
  1.0883695e+00
 -1.8305229e-01
  1.1482806e+00
  1.3950045e+00
  8.9521833e-02
 -2.9874516e-01
 -1.7582890e+00
  5.2608889e-01
  3.1805017e+00
 -3.2847455e-01
 -1.2683622e+00
 -1.0185560e+00
  1.1847442e+00
  3.9766636e+00
 -3.3423382e-01
 -1.6461227e+00
 -3.4956384e+00
  2.2127968e-03
  8.9188471e-02
  5.0196499e-01
 -1.8790707e-02
  1.3715099e+00
 -1.0206801e-01
 -7.3919572e-02
 -1.0301054e-01
  1.1379180e-02
  6.0889781e-03
 -2.6270978e-02
  1.3911565e-01
  3.5631083e-02
  3.0783436e-01
  8.8931276e-03
 -2.6948214e-02
  1.0637670e-01
 -2.8674126e-02
  6.6634759e-02
  8.7748310e-03
 -3.1781074e-02
  1.6749419e-02
  3.2079099e-03
  3.0774081e-02
 -5.5125222e-02
  8.8372985e-03
 -5.2035227e-03
 -1.4548121e-01
  2.4801277e-02
  5.4174054e-02
  5.8347913e-03
  1.0262965e-02
  1.7429268e-02
 -1.7905781e-01
  7.1038592e-01
  1.2264011e+00
 -1.0751175e+00
  5.4364330e-01
 -6.9446815e-03
  4.9298208e-02
 -1.4504325e-03
  4.1567376e-01
 -1.0318910e-02
  1.4670106e-02
  4.7197255e-01
  2.1664728e-03
 -1.6966808e-03
  5.3520841e-03
 -1.2679290e+00
  7.9573460e-02
 -1.9035336e-01
  5.6707311e-01
  5.2542649e-02
 -1.9374734e-02
  4.2354200e-02
  1.2525208e-01
 -5.9993416e-03
 -5.8698454e-03
  5.5257052e-01
 -2.5089554e-02
 -7.1205017e-03
  1.3634967e-02
  1.6068831e-01
 -1.4106148e-02
  1.0659962e-01
 -4.2811252e-02
 -5.5358191e-03
 -2.2991486e-02
  1.1822811e-02
  8.5561937e-03
  8.0365045e-03
 -8.3047591e-02
  9.2917994e-02
 -1.5292118e-02
  8.0913591e-04
 -5.0631776e-02
 -1.0977148e-01
  4.4362336e-02
  1.3587116e-02
 -1.5001189e-02
  3.5463195e-02
  9.6320140e-01
 -1.4590971e-02
  2.1970091e-02
  1.0845113e-02
  1.1456031e+00
  7.7988073e-04
  7.7058181e-02
  4.9120151e-03
 -4.1880016e-03
 -3.0140279e-02
 -2.6715990e-02
 -9.0464307e-03
 -2.9232438e+00
  3.7869781e-01
  4.1564149e-01
  5.5861835e+00
 -2.0097955e-01
  4.1415337e-01
 -3.6886883e-01
  5.5806595e-01
  7.2724766e-01
 -3.5795461e-02
 -2.4197719e+00
  1.0476008e-01
  5.2175492e-01
  2.2737064e+00
  3.7783128e-01
 -4.3111138e+00
  1.2231084e-02
 -6.7726576e-01
  2.6358755e+00
  1.1181156e-01
 -1.0288582e+00
  2.0270556e-01
 -2.8237560e-01
  7.5319970e-01
 -4.3177259e-01
 -8.7729532e-01
  2.0517449e-01
 -3.8390327e-02
 -2.0068786e-01
 -1.1721535e+00
  2.4031918e+00
  1.5143331e+00
 -1.7954351e-01
  3.3133686e+00
  2.6043622e+00
 -3.5761046e+00
 -2.0056250e+00
 -3.0780143e-01
 -2.2702589e+00
  2.1569083e+00
 -1.4562459e-01
 -3.5809124e+00
 -2.5479424e+00
 -7.4316454e-01
 -1.0146476e+00
 -1.8093014e+00
 -6.4190608e-01
  9.2346984e-01
  1.7351564e+00
 -1.6716087e-01
  6.9317922e-02
  3.4921153e+00
  3.4862776e+00
 -1.6131738e+00
  1.8053058e+00
  7.2289354e-01
 -1.4812698e+00
 -2.2364409e+00
 -2.8458648e+00
  8.3292258e-01
 -2.6640661e+00
 -1.6836145e+00
  1.2141247e+00
 -1.8837461e+00
  1.6247516e+00
  3.2949793e+00
 -2.5125870e-01
  2.2989383e+00
  5.9676404e+00
 -2.0422454e+00
  1.9311160e+00
  2.1812696e+00
  1.9914980e+00
  1.8904938e+00
  7.9474741e-01
  2.3466275e+00
  1.9529278e+00
  6.6182655e-01
 -9.9116528e-01
  1.4161906e+00
 -1.9453348e+00
 -1.5685986e+00
 -2.5427747e+00
  4.9436614e-01
  1.0466270e+00
 -1.5526049e+00
  4.4556576e-01
  2.0764453e+00
  6.1595875e-01
 -7.7482015e-01
  3.6545288e+01
 -7.1946985e-01
 -1.2726228e+00
 -9.9445951e-01
  9.1958767e-01
 -4.0067047e-01
  7.1983540e-01
 -2.0654910e+00
 -6.6724688e-01
 -8.1614763e-01
 -2.4530597e+00
  3.6207205e-01
  1.2046800e-01
 -1.7766532e+00
  1.1622712e-01
 -1.8847206e+00
  1.5738572e+00
  2.1027115e-01
 -1.2327049e+00
  2.2789373e+00
 -6.0034108e-01
  6.0685670e-01
 -4.8620839e-02
 -2.3896034e+00
 -9.6769702e-01
 -4.8642489e-01
  1.3904293e-01
 -6.8096066e-01
  1.2731079e+00
 -1.5032045e+00
 -9.4025362e-01
 -3.0295660e+00
 -1.2740883e-01
  2.3803680e+00
 -1.5569427e+00
 -2.4126458e+00
 -2.2358106e-01
  1.8132138e+00
 -7.5882846e-01
  1.1862522e+00
  7.5462961e-01
 -2.1425985e-01
 -2.0049527e-02
  3.6728469e-01
  4.1796842e+00
  7.0261145e-01
  1.5106196e+00
 -1.3259773e+00
  6.2350863e-01
  1.1272618e-01
 -4.4181511e-01
  2.8834908e+00
  1.1893041e+00
  3.4530064e-01
  1.2860708e+00
  1.5166838e+00
  4.1501555e+00
  1.8542737e-01
 -3.5348019e-01
 -7.4530023e-01
 -2.0685594e+00
  6.0253197e-01
  9.5317744e-02
  1.9355812e+00
  5.6805879e-01
  2.1087830e-01
  9.0167713e-01
  2.7454724e+00
  9.0115058e-01
  3.2731301e-01
 -3.6034885e-01
  3.3640139e+00
  2.3661568e+00
  6.5256113e-01
  1.7422010e+00
 -1.7842339e+00
  1.4302655e-01
  3.3963680e+00
  2.2132227e-01
 -1.0730721e+00
  1.7240860e+00
 -9.4241244e-01
  1.2318691e+00
  2.0249233e+00
 -1.1722207e+00
  1.4895746e+00
 -2.8714621e+00
  3.3172491e+00
  1.0577928e+00
 -3.7905765e-01
  2.3420176e-01
 -5.6646305e-01
 -6.3012749e-01
 -6.3107693e-01
  8.2216167e-01
  3.4245751e+00
 -6.8562090e-01
  1.0125481e+00
  1.7772961e+00
 -1.4233637e+00
 -1.1321862e+00
 -1.0370337e+00
 -2.8264409e-01
 -3.2893107e+00
  7.3862068e-02
 -1.5736108e+00
  7.7807540e-01
 -1.1869487e+00
 -1.0306903e+00
  6.5088338e-01
 -2.9005737e+00
  2.5737107e+00
 -6.3291627e-01
 -8.9709121e-01
 -2.1853774e+00
  1.8970888e+00
 -1.6380723e+00
  3.0423054e-01
  1.8158462e+00
 -2.5245986e+00
  2.2541432e+00
 -4.8147529e-01
 -1.9082716e+00
  4.7085953e+00
 -9.2628551e-01
 -2.9410384e+00
  3.5623074e-01
  9.5235038e-01
 -2.7276354e+00
  1.8497656e-01
  2.6959429e+00
 -2.2821968e+00
 -4.6124127e-02
  3.2683823e-01
 -7.8363401e-01
  1.9251276e+00
 -4.9080345e-01
 -8.6453801e-01
 -4.3145645e-01
  1.0149091e-01
 -1.3469907e+00
 -8.4694999e-01
  7.4218102e-02
 -7.3067385e-01
 -1.5376439e+00
 -6.8506968e-01
  1.9182199e-01
 -7.1196425e-01
 -1.5636500e+00
  3.0455966e+00
 -9.3769491e-01
 -3.9330068e-01
 -3.3049521e-01
  1.8945632e+00
 -1.5273737e+00
 -8.3509064e-01
 -8.4872800e-01
 -1.0798100e+00
 -2.4102221e+00
 -2.2812171e+00
  4.0964133e-01
  3.2163796e+00
  9.9424474e-02
 -5.4291689e-01
 -2.3387694e+00
 -2.4004695e+00
 -4.2098293e-01
  1.5548842e+00
 -1.4899437e-01
 -2.0346220e+00
  2.0352717e-02
 -7.1742147e-01
  1.6224931e-01
 -1.7930757e+00
  1.6590388e-02
 -1.6113248e+00
  7.3635828e-01
  1.0419880e+00
  1.1526706e+00
  3.0171041e+00
  7.2348422e-01
  4.1577980e-01
 -1.2960461e+00
  5.1544476e-03
 -1.0999379e+00
  3.5291153e-01
  4.6993181e-02
  4.5355856e-01
 -2.0328269e+00
  1.2406928e-01
 -1.0959275e+00
  8.2928658e-01
  4.0159912e+00
  7.7495086e-01
 -5.4719561e-01
 -1.5951869e-01
  1.2675385e-01
 -4.5149164e+00
 -1.8110618e-02
  2.6189740e+00
 -1.6521600e+00
  3.2296016e+00
  4.1799673e-01
 -6.4778841e-01
 -1.9362531e+00
 -1.2206008e+00
  1.6591833e+00
 -1.6393687e+00
 -9.3957657e-01
  1.5463575e+00
  9.8253244e-01
 -1.1639174e+00
 -6.3931042e-01
  6.7816561e-01
 -1.0415523e-01
  7.2760516e-01
  7.1827960e-01
 -1.2973994e+00
  3.1615967e-01
  4.0297809e-01
 -4.8005673e-01
 -4.2744608e+00
  1.3606765e+00
  1.7158221e+00
 -2.5286915e+00
  2.7289417e+00
  7.5849444e-01
  1.9113487e+00
  1.3130316e+00
 -1.1569331e+00
  1.2768322e+00
  5.4753512e-01
  1.5191227e+00
  7.2302318e-01
  5.3192288e-01
  4.5601411e+00
  5.6923199e-01
  7.1454066e-01
 -1.5068281e+00
  4.4081673e-02
 -2.8034456e+00
 -3.4349413e+00
  6.4847928e-01
  6.3739777e-02
 -1.0490088e+00
 -2.7014453e+00
  2.1386552e+00
 -1.7152485e-03
 -9.3180589e-02
  2.6514623e-01
  2.3287632e+00
  3.1393969e-01
  1.5657125e+00
  1.2561909e+00
  2.5342688e-01
 -5.3572613e-01
  3.4409484e-01
 -1.1460073e-02
  1.6672792e+00
 -2.0561850e+00
  6.4972275e-01
  5.1468682e+00
 -1.9778296e+00
 -2.3204029e+00
  2.1741452e+00
  3.1079581e-01
  1.4809547e-01
 -1.6643007e+00
  6.4704096e-01
  1.3351151e+00
  2.9787471e+00
 -4.2793703e-01
 -1.0617266e+00
  9.8164780e-03
 -1.8485395e+00
 -8.8409698e-01
 -5.6165779e-01
  1.0601573e-02
  1.3018562e+00
  9.0626162e-01
 -6.5855664e-01
  2.1302342e-01
  2.3567631e+00
  1.4758891e+00
  4.2161721e-01
  1.7832537e+00
  6.9412822e-01
 -4.6359915e-01
  9.1758865e-01
  1.3572413e+00
 -1.9314427e+00
 -2.7100675e+00
 -1.5326850e+00
  8.4341371e-01
  9.2188090e-02
 -9.2938155e-01
  2.5532460e-01
  4.2188582e+00
  2.2673696e-01
  1.7147253e+00
  2.1370032e+00
  4.9042410e-01
  2.0759461e+00
 -1.1502147e+00
  4.4172221e-01
  1.8584260e+00
  5.6642485e-01
 -2.1765580e+00
 -4.5698965e-01
 -6.7454368e-01
  3.8789380e-01
  4.9416909e-01
  5.7760358e-01
  9.7409225e-01
  2.6934040e+00
 -8.3321559e-01
 -1.3332367e-01
  1.1856699e-01
  1.2704620e+00
 -2.0141056e-01
 -5.6107366e-01
 -2.1351008e+00
 -1.3782012e+00
  3.2621410e-01
 -8.5373443e-01
  2.2435601e+00
 -4.5607328e-01
 -1.2096109e+00
  5.0900137e-01
  5.0557244e-01
 -5.5259980e-02
  1.3318210e+00
 -6.8267852e-01
 -2.5217047e+00
  2.9734566e-03
  2.4274192e+00
  3.4457631e+00
  3.2280943e+00
  5.6336242e-01
  1.0684578e+00
  1.1678704e+00
 -2.6208429e+00
 -1.7159724e+00
 -7.8966033e-01
  3.5727975e-01
 -7.6788312e-01
  6.2597352e-01
 -4.2658970e-01
 -2.1256502e+00
  1.6826545e+00
 -3.6304899e-02
  1.7026498e+00
 -6.3125449e-01
 -1.8063771e+00
 -4.4954079e-01
  1.9617436e+00
  5.1206809e-01
  4.7217634e-01
 -8.5870039e-01
 -1.2154707e-01
  4.1940331e-01
  1.5520994e-02
  1.5520994e-02
  1.5520994e-02
  1.5520994e-02
  1.5520994e-02
  5.9070546e-02
  5.9070546e-02
  5.9070546e-02
  5.9070546e-02
  5.9070546e-02
  4.3236960e-02
  4.3236960e-02
  4.3236960e-02
  4.3236960e-02
  4.3236960e-02
  2.8358148e-02
  2.8358148e-02
  2.8358148e-02
  2.8358148e-02
  2.8358148e-02
  1.2742269e-02
  1.2742269e-02
  1.2742269e-02
  1.2742269e-02
  1.2742269e-02
  3.0332554e-02
  3.0332554e-02
  3.0332554e-02
  3.0332554e-02
  3.0332554e-02
